	{
		{
			{
				{-0.0919121503829956}
			},
			{
				{0.1689211130142212}
			},
			{
				{-0.15200752019882202}
			},
			{
				{-0.10314203053712845}
			},
			{
				{0.10815917700529099}
			},
			{
				{0.07490602135658264}
			},
			{
				{-0.01569589599967003}
			},
			{
				{-0.022393135353922844}
			},
			{
				{-0.030360901728272438}
			},
			{
				{-0.01930980198085308}
			},
			{
				{-0.04794692248106003}
			},
			{
				{0.11285208910703659}
			},
			{
				{0.07221556454896927}
			},
			{
				{0.019378095865249634}
			},
			{
				{0.03838245943188667}
			},
			{
				{-0.07699653506278992}
			},
			{
				{0.03315072879195213}
			},
			{
				{0.02664102613925934}
			},
			{
				{0.01897621713578701}
			},
			{
				{-0.057991109788417816}
			},
			{
				{-0.06349922716617584}
			},
			{
				{-0.023266954347491264}
			},
			{
				{-0.019086504355072975}
			},
			{
				{0.11113080382347107}
			},
			{
				{-0.10539431124925613}
			},
			{
				{0.13178770244121552}
			},
			{
				{0.0976809710264206}
			},
			{
				{0.01522151567041874}
			},
			{
				{0.023797888308763504}
			},
			{
				{0.012234780006110668}
			},
			{
				{0.10794572532176971}
			},
			{
				{-0.04110680893063545}
			},
			{
				{-0.11038710922002792}
			},
			{
				{0.07064212113618851}
			},
			{
				{-0.11279939115047455}
			},
			{
				{-0.035455867648124695}
			},
			{
				{0.03993811085820198}
			},
			{
				{-0.1426035314798355}
			},
			{
				{0.04926242306828499}
			},
			{
				{-0.03334123268723488}
			},
			{
				{0.16788288950920105}
			},
			{
				{-0.03886767476797104}
			},
			{
				{-0.11138021945953369}
			},
			{
				{0.13255462050437927}
			},
			{
				{-0.0050854552537202835}
			},
			{
				{0.1847030371427536}
			},
			{
				{-0.04273141175508499}
			},
			{
				{0.0655403882265091}
			},
			{
				{-0.0917171761393547}
			},
			{
				{-0.10660627484321594}
			},
			{
				{-0.004445113707333803}
			},
			{
				{-0.007061654236167669}
			},
			{
				{0.08031591773033142}
			},
			{
				{0.03249388188123703}
			},
			{
				{-0.007835441268980503}
			},
			{
				{0.11266949027776718}
			},
			{
				{0.021424319595098495}
			},
			{
				{-0.05040222778916359}
			},
			{
				{-0.0005816582124680281}
			},
			{
				{0.006206972524523735}
			},
			{
				{0.020924106240272522}
			},
			{
				{-0.02491036243736744}
			},
			{
				{0.01371890027076006}
			},
			{
				{0.04283831641077995}
			},
			{
				{-0.057472556829452515}
			},
			{
				{-0.037611253559589386}
			},
			{
				{0.015681464225053787}
			},
			{
				{0.12449236214160919}
			},
			{
				{-0.02963062934577465}
			},
			{
				{0.012179491110146046}
			},
			{
				{-0.01055032666772604}
			},
			{
				{0.03616572171449661}
			},
			{
				{0.15432116389274597}
			},
			{
				{0.08570059388875961}
			},
			{
				{0.07385361194610596}
			},
			{
				{0.0473724827170372}
			},
			{
				{0.15067659318447113}
			},
			{
				{0.11331648379564285}
			},
			{
				{-0.07741674035787582}
			},
			{
				{-0.1721378117799759}
			},
			{
				{0.10319092124700546}
			},
			{
				{0.07184503972530365}
			},
			{
				{0.024861423298716545}
			},
			{
				{0.0545489564538002}
			},
			{
				{-0.009709537960588932}
			},
			{
				{-0.1388091742992401}
			},
			{
				{-0.050893064588308334}
			},
			{
				{-0.10452419519424438}
			},
			{
				{-0.00042661390034481883}
			},
			{
				{-0.07521570473909378}
			},
			{
				{-0.05046144127845764}
			},
			{
				{0.17009229958057404}
			},
			{
				{0.005843181628733873}
			},
			{
				{0.050592370331287384}
			},
			{
				{0.002282314235344529}
			},
			{
				{0.052234895527362823}
			},
			{
				{0.014593459665775299}
			},
			{
				{0.015154968947172165}
			},
			{
				{-0.05613478273153305}
			},
			{
				{0.15024785697460175}
			},
			{
				{0.023088878020644188}
			},
			{
				{-0.02444298379123211}
			},
			{
				{0.010923920199275017}
			},
			{
				{-0.07398135960102081}
			},
			{
				{-0.01717737875878811}
			},
			{
				{-0.02426326647400856}
			},
			{
				{-0.1457691788673401}
			},
			{
				{0.007446527946740389}
			},
			{
				{-0.1717122197151184}
			},
			{
				{-0.09272414445877075}
			},
			{
				{0.019106021150946617}
			},
			{
				{0.07672153413295746}
			},
			{
				{0.07985477894544601}
			},
			{
				{-0.03707166016101837}
			},
			{
				{0.0927523523569107}
			},
			{
				{-0.12599828839302063}
			},
			{
				{-0.13323521614074707}
			},
			{
				{-0.04477618262171745}
			},
			{
				{0.023141345009207726}
			},
			{
				{0.01667243055999279}
			},
			{
				{0.0020405943505465984}
			},
			{
				{0.03141137212514877}
			},
			{
				{-0.052298858761787415}
			},
			{
				{-0.09578501433134079}
			},
			{
				{-0.0254043098539114}
			},
			{
				{-0.1467689722776413}
			},
			{
				{0.042949873954057693}
			},
			{
				{0.09993274509906769}
			},
			{
				{0.024174077436327934}
			},
			{
				{-0.017281191423535347}
			},
			{
				{-0.010666795074939728}
			},
			{
				{-0.15369708836078644}
			},
			{
				{0.05312470719218254}
			},
			{
				{-0.04547985643148422}
			},
			{
				{0.048453010618686676}
			},
			{
				{-0.056992772966623306}
			},
			{
				{0.028315814211964607}
			},
			{
				{0.0987599641084671}
			},
			{
				{-0.006732750218361616}
			},
			{
				{0.006511395797133446}
			},
			{
				{0.028949443250894547}
			},
			{
				{0.018295351415872574}
			},
			{
				{-0.03994699940085411}
			},
			{
				{-0.0027712679002434015}
			},
			{
				{-0.1725253313779831}
			},
			{
				{-0.1362486630678177}
			},
			{
				{-0.041990093886852264}
			},
			{
				{-0.03630734607577324}
			},
			{
				{0.07661076635122299}
			},
			{
				{-0.03950214013457298}
			},
			{
				{0.017313551157712936}
			},
			{
				{0.061868853867053986}
			},
			{
				{-0.1374272108078003}
			},
			{
				{-0.1678486466407776}
			},
			{
				{-0.1289501041173935}
			},
			{
				{0.013234548270702362}
			},
			{
				{-0.05962128937244415}
			},
			{
				{-0.05237477645277977}
			},
			{
				{0.07655777037143707}
			},
			{
				{0.06866537779569626}
			},
			{
				{0.018234683200716972}
			},
			{
				{-0.10224173218011856}
			},
			{
				{-0.061665844172239304}
			},
			{
				{0.020882252603769302}
			},
			{
				{0.10901936143636703}
			},
			{
				{-0.10882625728845596}
			},
			{
				{-0.05999302119016647}
			},
			{
				{0.0663968175649643}
			},
			{
				{0.10410267114639282}
			},
			{
				{0.14453443884849548}
			},
			{
				{-0.004771215841174126}
			},
			{
				{0.051153481006622314}
			},
			{
				{0.10341835767030716}
			},
			{
				{0.013619774952530861}
			},
			{
				{-0.02007468231022358}
			},
			{
				{0.028043227270245552}
			},
			{
				{0.08861224353313446}
			},
			{
				{0.1285889744758606}
			},
			{
				{0.0001563893019920215}
			},
			{
				{-0.055484868586063385}
			},
			{
				{0.0767437070608139}
			},
			{
				{0.015994975343346596}
			},
			{
				{0.05877174809575081}
			},
			{
				{0.07145513594150543}
			},
			{
				{0.04154328629374504}
			},
			{
				{-0.10373970121145248}
			},
			{
				{0.0003784309374168515}
			},
			{
				{0.09611169993877411}
			},
			{
				{-0.08880569040775299}
			},
			{
				{-0.01254624966531992}
			},
			{
				{0.14013232290744781}
			},
			{
				{0.02292797900736332}
			},
			{
				{0.10346093773841858}
			},
			{
				{-0.020156890153884888}
			},
			{
				{-0.040053028613328934}
			},
			{
				{-0.03407328203320503}
			},
			{
				{0.0010979948565363884}
			},
			{
				{0.06434593349695206}
			},
			{
				{0.10139111429452896}
			},
			{
				{-0.03888711705803871}
			},
			{
				{0.007979290559887886}
			},
			{
				{0.08043880015611649}
			},
			{
				{-0.06529487669467926}
			},
			{
				{0.1476925015449524}
			},
			{
				{0.07784929871559143}
			},
			{
				{0.05959455668926239}
			},
			{
				{0.12834249436855316}
			},
			{
				{0.002282191766425967}
			},
			{
				{0.08086711168289185}
			},
			{
				{0.09301713854074478}
			},
			{
				{-0.06869915872812271}
			},
			{
				{0.010815427638590336}
			},
			{
				{-0.19334664940834045}
			},
			{
				{0.06761055439710617}
			},
			{
				{0.0940592810511589}
			},
			{
				{-0.1040867492556572}
			},
			{
				{0.03711884841322899}
			},
			{
				{-0.0356447771191597}
			},
			{
				{-0.0015869499184191227}
			},
			{
				{0.04767543077468872}
			},
			{
				{0.13261449337005615}
			},
			{
				{-0.06253832578659058}
			},
			{
				{-0.0880027636885643}
			},
			{
				{-0.00487954868003726}
			},
			{
				{-0.059655893594026566}
			},
			{
				{-0.017887132242321968}
			},
			{
				{-0.04345673322677612}
			},
			{
				{0.11432406306266785}
			},
			{
				{-0.07185130566358566}
			},
			{
				{0.0787464827299118}
			},
			{
				{-0.094142846763134}
			},
			{
				{-0.06248731538653374}
			},
			{
				{0.11092226952314377}
			},
			{
				{0.01926562748849392}
			},
			{
				{-0.0062866066582500935}
			},
			{
				{0.020864129066467285}
			},
			{
				{-0.09428359568119049}
			},
			{
				{0.1733657717704773}
			},
			{
				{-0.01993703842163086}
			},
			{
				{-0.10519716143608093}
			},
			{
				{-0.10617092251777649}
			},
			{
				{0.08682026714086533}
			},
			{
				{0.0300288163125515}
			},
			{
				{-0.06991886347532272}
			},
			{
				{-0.05618158355355263}
			},
			{
				{0.09857086092233658}
			},
			{
				{0.14003285765647888}
			},
			{
				{-0.08106037974357605}
			},
			{
				{0.07121914625167847}
			},
			{
				{0.03903307020664215}
			},
			{
				{0.009755518287420273}
			},
			{
				{0.04576892405748367}
			},
			{
				{-0.07478594779968262}
			},
			{
				{0.08685344457626343}
			},
			{
				{0.10469037294387817}
			},
			{
				{-0.03307285159826279}
			},
			{
				{0.15351644158363342}
			},
			{
				{0.06196320429444313}
			},
			{
				{0.05273272097110748}
			},
			{
				{-0.10360892862081528}
			},
			{
				{-0.11436605453491211}
			},
			{
				{-0.028034372255206108}
			},
			{
				{0.04912659525871277}
			},
			{
				{0.13886317610740662}
			},
			{
				{-0.14053069055080414}
			},
			{
				{-0.039968401193618774}
			},
			{
				{0.1404964178800583}
			},
			{
				{-0.05862605571746826}
			},
			{
				{0.08516478538513184}
			},
			{
				{0.006093435920774937}
			},
			{
				{0.014255831018090248}
			},
			{
				{-0.06353781372308731}
			},
			{
				{0.1538931280374527}
			},
			{
				{0.023378897458314896}
			},
			{
				{-0.006422082893550396}
			},
			{
				{-0.03703610971570015}
			},
			{
				{-0.0054998621344566345}
			},
			{
				{0.07279776781797409}
			},
			{
				{0.08900883793830872}
			},
			{
				{0.015039353631436825}
			},
			{
				{0.04126922786235809}
			},
			{
				{-0.0760350450873375}
			},
			{
				{0.09317740797996521}
			},
			{
				{-0.08923589438199997}
			},
			{
				{-0.09910193830728531}
			},
			{
				{-0.14205601811408997}
			},
			{
				{0.06291255354881287}
			},
			{
				{-0.0467706136405468}
			},
			{
				{-0.019291963428258896}
			},
			{
				{-0.014116911217570305}
			},
			{
				{-0.06018604338169098}
			},
			{
				{0.00936939474195242}
			},
			{
				{-0.083921417593956}
			},
			{
				{-0.14245735108852386}
			},
			{
				{-0.04844272509217262}
			},
			{
				{0.04516199603676796}
			},
			{
				{-0.032576482743024826}
			},
			{
				{-0.04458434879779816}
			},
			{
				{0.14319971203804016}
			},
			{
				{-0.026749540120363235}
			},
			{
				{-0.0744282528758049}
			},
			{
				{0.05692010000348091}
			},
			{
				{0.08082748204469681}
			},
			{
				{0.07962819933891296}
			},
			{
				{-0.02023850381374359}
			},
			{
				{0.03523722663521767}
			},
			{
				{0.09951034188270569}
			},
			{
				{-0.15448734164237976}
			},
			{
				{0.059341929852962494}
			},
			{
				{-0.13755670189857483}
			},
			{
				{0.0979834720492363}
			},
			{
				{-0.009225395508110523}
			},
			{
				{0.07329004257917404}
			},
			{
				{0.07494299113750458}
			},
			{
				{0.16651085019111633}
			},
			{
				{-0.025715189054608345}
			},
			{
				{-0.14074894785881042}
			},
			{
				{0.10047750920057297}
			},
			{
				{0.12620927393436432}
			},
			{
				{-0.09170779585838318}
			},
			{
				{0.05664637312293053}
			},
			{
				{0.08808764815330505}
			},
			{
				{-0.05760347843170166}
			},
			{
				{0.11324498802423477}
			},
			{
				{-0.16516391932964325}
			},
			{
				{-0.07923391461372375}
			},
			{
				{-0.12418724596500397}
			},
			{
				{-0.021186765283346176}
			},
			{
				{-0.04874171316623688}
			},
			{
				{0.03409676253795624}
			},
			{
				{0.14148220419883728}
			},
			{
				{0.07382645457983017}
			},
			{
				{0.0804060697555542}
			},
			{
				{0.1259780079126358}
			},
			{
				{0.0018660157220438123}
			},
			{
				{-0.04483458027243614}
			},
			{
				{0.022112905979156494}
			},
			{
				{-0.15304310619831085}
			},
			{
				{0.07229506969451904}
			},
			{
				{-0.15279565751552582}
			},
			{
				{-0.015310695394873619}
			},
			{
				{0.035797346383333206}
			},
			{
				{0.10127241164445877}
			},
			{
				{0.008449858985841274}
			},
			{
				{0.1141926646232605}
			},
			{
				{-0.03499193489551544}
			},
			{
				{0.015132226049900055}
			},
			{
				{-0.04571796953678131}
			},
			{
				{0.06086568534374237}
			},
			{
				{-0.07462642341852188}
			},
			{
				{0.04081359878182411}
			},
			{
				{-0.020860739052295685}
			},
			{
				{0.005585499107837677}
			},
			{
				{0.11930961906909943}
			},
			{
				{0.031611084938049316}
			},
			{
				{0.07242272049188614}
			},
			{
				{0.05836833268404007}
			},
			{
				{0.09623019397258759}
			},
			{
				{-0.06312466412782669}
			},
			{
				{0.0300616305321455}
			},
			{
				{0.05023307353258133}
			},
			{
				{-0.17749494314193726}
			},
			{
				{-0.14964540302753448}
			},
			{
				{0.03709794580936432}
			},
			{
				{-0.09066737443208694}
			},
			{
				{-0.08031552284955978}
			},
			{
				{-0.06375621259212494}
			},
			{
				{-0.016068723052740097}
			},
			{
				{-0.09050329029560089}
			},
			{
				{0.05654669553041458}
			},
			{
				{0.15105003118515015}
			},
			{
				{-0.12073592096567154}
			},
			{
				{-0.07153841108083725}
			},
			{
				{0.07088644802570343}
			},
			{
				{0.060192253440618515}
			},
			{
				{0.13234193623065948}
			},
			{
				{-0.09399977326393127}
			},
			{
				{-0.050665371119976044}
			},
			{
				{0.07844424992799759}
			},
			{
				{0.03596921265125275}
			},
			{
				{-0.10503894090652466}
			},
			{
				{0.09752160310745239}
			},
			{
				{-0.07406678050756454}
			},
			{
				{0.02619083784520626}
			},
			{
				{-0.059328336268663406}
			},
			{
				{0.022102124989032745}
			},
			{
				{0.09272827953100204}
			},
			{
				{-0.07477299124002457}
			},
			{
				{-0.10958866775035858}
			},
			{
				{-0.08017107099294662}
			},
			{
				{0.11545462906360626}
			},
			{
				{0.010246284306049347}
			},
			{
				{-0.07150603085756302}
			},
			{
				{0.09460071474313736}
			},
			{
				{-0.029596203938126564}
			},
			{
				{-0.09868805855512619}
			},
			{
				{0.169396311044693}
			},
			{
				{-0.1116781160235405}
			},
			{
				{-0.052375730127096176}
			},
			{
				{-0.027089880779385567}
			},
			{
				{-0.015528556890785694}
			},
			{
				{0.060069482773542404}
			},
			{
				{0.002693713176995516}
			},
			{
				{-0.0018469998612999916}
			},
			{
				{-0.06622309237718582}
			},
			{
				{-0.07614114880561829}
			},
			{
				{-0.036973774433135986}
			},
			{
				{0.0213876161724329}
			},
			{
				{0.034692324697971344}
			},
			{
				{-0.12581774592399597}
			},
			{
				{0.06594833731651306}
			},
			{
				{0.11837121844291687}
			},
			{
				{-0.11280953139066696}
			},
			{
				{0.08223368972539902}
			},
			{
				{0.19887305796146393}
			},
			{
				{-0.03828716278076172}
			},
			{
				{0.03511203080415726}
			},
			{
				{0.026020623743534088}
			},
			{
				{0.04157893732190132}
			},
			{
				{0.044106222689151764}
			},
			{
				{0.10933569073677063}
			},
			{
				{-0.048414938151836395}
			},
			{
				{-0.11828210204839706}
			},
			{
				{-0.07418378442525864}
			},
			{
				{-0.007491012569516897}
			},
			{
				{-0.13497379422187805}
			},
			{
				{-0.06842974573373795}
			},
			{
				{0.1435270756483078}
			},
			{
				{-0.04231542721390724}
			},
			{
				{0.08612779527902603}
			},
			{
				{-0.08625451475381851}
			},
			{
				{0.1479402333498001}
			},
			{
				{0.04534853994846344}
			},
			{
				{-0.05221347510814667}
			},
			{
				{-0.10253766924142838}
			},
			{
				{-0.12665396928787231}
			},
			{
				{-0.17699623107910156}
			},
			{
				{-0.1459197998046875}
			},
			{
				{-0.1325835883617401}
			},
			{
				{0.0995679423213005}
			},
			{
				{-0.08431176096200943}
			},
			{
				{0.09235355257987976}
			},
			{
				{-0.10332950204610825}
			},
			{
				{0.032968971878290176}
			},
			{
				{-0.0941094309091568}
			},
			{
				{-0.015166155993938446}
			},
			{
				{-0.0601847767829895}
			},
			{
				{0.024302437901496887}
			},
			{
				{0.03574618697166443}
			},
			{
				{0.0237186960875988}
			},
			{
				{0.06429949402809143}
			},
			{
				{-0.03885679692029953}
			},
			{
				{0.13707539439201355}
			},
			{
				{0.14875611662864685}
			},
			{
				{0.18705378472805023}
			},
			{
				{0.021057045087218285}
			},
			{
				{-0.053228266537189484}
			},
			{
				{-0.02495502680540085}
			},
			{
				{-0.0014691442484036088}
			},
			{
				{-0.015321699902415276}
			},
			{
				{-0.07647789269685745}
			},
			{
				{-0.014582544565200806}
			},
			{
				{0.039243295788764954}
			},
			{
				{-0.026080161333084106}
			},
			{
				{-0.013844599016010761}
			},
			{
				{-0.02147568203508854}
			},
			{
				{0.012921281158924103}
			},
			{
				{-0.05456666275858879}
			},
			{
				{0.05471295490860939}
			},
			{
				{0.001441007712855935}
			},
			{
				{0.027437876909971237}
			},
			{
				{0.010164564475417137}
			},
			{
				{-0.02805631048977375}
			},
			{
				{-0.08686494082212448}
			},
			{
				{0.06928186863660812}
			},
			{
				{-0.04634242132306099}
			},
			{
				{-0.10462556779384613}
			},
			{
				{0.05902618169784546}
			},
			{
				{-0.030671831220388412}
			},
			{
				{-0.13418664038181305}
			},
			{
				{-0.01675165258347988}
			},
			{
				{0.007949929684400558}
			},
			{
				{-0.15772289037704468}
			},
			{
				{0.012458848766982555}
			},
			{
				{0.15679216384887695}
			},
			{
				{-0.019147122278809547}
			},
			{
				{0.0159365963190794}
			},
			{
				{-0.11455433815717697}
			},
			{
				{0.020824166014790535}
			},
			{
				{0.025023553520441055}
			},
			{
				{0.0825989618897438}
			},
			{
				{0.1049412190914154}
			},
			{
				{-0.052025824785232544}
			},
			{
				{0.006875491235405207}
			},
			{
				{0.03743147850036621}
			},
			{
				{-0.01875445246696472}
			},
			{
				{-0.11570226401090622}
			},
			{
				{0.046622905880212784}
			},
			{
				{-0.05354277789592743}
			},
			{
				{0.05759091302752495}
			},
			{
				{0.08858953416347504}
			},
			{
				{-0.04669123515486717}
			},
			{
				{-0.04000362008810043}
			},
			{
				{0.010937323793768883}
			},
			{
				{-0.1510133296251297}
			},
			{
				{-0.11985216289758682}
			},
			{
				{0.015535308048129082}
			},
			{
				{-0.1704818308353424}
			},
			{
				{0.18436148762702942}
			},
			{
				{0.017893081530928612}
			},
			{
				{-0.1856311708688736}
			},
			{
				{0.03891359269618988}
			},
			{
				{0.013250739313662052}
			},
			{
				{0.03788583353161812}
			},
			{
				{0.07426832616329193}
			},
			{
				{0.15375159680843353}
			},
			{
				{0.0895506963133812}
			},
			{
				{0.002623617183417082}
			},
			{
				{0.13539555668830872}
			},
			{
				{0.08137867599725723}
			},
			{
				{0.10016873478889465}
			},
			{
				{-0.05159205198287964}
			},
			{
				{-0.08363461494445801}
			},
			{
				{-0.03387972339987755}
			},
			{
				{-0.09684799611568451}
			},
			{
				{-0.03824698552489281}
			},
			{
				{0.027854807674884796}
			},
			{
				{0.12735138833522797}
			},
			{
				{-0.028168512508273125}
			},
			{
				{0.00987726915627718}
			},
			{
				{-0.08225981146097183}
			},
			{
				{0.02844291366636753}
			},
			{
				{0.006894968915730715}
			},
			{
				{-0.06578599661588669}
			},
			{
				{-0.13715322315692902}
			},
			{
				{0.10208701342344284}
			},
			{
				{0.06824760138988495}
			},
			{
				{-0.19807711243629456}
			},
			{
				{0.030718116089701653}
			},
			{
				{0.07856976985931396}
			},
			{
				{0.04515734314918518}
			},
			{
				{0.08515379577875137}
			},
			{
				{0.08066903054714203}
			},
			{
				{-0.08371421694755554}
			},
			{
				{-0.034328822046518326}
			},
			{
				{-0.04866617172956467}
			},
			{
				{0.051913563162088394}
			},
			{
				{0.10744181275367737}
			},
			{
				{0.04226749390363693}
			},
			{
				{-0.002487999852746725}
			},
			{
				{-0.018605327233672142}
			},
			{
				{0.070124052464962}
			},
			{
				{0.09120110422372818}
			},
			{
				{-0.10527908802032471}
			},
			{
				{0.17182734608650208}
			},
			{
				{0.08397559076547623}
			},
			{
				{0.15213175117969513}
			},
			{
				{0.11204175651073456}
			},
			{
				{0.054849691689014435}
			},
			{
				{-0.0949549674987793}
			},
			{
				{0.012884480878710747}
			},
			{
				{0.15680979192256927}
			},
			{
				{-0.01474768202751875}
			},
			{
				{-0.0673961490392685}
			},
			{
				{-0.0381668396294117}
			},
			{
				{-0.0682440847158432}
			},
			{
				{0.04419587925076485}
			},
			{
				{-0.09383798390626907}
			},
			{
				{0.13405098021030426}
			},
			{
				{-0.061039865016937256}
			},
			{
				{-0.10901618003845215}
			},
			{
				{-0.009090252220630646}
			},
			{
				{0.026479581370949745}
			},
			{
				{-0.046059317886829376}
			},
			{
				{-0.04387355595827103}
			},
			{
				{-0.0650937557220459}
			},
			{
				{0.01566382683813572}
			},
			{
				{0.0771031603217125}
			},
			{
				{-0.017688419669866562}
			},
			{
				{-0.03133706375956535}
			},
			{
				{0.023395931348204613}
			},
			{
				{0.06505472213029861}
			},
			{
				{-0.04143138974905014}
			},
			{
				{0.1940765380859375}
			},
			{
				{0.1471714973449707}
			},
			{
				{0.09674402326345444}
			},
			{
				{-0.026596568524837494}
			},
			{
				{0.06905865669250488}
			},
			{
				{0.08901888132095337}
			},
			{
				{-0.13397546112537384}
			},
			{
				{-0.07477034628391266}
			},
			{
				{-0.09011080116033554}
			},
			{
				{0.09878396987915039}
			},
			{
				{0.15448173880577087}
			},
			{
				{0.16619127988815308}
			},
			{
				{-0.0029483186081051826}
			},
			{
				{-0.07839710265398026}
			},
			{
				{-0.051054634153842926}
			},
			{
				{-0.045715268701314926}
			},
			{
				{0.06582353264093399}
			},
			{
				{0.07812606543302536}
			},
			{
				{-0.03806154802441597}
			},
			{
				{-0.1147473156452179}
			},
			{
				{0.1483544558286667}
			},
			{
				{-0.14236345887184143}
			},
			{
				{0.11734806001186371}
			},
			{
				{-0.15675677359104156}
			},
			{
				{0.0008420632220804691}
			},
			{
				{0.09090319275856018}
			},
			{
				{0.011818771250545979}
			},
			{
				{0.018812499940395355}
			},
			{
				{-0.09891269356012344}
			},
			{
				{0.057094912976026535}
			},
			{
				{-0.08772581815719604}
			},
			{
				{-0.1725010722875595}
			},
			{
				{0.060829468071460724}
			},
			{
				{0.09631228446960449}
			},
			{
				{-0.07147729396820068}
			},
			{
				{0.1088249608874321}
			},
			{
				{-0.0043072751723229885}
			},
			{
				{0.039296627044677734}
			},
			{
				{-0.13036800920963287}
			},
			{
				{0.12018217146396637}
			},
			{
				{-0.0974893793463707}
			},
			{
				{-0.12940016388893127}
			},
			{
				{0.06901655346155167}
			},
			{
				{0.022575577720999718}
			},
			{
				{0.10174334794282913}
			},
			{
				{-0.14072662591934204}
			},
			{
				{0.019946688786149025}
			},
			{
				{0.05625511333346367}
			},
			{
				{-0.0027344548143446445}
			},
			{
				{0.04751583933830261}
			},
			{
				{-0.04022032395005226}
			},
			{
				{0.10639651119709015}
			},
			{
				{-0.05718196555972099}
			},
			{
				{-0.12166974693536758}
			},
			{
				{-0.1280396580696106}
			},
			{
				{-0.03686485067009926}
			},
			{
				{-0.06822822988033295}
			},
			{
				{0.135931134223938}
			},
			{
				{0.00717881228774786}
			},
			{
				{0.025290444493293762}
			},
			{
				{-0.1949893981218338}
			},
			{
				{0.04511862248182297}
			},
			{
				{0.17189094424247742}
			},
			{
				{0.044707655906677246}
			},
			{
				{0.038021378219127655}
			},
			{
				{-0.12943027913570404}
			},
			{
				{-0.041269153356552124}
			},
			{
				{-0.07406692951917648}
			},
			{
				{-0.07690990716218948}
			},
			{
				{-0.06673743575811386}
			},
			{
				{0.17860054969787598}
			},
			{
				{-0.022154152393341064}
			},
			{
				{-0.05411526933312416}
			},
			{
				{-0.0778636708855629}
			},
			{
				{-0.051693595945835114}
			},
			{
				{0.011847433634102345}
			},
			{
				{0.132590189576149}
			},
			{
				{0.0701703280210495}
			},
			{
				{-0.14828556776046753}
			},
			{
				{-0.019847264513373375}
			},
			{
				{-0.01730220951139927}
			},
			{
				{0.03705156221985817}
			},
			{
				{-0.01746068149805069}
			},
			{
				{0.07327382266521454}
			},
			{
				{-0.041317619383335114}
			},
			{
				{0.08995814621448517}
			},
			{
				{-0.06382083892822266}
			},
			{
				{-0.18353889882564545}
			},
			{
				{-0.14558076858520508}
			},
			{
				{-0.0531676784157753}
			},
			{
				{-0.05070875585079193}
			},
			{
				{0.11262118071317673}
			},
			{
				{-0.14006496965885162}
			},
			{
				{-0.11929880082607269}
			},
			{
				{0.09497921913862228}
			},
			{
				{-0.08799264580011368}
			},
			{
				{0.030136069282889366}
			},
			{
				{0.019583797082304955}
			},
			{
				{0.009923575446009636}
			},
			{
				{-0.027663012966513634}
			},
			{
				{-0.05443577468395233}
			},
			{
				{-0.0518697127699852}
			},
			{
				{0.1409413367509842}
			},
			{
				{0.04460260644555092}
			},
			{
				{0.09892003238201141}
			},
			{
				{-0.05260759964585304}
			},
			{
				{0.014729321002960205}
			},
			{
				{0.0879950001835823}
			},
			{
				{0.0659298226237297}
			},
			{
				{-0.000872074393555522}
			},
			{
				{-0.17128071188926697}
			},
			{
				{-0.11562316119670868}
			},
			{
				{-0.07854440808296204}
			},
			{
				{-0.17086203396320343}
			},
			{
				{-0.09498906880617142}
			},
			{
				{-0.14382514357566833}
			},
			{
				{0.0049277557991445065}
			},
			{
				{0.021109191700816154}
			},
			{
				{-0.025259487330913544}
			},
			{
				{0.12141074985265732}
			},
			{
				{0.16932253539562225}
			},
			{
				{0.08201390504837036}
			},
			{
				{0.06696201115846634}
			},
			{
				{0.04207645729184151}
			},
			{
				{-0.0032873135060071945}
			},
			{
				{0.0563037171959877}
			},
			{
				{-0.0835346132516861}
			},
			{
				{0.002646117005497217}
			},
			{
				{0.08739767968654633}
			},
			{
				{-0.0068918997421860695}
			},
			{
				{-0.03363773971796036}
			},
			{
				{0.003622692311182618}
			},
			{
				{-0.12192394584417343}
			},
			{
				{-0.0896160826086998}
			},
			{
				{-0.03620600327849388}
			},
			{
				{0.04504973068833351}
			},
			{
				{0.00785848405212164}
			},
			{
				{0.1655626893043518}
			},
			{
				{0.052924659103155136}
			},
			{
				{0.12260248512029648}
			},
			{
				{-0.09725663810968399}
			},
			{
				{-0.10287179052829742}
			},
			{
				{0.1187642440199852}
			},
			{
				{-0.030047152191400528}
			},
			{
				{-0.045743729919195175}
			},
			{
				{-0.0915774405002594}
			},
			{
				{0.12654006481170654}
			},
			{
				{-0.04496997594833374}
			},
			{
				{0.08938565105199814}
			},
			{
				{0.06683773547410965}
			},
			{
				{-0.05394192785024643}
			},
			{
				{0.04633074253797531}
			},
			{
				{-0.08910742402076721}
			},
			{
				{0.12489299476146698}
			},
			{
				{0.0056098345667123795}
			},
			{
				{-0.1595650315284729}
			},
			{
				{0.09349409490823746}
			},
			{
				{-0.05458597093820572}
			},
			{
				{0.07524576783180237}
			},
			{
				{-0.0897052213549614}
			},
			{
				{-0.16492050886154175}
			},
			{
				{-0.017344342544674873}
			},
			{
				{0.08111071586608887}
			},
			{
				{-0.139634370803833}
			},
			{
				{0.09794656932353973}
			},
			{
				{0.02146592177450657}
			},
			{
				{0.10474411398172379}
			},
			{
				{0.05316059663891792}
			},
			{
				{-0.11574092507362366}
			},
			{
				{0.0804516077041626}
			},
			{
				{-0.11125621944665909}
			},
			{
				{-0.12085003405809402}
			},
			{
				{0.04023173823952675}
			},
			{
				{-0.07823187112808228}
			},
			{
				{-0.010798564180731773}
			},
			{
				{-0.03994637355208397}
			},
			{
				{0.07667218893766403}
			},
			{
				{0.09093640744686127}
			},
			{
				{0.07407140731811523}
			},
			{
				{-0.12745507061481476}
			},
			{
				{0.18942056596279144}
			},
			{
				{-0.12590818107128143}
			},
			{
				{0.11065651476383209}
			},
			{
				{0.10870537161827087}
			},
			{
				{-0.10220082104206085}
			},
			{
				{-0.02418360486626625}
			},
			{
				{-0.01772211119532585}
			},
			{
				{0.1287762075662613}
			},
			{
				{0.012356300838291645}
			},
			{
				{-0.024032149463891983}
			},
			{
				{-0.06045409291982651}
			},
			{
				{0.03762589767575264}
			},
			{
				{0.03740503266453743}
			},
			{
				{0.10514958202838898}
			},
			{
				{-0.08632761985063553}
			},
			{
				{0.017508020624518394}
			},
			{
				{0.1199009045958519}
			},
			{
				{-0.006441747769713402}
			},
			{
				{-0.0946255624294281}
			},
			{
				{-0.05509436875581741}
			},
			{
				{-0.1255609095096588}
			},
			{
				{-0.09484308958053589}
			},
			{
				{-0.10442216694355011}
			},
			{
				{-0.027253352105617523}
			},
			{
				{-0.11663968861103058}
			},
			{
				{-0.05112270638346672}
			},
			{
				{0.08262211084365845}
			},
			{
				{-0.07167068123817444}
			},
			{
				{0.11511452496051788}
			},
			{
				{-0.04538705199956894}
			},
			{
				{-0.034495480358600616}
			},
			{
				{-0.038230665028095245}
			},
			{
				{0.053631655871868134}
			},
			{
				{0.09718485176563263}
			},
			{
				{-0.08304212242364883}
			},
			{
				{-0.05885136500000954}
			},
			{
				{-0.032092105597257614}
			},
			{
				{0.10227792710065842}
			},
			{
				{-0.04978174716234207}
			},
			{
				{-0.013481497764587402}
			},
			{
				{0.10444208234548569}
			},
			{
				{0.10217074304819107}
			},
			{
				{0.025287631899118423}
			},
			{
				{0.07866154611110687}
			},
			{
				{0.08290332555770874}
			},
			{
				{0.04550173506140709}
			},
			{
				{0.06929057091474533}
			},
			{
				{-0.08536199480295181}
			},
			{
				{-0.05841359868645668}
			},
			{
				{-0.07364039868116379}
			},
			{
				{-0.0027043905574828386}
			},
			{
				{0.0692422166466713}
			},
			{
				{0.017518360167741776}
			},
			{
				{0.014061707071959972}
			},
			{
				{-0.033020175993442535}
			},
			{
				{-0.08551153540611267}
			},
			{
				{0.02822135016322136}
			},
			{
				{-0.03738829120993614}
			},
			{
				{-0.02757985331118107}
			},
			{
				{0.07266917824745178}
			},
			{
				{0.009246518835425377}
			},
			{
				{-0.014874795451760292}
			},
			{
				{-0.056948840618133545}
			},
			{
				{-0.07337935268878937}
			},
			{
				{0.06429094821214676}
			},
			{
				{-0.037240128964185715}
			},
			{
				{-0.09148230403661728}
			},
			{
				{-0.13499394059181213}
			},
			{
				{-0.13480715453624725}
			},
			{
				{0.019126323983073235}
			},
			{
				{-0.034294627606868744}
			},
			{
				{-0.004808783996850252}
			},
			{
				{-0.10730598121881485}
			},
			{
				{-0.040610283613204956}
			},
			{
				{-0.0030957134440541267}
			},
			{
				{0.04662191495299339}
			},
			{
				{0.006093190051615238}
			},
			{
				{-0.04898860678076744}
			},
			{
				{0.11057114601135254}
			},
			{
				{0.015585710294544697}
			},
			{
				{-0.11292552202939987}
			},
			{
				{-0.12082040309906006}
			},
			{
				{0.04888295754790306}
			},
			{
				{0.13062866032123566}
			},
			{
				{0.01206377986818552}
			},
			{
				{0.15807312726974487}
			},
			{
				{-0.04792286083102226}
			},
			{
				{0.012198328040540218}
			},
			{
				{-0.02780289575457573}
			},
			{
				{-0.042742326855659485}
			},
			{
				{0.0012965064961463213}
			},
			{
				{0.08597876131534576}
			},
			{
				{0.003676631487905979}
			},
			{
				{0.07478731125593185}
			},
			{
				{-0.025963740423321724}
			},
			{
				{0.07223504781723022}
			},
			{
				{0.07676859200000763}
			},
			{
				{0.12923891842365265}
			},
			{
				{0.09472472220659256}
			},
			{
				{0.1152285784482956}
			},
			{
				{0.08785586059093475}
			},
			{
				{-0.11810411512851715}
			},
			{
				{-0.004530026111751795}
			},
			{
				{-0.052260871976614}
			},
			{
				{0.1345502883195877}
			},
			{
				{-0.027616363018751144}
			},
			{
				{0.15532484650611877}
			},
			{
				{0.03472793474793434}
			},
			{
				{0.06427256762981415}
			},
			{
				{-0.0754789337515831}
			},
			{
				{-0.07318246364593506}
			},
			{
				{-0.12120074033737183}
			},
			{
				{0.086265429854393}
			},
			{
				{-0.02875032089650631}
			},
			{
				{0.056999269872903824}
			},
			{
				{-0.004163291770964861}
			},
			{
				{0.1372164934873581}
			},
			{
				{0.07742906361818314}
			},
			{
				{-0.10977079719305038}
			},
			{
				{0.062209371477365494}
			},
			{
				{-0.07711188495159149}
			},
			{
				{0.031646326184272766}
			},
			{
				{-0.1535588949918747}
			},
			{
				{0.08853549510240555}
			},
			{
				{0.12093552947044373}
			},
			{
				{-0.07885216176509857}
			},
			{
				{-0.17106766998767853}
			},
			{
				{0.00776066817343235}
			},
			{
				{-0.011262357234954834}
			},
			{
				{-0.09990080446004868}
			},
			{
				{-0.07643456012010574}
			},
			{
				{-0.059756066650152206}
			},
			{
				{-0.023162731900811195}
			},
			{
				{-0.035731241106987}
			},
			{
				{-0.03209295868873596}
			},
			{
				{0.03379746153950691}
			},
			{
				{0.06064285337924957}
			},
			{
				{0.013591622933745384}
			},
			{
				{-0.0750502347946167}
			},
			{
				{-0.17338472604751587}
			},
			{
				{-0.03733948618173599}
			},
			{
				{-0.19423604011535645}
			},
			{
				{0.019786233082413673}
			},
			{
				{-0.11355952173471451}
			},
			{
				{-0.20238670706748962}
			},
			{
				{-0.05302638188004494}
			},
			{
				{-0.04983276501297951}
			},
			{
				{0.004582065157592297}
			},
			{
				{0.020136477425694466}
			},
			{
				{0.04602661728858948}
			},
			{
				{-0.06435482949018478}
			},
			{
				{0.16181573271751404}
			},
			{
				{0.11245892196893692}
			},
			{
				{-0.04861385375261307}
			},
			{
				{-0.00129717867821455}
			},
			{
				{-0.08803370594978333}
			},
			{
				{0.0295184925198555}
			},
			{
				{0.045569490641355515}
			},
			{
				{-0.05484067648649216}
			},
			{
				{0.1365697979927063}
			},
			{
				{0.031041420996189117}
			},
			{
				{-0.07998895645141602}
			},
			{
				{-0.07167131453752518}
			},
			{
				{0.09933517873287201}
			},
			{
				{0.028231874108314514}
			},
			{
				{0.11635389178991318}
			},
			{
				{-0.06925081461668015}
			},
			{
				{-0.1413939744234085}
			},
			{
				{-0.05092779919505119}
			},
			{
				{-0.06804665178060532}
			},
			{
				{-0.1763848066329956}
			},
			{
				{0.14597825706005096}
			},
			{
				{0.03279879316687584}
			},
			{
				{0.11444264650344849}
			},
			{
				{-0.08148069679737091}
			},
			{
				{0.0030734853353351355}
			},
			{
				{0.14574286341667175}
			},
			{
				{-0.07451817393302917}
			},
			{
				{-0.062340494245290756}
			},
			{
				{0.0729575827717781}
			},
			{
				{0.01889868639409542}
			},
			{
				{0.021130360662937164}
			},
			{
				{-0.07383092492818832}
			},
			{
				{0.057326022535562515}
			},
			{
				{0.17781129479408264}
			},
			{
				{-0.006386461667716503}
			},
			{
				{0.09088708460330963}
			},
			{
				{0.073427215218544}
			},
			{
				{-0.02750755101442337}
			},
			{
				{0.1495276838541031}
			},
			{
				{0.15180975198745728}
			},
			{
				{0.08165993541479111}
			},
			{
				{-0.008305907249450684}
			},
			{
				{-0.15388087928295135}
			},
			{
				{-0.09945403784513474}
			},
			{
				{0.05105755478143692}
			},
			{
				{0.11731210350990295}
			},
			{
				{0.10357227921485901}
			},
			{
				{-0.013250074349343777}
			},
			{
				{0.1226758286356926}
			},
			{
				{0.0034632228780537844}
			},
			{
				{-0.0784703940153122}
			},
			{
				{0.005977329798042774}
			},
			{
				{-0.01877879723906517}
			},
			{
				{-0.03827482834458351}
			},
			{
				{0.0013699355768039823}
			},
			{
				{0.046265967190265656}
			},
			{
				{0.07759081572294235}
			},
			{
				{-0.12934592366218567}
			},
			{
				{0.075421541929245}
			},
			{
				{0.031153762713074684}
			},
			{
				{0.07984559237957001}
			},
			{
				{0.13291606307029724}
			},
			{
				{-0.09677709639072418}
			},
			{
				{-0.03674454614520073}
			},
			{
				{-0.05961882323026657}
			},
			{
				{-0.10073799639940262}
			},
			{
				{-0.07678837329149246}
			},
			{
				{-0.11687261611223221}
			},
			{
				{0.07931501418352127}
			},
			{
				{0.04310784861445427}
			},
			{
				{-0.08863324671983719}
			},
			{
				{-0.11830151826143265}
			},
			{
				{0.15331879258155823}
			},
			{
				{0.06142076104879379}
			},
			{
				{0.06272053718566895}
			},
			{
				{0.062304284423589706}
			},
			{
				{-0.11396639794111252}
			},
			{
				{-0.11478298157453537}
			},
			{
				{0.10744643211364746}
			},
			{
				{0.04924510791897774}
			},
			{
				{0.10346020758152008}
			},
			{
				{0.03309987857937813}
			},
			{
				{0.08250174671411514}
			},
			{
				{-0.03152166306972504}
			},
			{
				{0.10613307356834412}
			},
			{
				{0.006292775738984346}
			},
			{
				{-0.06906498223543167}
			},
			{
				{-0.0894361063838005}
			},
			{
				{-0.09793584048748016}
			},
			{
				{-0.1121501475572586}
			},
			{
				{0.031010987237095833}
			},
			{
				{-0.09282736480236053}
			},
			{
				{0.011946404352784157}
			},
			{
				{-0.14600925147533417}
			},
			{
				{-0.16513246297836304}
			},
			{
				{-0.15774400532245636}
			},
			{
				{-0.13411065936088562}
			},
			{
				{-0.058501243591308594}
			},
			{
				{-0.11081709712743759}
			},
			{
				{0.18553026020526886}
			},
			{
				{-0.10945554822683334}
			},
			{
				{-0.04301595315337181}
			},
			{
				{-0.06976012140512466}
			},
			{
				{0.08704443275928497}
			},
			{
				{0.10645812749862671}
			},
			{
				{0.0020757680758833885}
			},
			{
				{0.03437452018260956}
			},
			{
				{0.10843056440353394}
			},
			{
				{-0.1511414498090744}
			},
			{
				{0.08550424128770828}
			},
			{
				{-0.06593354791402817}
			},
			{
				{0.007508768700063229}
			},
			{
				{-0.015665417537093163}
			},
			{
				{0.09403535723686218}
			},
			{
				{-0.058503735810518265}
			},
			{
				{0.032875318080186844}
			},
			{
				{0.03101962059736252}
			},
			{
				{-0.015346163883805275}
			},
			{
				{-0.07376359403133392}
			},
			{
				{-0.02614544704556465}
			},
			{
				{0.03503807261586189}
			},
			{
				{0.07366922497749329}
			},
			{
				{0.09512662142515182}
			},
			{
				{-0.033964015543460846}
			},
			{
				{-0.03170362487435341}
			},
			{
				{0.008325748145580292}
			},
			{
				{-0.10760705173015594}
			},
			{
				{-0.12970998883247375}
			},
			{
				{-0.035419244319200516}
			},
			{
				{-0.14040011167526245}
			},
			{
				{0.011493290774524212}
			},
			{
				{-0.031429219990968704}
			},
			{
				{0.11129073798656464}
			},
			{
				{-0.04382456839084625}
			},
			{
				{0.0441090390086174}
			},
			{
				{0.015484253875911236}
			},
			{
				{-0.03873514011502266}
			},
			{
				{-0.01140817441046238}
			},
			{
				{0.019486477598547935}
			},
			{
				{0.014217620715498924}
			},
			{
				{-0.008808152750134468}
			},
			{
				{-0.021290451288223267}
			},
			{
				{-0.05337142199277878}
			},
			{
				{-0.14317981898784637}
			},
			{
				{0.08029988408088684}
			},
			{
				{-0.027660120278596878}
			},
			{
				{0.09271921962499619}
			},
			{
				{0.00538258021697402}
			},
			{
				{0.047060783952474594}
			},
			{
				{-0.15540018677711487}
			},
			{
				{-0.026688847690820694}
			},
			{
				{-0.0752609372138977}
			},
			{
				{-0.05638227239251137}
			},
			{
				{0.05346106365323067}
			},
			{
				{-0.1618552803993225}
			},
			{
				{-0.0069895051419734955}
			},
			{
				{-0.06903772801160812}
			},
			{
				{0.01254764199256897}
			},
			{
				{0.04611143097281456}
			},
			{
				{0.019936634227633476}
			},
			{
				{-0.07105576246976852}
			},
			{
				{0.07977600395679474}
			},
			{
				{-0.072079598903656}
			},
			{
				{-0.03269979730248451}
			},
			{
				{0.012524629943072796}
			},
			{
				{-0.022054072469472885}
			},
			{
				{0.05223643034696579}
			},
			{
				{0.011065431870520115}
			},
			{
				{0.07813478261232376}
			},
			{
				{0.04406085982918739}
			},
			{
				{0.07641014456748962}
			},
			{
				{-0.05839058756828308}
			},
			{
				{0.10440859198570251}
			},
			{
				{0.04255199804902077}
			},
			{
				{-0.03187032788991928}
			},
			{
				{0.042107872664928436}
			},
			{
				{0.0013882261700928211}
			},
			{
				{0.06359479576349258}
			},
			{
				{-0.13716264069080353}
			},
			{
				{-0.011997370980679989}
			},
			{
				{-0.03828193619847298}
			},
			{
				{0.11285383999347687}
			},
			{
				{-0.14612573385238647}
			},
			{
				{0.06804148852825165}
			},
			{
				{0.05589178577065468}
			},
			{
				{-0.14288192987442017}
			},
			{
				{0.04871060699224472}
			},
			{
				{-0.1014183759689331}
			},
			{
				{0.0003143362409900874}
			},
			{
				{-0.1374671906232834}
			},
			{
				{-0.14672784507274628}
			},
			{
				{0.008139705285429955}
			},
			{
				{-0.09153150022029877}
			},
			{
				{-0.014022049494087696}
			},
			{
				{-0.1399158090353012}
			},
			{
				{-0.07044055312871933}
			},
			{
				{0.015124714933335781}
			},
			{
				{-0.06982851028442383}
			},
			{
				{0.10028901696205139}
			},
			{
				{0.16721419990062714}
			},
			{
				{0.032375045120716095}
			},
			{
				{-0.07139160484075546}
			},
			{
				{-0.04029141739010811}
			},
			{
				{0.11409781873226166}
			},
			{
				{0.08422324806451797}
			},
			{
				{-0.035743918269872665}
			},
			{
				{-0.0323854498565197}
			},
			{
				{-0.09761751443147659}
			},
			{
				{0.01681341975927353}
			},
			{
				{0.03485778719186783}
			},
			{
				{-0.024212880060076714}
			},
			{
				{0.021309765055775642}
			},
			{
				{-0.09755358844995499}
			},
			{
				{-0.02217407338321209}
			},
			{
				{-0.16224804520606995}
			},
			{
				{-0.11529330909252167}
			},
			{
				{0.04404318332672119}
			},
			{
				{-0.12337490171194077}
			},
			{
				{0.10840702056884766}
			},
			{
				{-0.07628161460161209}
			},
			{
				{0.093929223716259}
			},
			{
				{0.0113134253770113}
			},
			{
				{0.09911773353815079}
			},
			{
				{-0.0072539085522294044}
			},
			{
				{0.07299645990133286}
			},
			{
				{0.12259137630462646}
			},
			{
				{-0.11900512874126434}
			},
			{
				{0.13751070201396942}
			},
			{
				{-0.11741312593221664}
			},
			{
				{-0.016100024804472923}
			},
			{
				{0.08266165107488632}
			},
			{
				{-0.10358992964029312}
			},
			{
				{0.022343728691339493}
			},
			{
				{-0.015465103089809418}
			},
			{
				{0.036604803055524826}
			},
			{
				{-0.0647636130452156}
			},
			{
				{0.18636806309223175}
			},
			{
				{0.03132088482379913}
			},
			{
				{0.0950726643204689}
			},
			{
				{-0.02387716807425022}
			},
			{
				{0.011057562194764614}
			},
			{
				{-0.006503844168037176}
			},
			{
				{0.07306884974241257}
			},
			{
				{-0.1014905497431755}
			},
			{
				{0.08676071465015411}
			},
			{
				{-0.02524147368967533}
			},
			{
				{0.09884049743413925}
			},
			{
				{0.13979752361774445}
			},
			{
				{0.026316922158002853}
			},
			{
				{-0.03441671282052994}
			},
			{
				{-0.18039213120937347}
			},
			{
				{-0.041641879826784134}
			},
			{
				{-0.01901334896683693}
			},
			{
				{-0.049753982573747635}
			},
			{
				{0.05409304052591324}
			},
			{
				{-0.07964902371168137}
			},
			{
				{-0.08080674707889557}
			},
			{
				{0.03189580887556076}
			},
			{
				{0.07827514410018921}
			},
			{
				{-0.06745772808790207}
			},
			{
				{0.08431025594472885}
			},
			{
				{-0.01273503340780735}
			},
			{
				{0.0027790002059191465}
			},
			{
				{-0.0570906326174736}
			},
			{
				{0.01070356834679842}
			},
			{
				{-0.04475691169500351}
			},
			{
				{0.013866673223674297}
			},
			{
				{0.07043559104204178}
			},
			{
				{-0.0012750852620229125}
			},
			{
				{-0.17903627455234528}
			},
			{
				{-0.14515823125839233}
			},
			{
				{0.010542277246713638}
			},
			{
				{0.060096364468336105}
			},
			{
				{0.05881607159972191}
			},
			{
				{0.08561290800571442}
			},
			{
				{0.07092902809381485}
			},
			{
				{0.11754246801137924}
			},
			{
				{-0.16963373124599457}
			},
			{
				{-0.11533991247415543}
			},
			{
				{0.03738243132829666}
			},
			{
				{0.16456441581249237}
			},
			{
				{0.12875740230083466}
			},
			{
				{-0.0503937266767025}
			},
			{
				{0.020084578543901443}
			},
			{
				{0.025620242580771446}
			},
			{
				{0.090353824198246}
			},
			{
				{-0.10350506007671356}
			},
			{
				{-0.006352152209728956}
			},
			{
				{0.05544807389378548}
			},
			{
				{0.15432791411876678}
			},
			{
				{0.053879305720329285}
			},
			{
				{-0.1417553871870041}
			},
			{
				{-0.017404286190867424}
			},
			{
				{0.034118060022592545}
			},
			{
				{-0.06459367275238037}
			},
			{
				{0.0647321343421936}
			},
			{
				{-0.06415247917175293}
			},
			{
				{-0.02855733595788479}
			},
			{
				{-0.05824844166636467}
			},
			{
				{0.029943712055683136}
			},
			{
				{-0.06206074729561806}
			},
			{
				{-0.061286136507987976}
			},
			{
				{-0.010380354709923267}
			},
			{
				{-0.05963877588510513}
			},
			{
				{0.0686950534582138}
			},
			{
				{-0.06521031260490417}
			},
			{
				{-0.05667909234762192}
			},
			{
				{-0.006516070105135441}
			},
			{
				{-0.020655637606978416}
			},
			{
				{-0.16135139763355255}
			},
			{
				{-0.1311972737312317}
			},
			{
				{0.09995005279779434}
			},
			{
				{0.17053735256195068}
			},
			{
				{-0.08446039259433746}
			},
			{
				{-0.044487159699201584}
			},
			{
				{-0.1493082195520401}
			},
			{
				{0.08951567858457565}
			},
			{
				{-0.04571233689785004}
			},
			{
				{-0.06603621691465378}
			},
			{
				{0.060531120747327805}
			},
			{
				{0.1727561056613922}
			},
			{
				{0.07271798700094223}
			},
			{
				{-0.015894871205091476}
			},
			{
				{-0.002875841921195388}
			},
			{
				{-0.10078542679548264}
			},
			{
				{0.1701001524925232}
			},
			{
				{0.08408504724502563}
			},
			{
				{0.10907631367444992}
			},
			{
				{-0.04893317446112633}
			},
			{
				{-0.009814901277422905}
			},
			{
				{0.06727635115385056}
			},
			{
				{0.033345818519592285}
			},
			{
				{0.04225882887840271}
			},
			{
				{-0.03698814660310745}
			},
			{
				{0.09449155628681183}
			},
			{
				{0.020633595064282417}
			},
			{
				{0.045518700033426285}
			},
			{
				{-0.14721983671188354}
			},
			{
				{-0.018768485635519028}
			},
			{
				{0.041700270026922226}
			},
			{
				{0.07895686477422714}
			},
			{
				{0.1010262593626976}
			},
			{
				{0.04129969701170921}
			},
			{
				{0.14490780234336853}
			},
			{
				{0.029399355873465538}
			},
			{
				{0.04249725118279457}
			},
			{
				{0.17833645641803741}
			},
			{
				{-0.05445214360952377}
			},
			{
				{0.04963918775320053}
			},
			{
				{0.026863504201173782}
			},
			{
				{-0.09224481880664825}
			},
			{
				{0.02449788525700569}
			},
			{
				{0.06465374678373337}
			},
			{
				{-0.08148487657308578}
			},
			{
				{0.025681618601083755}
			},
			{
				{-0.011664444580674171}
			},
			{
				{-0.07359593361616135}
			},
			{
				{-0.010467101819813251}
			},
			{
				{0.004613635130226612}
			},
			{
				{0.006030934862792492}
			},
			{
				{-0.1553783416748047}
			},
			{
				{-0.04638630151748657}
			},
			{
				{-0.12051655352115631}
			},
			{
				{-0.016144925728440285}
			},
			{
				{-0.030375635251402855}
			},
			{
				{-0.04728574678301811}
			},
			{
				{-0.1709865927696228}
			},
			{
				{-0.037179574370384216}
			},
			{
				{-0.11761325597763062}
			},
			{
				{0.08268246799707413}
			},
			{
				{0.026118090376257896}
			},
			{
				{0.13179239630699158}
			},
			{
				{-0.018608368933200836}
			},
			{
				{-0.13154995441436768}
			},
			{
				{-0.04043526574969292}
			},
			{
				{-0.11773772537708282}
			},
			{
				{0.005405594129115343}
			},
			{
				{-0.07107704877853394}
			},
			{
				{-0.07066787779331207}
			},
			{
				{0.0646551251411438}
			},
			{
				{-0.16302117705345154}
			},
			{
				{-0.026100188493728638}
			},
			{
				{0.09031441807746887}
			},
			{
				{0.16040636599063873}
			},
			{
				{-0.006919594015926123}
			},
			{
				{-0.030224701389670372}
			},
			{
				{-0.09946179389953613}
			},
			{
				{0.11254607141017914}
			},
			{
				{-0.016751836985349655}
			},
			{
				{-0.09280113130807877}
			},
			{
				{-0.06494397670030594}
			},
			{
				{-0.07742274552583694}
			},
			{
				{0.06079574301838875}
			},
			{
				{-0.09446385502815247}
			},
			{
				{0.13487806916236877}
			},
			{
				{0.16691938042640686}
			},
			{
				{0.0971575528383255}
			},
			{
				{-0.07019690424203873}
			},
			{
				{0.03431900590658188}
			},
			{
				{-0.04445623233914375}
			},
			{
				{-0.059723690152168274}
			},
			{
				{-0.014588060788810253}
			},
			{
				{-0.02252197265625}
			},
			{
				{0.0038110404275357723}
			},
			{
				{0.05974621698260307}
			},
			{
				{-0.11653506010770798}
			},
			{
				{-0.049806348979473114}
			},
			{
				{-0.16913233697414398}
			},
			{
				{0.01838838867843151}
			},
			{
				{0.0727161318063736}
			},
			{
				{0.03146674484014511}
			},
			{
				{0.04791069030761719}
			},
			{
				{-0.012711004354059696}
			},
			{
				{0.17463262379169464}
			},
			{
				{-0.12499352544546127}
			},
			{
				{-0.06861951947212219}
			},
			{
				{0.04027194157242775}
			},
			{
				{-0.057516466826200485}
			},
			{
				{0.06698690354824066}
			},
			{
				{0.16174419224262238}
			},
			{
				{0.03916190192103386}
			},
			{
				{0.012769153341650963}
			},
			{
				{-0.0009978709276765585}
			},
			{
				{0.12573251128196716}
			},
			{
				{0.09887509793043137}
			},
			{
				{0.06012984737753868}
			},
			{
				{-0.04194153845310211}
			},
			{
				{-0.16833409667015076}
			},
			{
				{-0.025049079209566116}
			},
			{
				{0.12540185451507568}
			},
			{
				{-0.04594949632883072}
			},
			{
				{-0.12239689379930496}
			},
			{
				{0.11522659659385681}
			},
			{
				{0.15721218287944794}
			},
			{
				{-0.001539499149657786}
			},
			{
				{-0.0655810683965683}
			},
			{
				{0.040240611881017685}
			},
			{
				{0.12443418800830841}
			},
			{
				{-0.021677039563655853}
			},
			{
				{0.09284466505050659}
			},
			{
				{0.11505500227212906}
			},
			{
				{-0.13438360393047333}
			},
			{
				{0.04403611272573471}
			},
			{
				{-0.06426657736301422}
			},
			{
				{0.0125825684517622}
			},
			{
				{0.039331141859292984}
			},
			{
				{-0.07596343755722046}
			},
			{
				{0.16585372388362885}
			},
			{
				{0.007274290081113577}
			},
			{
				{0.07490096986293793}
			},
			{
				{-0.023466968908905983}
			},
			{
				{-0.10686483234167099}
			},
			{
				{0.07857280969619751}
			},
			{
				{0.013147078454494476}
			},
			{
				{-0.06184149160981178}
			},
			{
				{0.062305107712745667}
			},
			{
				{0.15005898475646973}
			},
			{
				{-0.12441463023424149}
			},
			{
				{-0.0792621299624443}
			},
			{
				{0.04442022740840912}
			},
			{
				{0.013574146665632725}
			},
			{
				{-0.016226209700107574}
			},
			{
				{0.17637747526168823}
			},
			{
				{-0.03315774351358414}
			},
			{
				{0.08767493814229965}
			},
			{
				{-0.05301269143819809}
			},
			{
				{-0.06035451963543892}
			},
			{
				{0.10765627771615982}
			},
			{
				{0.03681283816695213}
			},
			{
				{-0.1022668108344078}
			},
			{
				{-0.13585661351680756}
			},
			{
				{0.03554588928818703}
			},
			{
				{-0.09888528287410736}
			},
			{
				{0.10598228126764297}
			},
			{
				{-0.13003933429718018}
			},
			{
				{-0.08661998063325882}
			},
			{
				{0.10103150457143784}
			},
			{
				{0.1306961476802826}
			},
			{
				{-0.14705291390419006}
			},
			{
				{-0.014030984602868557}
			},
			{
				{-0.10286900401115417}
			},
			{
				{-0.06209491565823555}
			},
			{
				{-0.12702932953834534}
			},
			{
				{-0.12004707008600235}
			},
			{
				{0.01872308924794197}
			},
			{
				{-0.056648511439561844}
			},
			{
				{-0.07330061495304108}
			},
			{
				{0.02073664590716362}
			},
			{
				{-0.03571771830320358}
			},
			{
				{-0.032620012760162354}
			},
			{
				{0.16530996561050415}
			},
			{
				{0.005675554275512695}
			},
			{
				{-0.11455181986093521}
			},
			{
				{0.10113507509231567}
			},
			{
				{0.07298390567302704}
			},
			{
				{0.09661907702684402}
			},
			{
				{0.005354040767997503}
			},
			{
				{0.10111577063798904}
			},
			{
				{-0.07551828771829605}
			},
			{
				{-0.0994604304432869}
			},
			{
				{0.09157080203294754}
			},
			{
				{0.007184711284935474}
			},
			{
				{-0.051205843687057495}
			},
			{
				{-0.08727563917636871}
			},
			{
				{-0.027518518269062042}
			},
			{
				{0.06720061600208282}
			},
			{
				{0.022172711789608}
			},
			{
				{-0.08054938912391663}
			},
			{
				{-0.09837058186531067}
			},
			{
				{0.02868291363120079}
			},
			{
				{-0.12938673794269562}
			},
			{
				{0.11992960423231125}
			},
			{
				{0.0060860333032906055}
			},
			{
				{0.029255302622914314}
			},
			{
				{0.06711392104625702}
			},
			{
				{0.060733601450920105}
			},
			{
				{0.09125855565071106}
			},
			{
				{0.06817542016506195}
			},
			{
				{-0.06483880430459976}
			},
			{
				{-0.08508513122797012}
			},
			{
				{-0.032680071890354156}
			},
			{
				{-0.09421662241220474}
			},
			{
				{0.060537636280059814}
			},
			{
				{-0.03616071119904518}
			},
			{
				{0.11397555470466614}
			},
			{
				{0.04049544408917427}
			},
			{
				{-0.09530957788228989}
			},
			{
				{0.019665395841002464}
			},
			{
				{0.09525452554225922}
			},
			{
				{0.012888911180198193}
			},
			{
				{-0.08538209646940231}
			},
			{
				{-0.06474719196557999}
			},
			{
				{-0.17350448668003082}
			},
			{
				{0.08281069248914719}
			},
			{
				{-0.06808201223611832}
			},
			{
				{-0.0008937774109654129}
			},
			{
				{0.007134856656193733}
			},
			{
				{0.08391530811786652}
			},
			{
				{0.07291184365749359}
			},
			{
				{0.09030899405479431}
			},
			{
				{-0.013194289989769459}
			},
			{
				{0.07815274596214294}
			},
			{
				{-0.07402381300926208}
			},
			{
				{-0.11550784856081009}
			},
			{
				{-0.012699484825134277}
			},
			{
				{-0.00029262760654091835}
			},
			{
				{-0.08468825370073318}
			},
			{
				{-0.08130252361297607}
			},
			{
				{0.041533224284648895}
			},
			{
				{-0.11542096734046936}
			},
			{
				{0.10835836082696915}
			},
			{
				{-0.017962036654353142}
			},
			{
				{0.021425358951091766}
			},
			{
				{0.007646717131137848}
			},
			{
				{0.02591145969927311}
			},
			{
				{0.0084355054423213}
			},
			{
				{0.0859680026769638}
			},
			{
				{-0.0723823830485344}
			},
			{
				{-0.050811611115932465}
			},
			{
				{0.0009641456417739391}
			},
			{
				{-0.14639654755592346}
			},
			{
				{-0.018960773944854736}
			},
			{
				{-0.02789359539747238}
			},
			{
				{-0.08556853234767914}
			},
			{
				{0.1632397472858429}
			},
			{
				{0.09053675830364227}
			},
			{
				{-0.05969657003879547}
			},
			{
				{0.0072887130081653595}
			},
			{
				{0.17979124188423157}
			},
			{
				{-0.15067553520202637}
			},
			{
				{0.06939438730478287}
			},
			{
				{-0.015784017741680145}
			},
			{
				{-0.062412362545728683}
			},
			{
				{-0.06914978474378586}
			},
			{
				{-0.04574352130293846}
			},
			{
				{-0.021537192165851593}
			},
			{
				{0.11933451145887375}
			},
			{
				{-0.020927580073475838}
			},
			{
				{-0.07797736674547195}
			},
			{
				{0.05254961922764778}
			},
			{
				{-0.033524930477142334}
			},
			{
				{-0.12291473895311356}
			},
			{
				{0.03069200925529003}
			},
			{
				{-0.018833279609680176}
			},
			{
				{0.04800432547926903}
			},
			{
				{0.01610867865383625}
			},
			{
				{-0.061358388513326645}
			},
			{
				{-0.008788252249360085}
			},
			{
				{0.07810470461845398}
			},
			{
				{-0.07798647880554199}
			},
			{
				{-0.08033530414104462}
			},
			{
				{0.1121378168463707}
			},
			{
				{-0.09985470771789551}
			},
			{
				{-0.06796551495790482}
			},
			{
				{-0.0513656921684742}
			},
			{
				{-0.0029213284142315388}
			},
			{
				{0.03713336959481239}
			},
			{
				{-0.03353489935398102}
			},
			{
				{0.13463398814201355}
			},
			{
				{0.049754463136196136}
			},
			{
				{-0.1647011786699295}
			},
			{
				{0.05105641856789589}
			},
			{
				{0.046880386769771576}
			},
			{
				{0.011234352365136147}
			},
			{
				{-0.05659271404147148}
			},
			{
				{-0.04096197336912155}
			},
			{
				{0.07939598709344864}
			},
			{
				{0.05876799672842026}
			},
			{
				{0.020441604778170586}
			},
			{
				{-0.07179639488458633}
			},
			{
				{0.06406450271606445}
			},
			{
				{0.12001461535692215}
			},
			{
				{-0.09394627809524536}
			},
			{
				{0.011032233014702797}
			},
			{
				{-0.04440204054117203}
			},
			{
				{0.01030428521335125}
			},
			{
				{0.05663212016224861}
			},
			{
				{-0.08190063387155533}
			},
			{
				{-0.08740611374378204}
			},
			{
				{0.08967402577400208}
			},
			{
				{0.14323633909225464}
			},
			{
				{0.09640836715698242}
			},
			{
				{-0.04496319964528084}
			},
			{
				{-0.01017051562666893}
			},
			{
				{-0.08055198937654495}
			},
			{
				{0.09863412380218506}
			},
			{
				{-0.10234855860471725}
			},
			{
				{-0.048223987221717834}
			},
			{
				{-0.009465090930461884}
			},
			{
				{0.10754435509443283}
			},
			{
				{-0.022408263757824898}
			},
			{
				{0.037791360169649124}
			},
			{
				{0.10644594579935074}
			},
			{
				{-0.060419462621212006}
			},
			{
				{-0.045159850269556046}
			},
			{
				{0.06608626991510391}
			},
			{
				{0.0800129771232605}
			},
			{
				{0.07332294434309006}
			},
			{
				{-0.010653473436832428}
			},
			{
				{-0.08321042358875275}
			},
			{
				{0.08829791098833084}
			},
			{
				{-0.03653814643621445}
			},
			{
				{-0.07588926702737808}
			},
			{
				{-0.14179518818855286}
			},
			{
				{-0.04820002615451813}
			},
			{
				{0.05465993657708168}
			},
			{
				{0.061157505959272385}
			},
			{
				{-0.1513492614030838}
			},
			{
				{-0.026540283113718033}
			},
			{
				{0.028325939550995827}
			},
			{
				{-0.04187915474176407}
			},
			{
				{-0.09408193081617355}
			},
			{
				{-0.0004820828908123076}
			},
			{
				{-0.1780737042427063}
			},
			{
				{-0.012037679553031921}
			},
			{
				{0.0808689147233963}
			},
			{
				{0.060577861964702606}
			},
			{
				{-0.08932527154684067}
			},
			{
				{-0.04907212033867836}
			},
			{
				{-0.04958564415574074}
			},
			{
				{0.1388545036315918}
			},
			{
				{0.02297046035528183}
			},
			{
				{-0.032149821519851685}
			},
			{
				{-0.13693073391914368}
			},
			{
				{-0.15403039753437042}
			},
			{
				{0.033556051552295685}
			},
			{
				{-0.14684100449085236}
			},
			{
				{-0.05672129616141319}
			},
			{
				{0.09594724327325821}
			},
			{
				{-0.005419423803687096}
			},
			{
				{0.03708098456263542}
			},
			{
				{-0.03189314901828766}
			},
			{
				{0.12645559012889862}
			},
			{
				{0.015058718621730804}
			},
			{
				{-0.012342231348156929}
			},
			{
				{0.12444616854190826}
			},
			{
				{0.015182037837803364}
			},
			{
				{-0.0036042965948581696}
			},
			{
				{0.040568746626377106}
			},
			{
				{-0.010217561386525631}
			},
			{
				{0.16719357669353485}
			},
			{
				{0.03556874021887779}
			},
			{
				{0.0854949802160263}
			},
			{
				{0.09493432193994522}
			},
			{
				{-0.06290649622678757}
			},
			{
				{-0.04422038048505783}
			},
			{
				{0.034621965140104294}
			},
			{
				{-0.047504499554634094}
			},
			{
				{-0.038242045789957047}
			},
			{
				{0.03496652469038963}
			},
			{
				{-0.023109151050448418}
			},
			{
				{0.07155537605285645}
			},
			{
				{0.1075926423072815}
			},
			{
				{-0.09129950404167175}
			},
			{
				{0.0035297286231070757}
			},
			{
				{-0.17402294278144836}
			},
			{
				{-0.10134924948215485}
			},
			{
				{-0.010663142427802086}
			},
			{
				{-0.06465981900691986}
			},
			{
				{0.06280690431594849}
			},
			{
				{-0.08011817187070847}
			},
			{
				{-0.08200901001691818}
			},
			{
				{-0.023114850744605064}
			},
			{
				{0.07294785976409912}
			},
			{
				{-0.1719813197851181}
			},
			{
				{0.013386469334363937}
			},
			{
				{0.013322548940777779}
			},
			{
				{0.12748849391937256}
			},
			{
				{0.09486202150583267}
			},
			{
				{-0.0010173573391512036}
			},
			{
				{0.025126321241259575}
			},
			{
				{0.06766902655363083}
			},
			{
				{-0.11693721264600754}
			},
			{
				{-0.04130685701966286}
			},
			{
				{0.12329832464456558}
			},
			{
				{0.09105651080608368}
			},
			{
				{0.04705238714814186}
			},
			{
				{0.12087357044219971}
			},
			{
				{-0.18443533778190613}
			},
			{
				{-0.12404386699199677}
			},
			{
				{-0.041675321757793427}
			},
			{
				{0.015265886671841145}
			},
			{
				{0.081595778465271}
			},
			{
				{0.026459574699401855}
			},
			{
				{-0.03327973559498787}
			},
			{
				{-0.05499669164419174}
			},
			{
				{-0.03323968127369881}
			},
			{
				{-0.12700794637203217}
			},
			{
				{0.04576970264315605}
			},
			{
				{0.06523687392473221}
			},
			{
				{-0.1254723221063614}
			},
			{
				{0.029969148337841034}
			},
			{
				{-0.13076436519622803}
			},
			{
				{-0.11222294718027115}
			},
			{
				{-0.07068073004484177}
			},
			{
				{-0.1105327382683754}
			},
			{
				{0.06471601873636246}
			},
			{
				{-0.09300673753023148}
			},
			{
				{0.0964948907494545}
			},
			{
				{-0.08833460509777069}
			},
			{
				{0.030742930248379707}
			},
			{
				{-0.04973828047513962}
			},
			{
				{-0.015275602228939533}
			},
			{
				{0.09418037533760071}
			},
			{
				{-0.0346984937787056}
			},
			{
				{0.00407281843945384}
			},
			{
				{0.04042058438062668}
			},
			{
				{0.01504206471145153}
			},
			{
				{0.04937131330370903}
			},
			{
				{-0.024348217993974686}
			},
			{
				{-0.14503413438796997}
			},
			{
				{-0.09424539655447006}
			},
			{
				{-0.0997757688164711}
			},
			{
				{-0.04876645281910896}
			},
			{
				{-0.008319694548845291}
			},
			{
				{0.07345174998044968}
			},
			{
				{0.12683571875095367}
			},
			{
				{0.013846204616129398}
			},
			{
				{-0.003834162373095751}
			},
			{
				{-0.06869250535964966}
			},
			{
				{-0.029159514233469963}
			},
			{
				{-0.16119399666786194}
			},
			{
				{-0.06591752916574478}
			},
			{
				{-0.1416456252336502}
			},
			{
				{0.04668748006224632}
			},
			{
				{-0.1512940526008606}
			},
			{
				{-0.016973363235592842}
			},
			{
				{-0.09103529155254364}
			},
			{
				{0.05347801744937897}
			},
			{
				{0.09974699467420578}
			},
			{
				{-0.0996113047003746}
			},
			{
				{0.10399067401885986}
			},
			{
				{0.09681212157011032}
			},
			{
				{-0.007866611704230309}
			},
			{
				{0.0715218260884285}
			},
			{
				{-0.033470772206783295}
			},
			{
				{0.03952328488230705}
			},
			{
				{0.0374797023832798}
			},
			{
				{0.06956316530704498}
			},
			{
				{-0.015366538427770138}
			},
			{
				{-0.019310414791107178}
			},
			{
				{0.07455530017614365}
			},
			{
				{0.03363883122801781}
			},
			{
				{0.014534743502736092}
			},
			{
				{0.062105465680360794}
			},
			{
				{-0.13625401258468628}
			},
			{
				{0.049718212336301804}
			},
			{
				{0.012516720220446587}
			},
			{
				{-0.10887043923139572}
			},
			{
				{-0.1186145544052124}
			},
			{
				{-0.0771881714463234}
			},
			{
				{-0.1394093632698059}
			},
			{
				{0.007506373804062605}
			},
			{
				{-0.0329417809844017}
			},
			{
				{-0.009865525178611279}
			},
			{
				{-0.03009357489645481}
			},
			{
				{0.002641951898112893}
			},
			{
				{-0.028893187642097473}
			},
			{
				{-0.0022479856852442026}
			},
			{
				{-0.05267568305134773}
			},
			{
				{0.08017934113740921}
			},
			{
				{-0.15383058786392212}
			},
			{
				{0.007303106132894754}
			},
			{
				{-0.008181367069482803}
			},
			{
				{-0.08277948945760727}
			},
			{
				{-0.06432081013917923}
			},
			{
				{-0.035186368972063065}
			},
			{
				{-0.07658237218856812}
			},
			{
				{-0.022067146375775337}
			},
			{
				{-0.08331885933876038}
			},
			{
				{-0.05860034376382828}
			},
			{
				{0.10383778810501099}
			},
			{
				{-0.013594916090369225}
			},
			{
				{0.11392440646886826}
			},
			{
				{-0.005396169610321522}
			},
			{
				{0.051382359117269516}
			},
			{
				{0.057449888437986374}
			},
			{
				{-0.035544391721487045}
			},
			{
				{0.025611940771341324}
			},
			{
				{0.1744556725025177}
			},
			{
				{-0.01056182011961937}
			},
			{
				{-0.08031683415174484}
			},
			{
				{-0.17256858944892883}
			},
			{
				{-0.0898842066526413}
			},
			{
				{0.051546040922403336}
			},
			{
				{0.056030016392469406}
			},
			{
				{-0.010991585440933704}
			},
			{
				{-0.06291645020246506}
			},
			{
				{-0.08580347895622253}
			},
			{
				{-0.005780618637800217}
			},
			{
				{-0.053574226796627045}
			},
			{
				{0.03273218870162964}
			},
			{
				{0.1200713962316513}
			},
			{
				{-0.017465325072407722}
			},
			{
				{-0.03197107091546059}
			},
			{
				{-0.09685324132442474}
			},
			{
				{-0.028607388958334923}
			},
			{
				{-0.043298110365867615}
			},
			{
				{0.011486492119729519}
			},
			{
				{-0.02252739667892456}
			},
			{
				{0.003878758056089282}
			},
			{
				{-0.06819566339254379}
			},
			{
				{0.04735933616757393}
			},
			{
				{-0.009282947517931461}
			},
			{
				{0.09505084902048111}
			},
			{
				{0.09079205989837646}
			},
			{
				{0.033355146646499634}
			},
			{
				{-0.011641920544207096}
			},
			{
				{0.07240527123212814}
			},
			{
				{-0.011429869569838047}
			},
			{
				{-0.05660322681069374}
			},
			{
				{-0.009926404803991318}
			},
			{
				{0.01070956140756607}
			},
			{
				{-0.09858144819736481}
			},
			{
				{-0.13566537201404572}
			},
			{
				{-0.1311275064945221}
			},
			{
				{-0.034095291048288345}
			},
			{
				{0.00872042216360569}
			},
			{
				{0.008604192174971104}
			},
			{
				{0.10032717883586884}
			},
			{
				{-0.07306208461523056}
			},
			{
				{-0.12501762807369232}
			},
			{
				{-0.10010616481304169}
			},
			{
				{-0.0027948999777436256}
			},
			{
				{-0.014777903445065022}
			},
			{
				{-0.055059392005205154}
			},
			{
				{0.030461829155683517}
			},
			{
				{0.010637449100613594}
			},
			{
				{-0.1397678703069687}
			},
			{
				{-0.08010217547416687}
			},
			{
				{0.018362978473305702}
			},
			{
				{0.006859109736979008}
			},
			{
				{-0.06615787744522095}
			},
			{
				{-0.012646116316318512}
			},
			{
				{0.04530807584524155}
			},
			{
				{0.05748619884252548}
			},
			{
				{0.14241373538970947}
			},
			{
				{0.08169471472501755}
			},
			{
				{0.04174007102847099}
			},
			{
				{0.021328173577785492}
			},
			{
				{0.15160508453845978}
			},
			{
				{-0.07921935617923737}
			},
			{
				{0.1966269314289093}
			},
			{
				{0.023740254342556}
			},
			{
				{-0.03156198561191559}
			},
			{
				{-0.056814294308423996}
			},
			{
				{-0.15822909772396088}
			},
			{
				{-0.057134032249450684}
			},
			{
				{-0.04744122549891472}
			},
			{
				{-0.12898464500904083}
			},
			{
				{0.053031083196401596}
			},
			{
				{0.19775396585464478}
			},
			{
				{-0.05914006754755974}
			},
			{
				{0.12249942123889923}
			},
			{
				{-0.08342478424310684}
			},
			{
				{0.12109420448541641}
			},
			{
				{0.060139670968055725}
			},
			{
				{0.11265334486961365}
			},
			{
				{-0.027000006288290024}
			},
			{
				{-0.01642218790948391}
			},
			{
				{0.019159510731697083}
			},
			{
				{-0.07081163674592972}
			},
			{
				{-0.08383996039628983}
			},
			{
				{0.050248049199581146}
			},
			{
				{0.022071417421102524}
			},
			{
				{-0.12456484884023666}
			},
			{
				{0.06995221972465515}
			},
			{
				{-0.07278066873550415}
			},
			{
				{0.09075041860342026}
			},
			{
				{0.04928021505475044}
			},
			{
				{0.11270605772733688}
			},
			{
				{-0.013082391582429409}
			},
			{
				{-0.024099556729197502}
			},
			{
				{0.0543736070394516}
			},
			{
				{0.021151376888155937}
			},
			{
				{0.008203578181564808}
			},
			{
				{-0.0014803195372223854}
			},
			{
				{0.029242169111967087}
			},
			{
				{-0.03858015313744545}
			},
			{
				{-0.03768923878669739}
			},
			{
				{0.05861297622323036}
			},
			{
				{-0.0945630818605423}
			},
			{
				{0.1239362433552742}
			},
			{
				{-0.08680695295333862}
			},
			{
				{0.12106186896562576}
			},
			{
				{-0.10369327664375305}
			},
			{
				{0.047093465924263}
			},
			{
				{0.09659291803836823}
			},
			{
				{-0.026313239708542824}
			},
			{
				{0.1545344889163971}
			},
			{
				{-0.05704234540462494}
			},
			{
				{0.005511459894478321}
			},
			{
				{-0.07444863766431808}
			},
			{
				{0.0809798464179039}
			},
			{
				{0.10853442549705505}
			},
			{
				{0.13148096203804016}
			},
			{
				{0.022185401991009712}
			},
			{
				{-0.13134120404720306}
			},
			{
				{0.002049790695309639}
			},
			{
				{-0.09995406866073608}
			},
			{
				{-0.1907709538936615}
			},
			{
				{-0.10407841950654984}
			},
			{
				{0.0029796259477734566}
			},
			{
				{-0.008877447806298733}
			},
			{
				{0.02614879608154297}
			},
			{
				{-0.00013205177674535662}
			},
			{
				{0.0573183111846447}
			},
			{
				{0.15173885226249695}
			},
			{
				{-0.1475062221288681}
			},
			{
				{0.041306041181087494}
			},
			{
				{0.06541714817285538}
			},
			{
				{-0.054717544466257095}
			},
			{
				{0.01728946343064308}
			},
			{
				{0.055457953363657}
			},
			{
				{-0.04320685192942619}
			},
			{
				{-0.026227816939353943}
			},
			{
				{0.06090090051293373}
			},
			{
				{0.09888792037963867}
			},
			{
				{-0.015353430993855}
			},
			{
				{-0.011070729233324528}
			},
			{
				{0.10534457862377167}
			},
			{
				{-0.01380143966525793}
			},
			{
				{-0.11402732133865356}
			},
			{
				{0.17837682366371155}
			},
			{
				{-0.07863655686378479}
			},
			{
				{0.04967483878135681}
			},
			{
				{0.07378876209259033}
			},
			{
				{-0.019592469558119774}
			},
			{
				{0.034407734870910645}
			},
			{
				{0.01892511174082756}
			},
			{
				{0.02428046613931656}
			},
			{
				{-0.054193850606679916}
			},
			{
				{0.03289062902331352}
			},
			{
				{0.07161808758974075}
			},
			{
				{0.020677872002124786}
			},
			{
				{0.03536352887749672}
			},
			{
				{0.11400120705366135}
			},
			{
				{0.037317343056201935}
			},
			{
				{-0.06196495518088341}
			},
			{
				{-0.016777800396084785}
			},
			{
				{0.03077124059200287}
			},
			{
				{0.044600702822208405}
			},
			{
				{-0.04430227354168892}
			},
			{
				{0.0925280824303627}
			},
			{
				{0.0022083253134042025}
			},
			{
				{0.055715713649988174}
			},
			{
				{-0.016138557344675064}
			},
			{
				{0.05225435644388199}
			},
			{
				{-0.12752971053123474}
			},
			{
				{0.048862725496292114}
			},
			{
				{0.06294036656618118}
			},
			{
				{0.0013618372613564134}
			},
			{
				{-0.14353926479816437}
			},
			{
				{0.04822700843214989}
			},
			{
				{-0.09089270979166031}
			},
			{
				{0.1080043762922287}
			},
			{
				{-0.17559516429901123}
			},
			{
				{0.026676688343286514}
			},
			{
				{-0.01707264594733715}
			},
			{
				{-0.16739608347415924}
			},
			{
				{0.020714787766337395}
			},
			{
				{0.09252811968326569}
			},
			{
				{0.11609893292188644}
			},
			{
				{-0.015417908318340778}
			},
			{
				{0.010314307175576687}
			},
			{
				{0.03472869470715523}
			},
			{
				{0.01718909665942192}
			},
			{
				{0.005047068931162357}
			},
			{
				{0.16167591512203217}
			},
			{
				{-0.04574079066514969}
			},
			{
				{0.1526261568069458}
			},
			{
				{0.07208199799060822}
			},
			{
				{0.007289218716323376}
			},
			{
				{0.005671393591910601}
			},
			{
				{0.024908021092414856}
			},
			{
				{0.0030165978241711855}
			},
			{
				{-0.030569350346922874}
			},
			{
				{0.05848406255245209}
			},
			{
				{0.007698291912674904}
			},
			{
				{-0.14096355438232422}
			},
			{
				{-0.02047400362789631}
			},
			{
				{0.16357748210430145}
			},
			{
				{-0.2009231299161911}
			},
			{
				{-0.007537348195910454}
			},
			{
				{-0.03068193979561329}
			},
			{
				{-0.05216244235634804}
			},
			{
				{0.0806657001376152}
			},
			{
				{0.07044627517461777}
			},
			{
				{-0.11449609696865082}
			},
			{
				{0.09040038287639618}
			},
			{
				{-0.11768568307161331}
			},
			{
				{-0.16833771765232086}
			},
			{
				{-0.04791898652911186}
			},
			{
				{0.03195330128073692}
			},
			{
				{-0.06751098483800888}
			},
			{
				{-0.012381231412291527}
			},
			{
				{0.13144227862358093}
			},
			{
				{-0.006003112066537142}
			},
			{
				{-0.09350363910198212}
			},
			{
				{0.018100284039974213}
			},
			{
				{0.015080757439136505}
			},
			{
				{-0.03495541960000992}
			},
			{
				{-0.13500982522964478}
			},
			{
				{-0.02235492318868637}
			},
			{
				{0.09192430973052979}
			},
			{
				{0.03529549017548561}
			},
			{
				{-0.05849993973970413}
			},
			{
				{-0.0835970863699913}
			},
			{
				{-0.08729185909032822}
			},
			{
				{0.12760180234909058}
			},
			{
				{0.12350781261920929}
			},
			{
				{-0.10063495486974716}
			},
			{
				{-0.17262353003025055}
			},
			{
				{0.01360209472477436}
			},
			{
				{-0.1206456646323204}
			},
			{
				{0.0012638113694265485}
			},
			{
				{0.10836934298276901}
			},
			{
				{0.02818685583770275}
			},
			{
				{0.04119907692074776}
			},
			{
				{0.0739813894033432}
			},
			{
				{0.04149647429585457}
			},
			{
				{-0.008858351968228817}
			},
			{
				{-0.16108167171478271}
			},
			{
				{0.0014119502156972885}
			},
			{
				{0.03921414539217949}
			},
			{
				{0.006512691732496023}
			},
			{
				{0.08589588105678558}
			},
			{
				{0.04627841338515282}
			},
			{
				{-0.02468809112906456}
			},
			{
				{0.15472303330898285}
			},
			{
				{0.10976043343544006}
			},
			{
				{0.05672179535031319}
			},
			{
				{-0.07932978868484497}
			},
			{
				{-0.01070841122418642}
			},
			{
				{-0.09491300582885742}
			},
			{
				{0.10416955500841141}
			},
			{
				{-0.04837561771273613}
			},
			{
				{-0.08236086368560791}
			},
			{
				{-0.07877174019813538}
			},
			{
				{0.10966922342777252}
			},
			{
				{0.09663235396146774}
			},
			{
				{0.10998149961233139}
			},
			{
				{-0.07697375863790512}
			},
			{
				{-0.06635655462741852}
			},
			{
				{-0.12239351123571396}
			},
			{
				{0.047256939113140106}
			},
			{
				{-0.14706265926361084}
			},
			{
				{-0.024901989847421646}
			},
			{
				{0.044230248779058456}
			},
			{
				{-0.053158435970544815}
			},
			{
				{-0.016628948971629143}
			},
			{
				{-0.10063337534666061}
			},
			{
				{0.028402207419276237}
			},
			{
				{-0.14359183609485626}
			},
			{
				{0.0005859156372025609}
			},
			{
				{-0.03629855439066887}
			},
			{
				{0.08201240003108978}
			},
			{
				{-0.017108121886849403}
			},
			{
				{0.07420508563518524}
			},
			{
				{0.12964864075183868}
			},
			{
				{-0.08836714923381805}
			},
			{
				{-0.03295430541038513}
			},
			{
				{0.10152137279510498}
			},
			{
				{0.025997430086135864}
			},
			{
				{0.06984725594520569}
			},
			{
				{0.008883309550583363}
			},
			{
				{-0.002796154236420989}
			},
			{
				{-0.032056525349617004}
			},
			{
				{-0.05976695939898491}
			},
			{
				{-0.13353188335895538}
			},
			{
				{0.09866936504840851}
			},
			{
				{0.09098344296216965}
			},
			{
				{0.11353582888841629}
			},
			{
				{-0.01254590880125761}
			},
			{
				{-0.012739893980324268}
			},
			{
				{0.033446721732616425}
			},
			{
				{0.00867270864546299}
			},
			{
				{-0.008599885739386082}
			},
			{
				{-0.09118141233921051}
			},
			{
				{-0.14276285469532013}
			},
			{
				{0.0457908920943737}
			},
			{
				{0.10301683098077774}
			},
			{
				{-0.12434647232294083}
			},
			{
				{0.025527484714984894}
			},
			{
				{0.014066574163734913}
			},
			{
				{0.011505001224577427}
			},
			{
				{-0.0227695070207119}
			},
			{
				{-0.0007906612590886652}
			},
			{
				{-0.05683247372508049}
			},
			{
				{0.02327900193631649}
			},
			{
				{-0.057995378971099854}
			},
			{
				{0.0038549830205738544}
			},
			{
				{0.025121530517935753}
			},
			{
				{0.02604776620864868}
			},
			{
				{-0.014588815160095692}
			},
			{
				{0.03256538137793541}
			},
			{
				{-0.09393209218978882}
			},
			{
				{0.020938217639923096}
			},
			{
				{-0.04172665253281593}
			},
			{
				{0.013698269613087177}
			},
			{
				{-0.11557868123054504}
			},
			{
				{-0.09165197610855103}
			},
			{
				{-0.06660816818475723}
			},
			{
				{-0.09526742994785309}
			},
			{
				{-0.08974755555391312}
			},
			{
				{-0.10668262839317322}
			},
			{
				{-0.015482080169022083}
			},
			{
				{-0.0853312760591507}
			},
			{
				{-0.01830551028251648}
			},
			{
				{-0.010983380489051342}
			},
			{
				{-0.04252399876713753}
			},
			{
				{-0.004219376482069492}
			},
			{
				{-0.11258525401353836}
			},
			{
				{0.09716038405895233}
			},
			{
				{-0.01726592518389225}
			},
			{
				{0.12859784066677094}
			},
			{
				{-0.13508544862270355}
			},
			{
				{0.09632531553506851}
			},
			{
				{0.06853838264942169}
			},
			{
				{-0.03827371448278427}
			},
			{
				{0.2010038048028946}
			},
			{
				{-0.1363503634929657}
			},
			{
				{-0.08606835454702377}
			},
			{
				{-0.04915204644203186}
			},
			{
				{-0.047392528504133224}
			},
			{
				{0.05494767054915428}
			},
			{
				{0.006997972261160612}
			},
			{
				{0.09052994847297668}
			},
			{
				{-0.05773719772696495}
			},
			{
				{-0.009967214427888393}
			},
			{
				{-0.02241027168929577}
			},
			{
				{0.057052966207265854}
			},
			{
				{0.09100471436977386}
			},
			{
				{0.033524271100759506}
			},
			{
				{-0.013880492188036442}
			},
			{
				{-0.10683216154575348}
			},
			{
				{0.005402357783168554}
			},
			{
				{0.004740414209663868}
			},
			{
				{0.06935270875692368}
			},
			{
				{-0.1087602972984314}
			},
			{
				{0.05284641683101654}
			},
			{
				{-0.059704869985580444}
			},
			{
				{0.04664233699440956}
			},
			{
				{-0.027988160029053688}
			},
			{
				{-0.017693491652607918}
			},
			{
				{0.10800416767597198}
			},
			{
				{0.0563054233789444}
			},
			{
				{0.022230081260204315}
			},
			{
				{-0.02010415308177471}
			},
			{
				{-0.07205875217914581}
			},
			{
				{-0.17580005526542664}
			},
			{
				{0.053901948034763336}
			},
			{
				{0.016662701964378357}
			},
			{
				{0.03750521317124367}
			},
			{
				{0.08006418496370316}
			},
			{
				{-0.031151359900832176}
			},
			{
				{0.12751281261444092}
			},
			{
				{0.06291139870882034}
			},
			{
				{-0.06775274127721786}
			},
			{
				{0.05565836280584335}
			},
			{
				{0.06962494552135468}
			},
			{
				{-0.11494732648134232}
			},
			{
				{0.03754035383462906}
			},
			{
				{-0.03388948366045952}
			},
			{
				{0.03853635862469673}
			},
			{
				{0.03710147738456726}
			},
			{
				{-0.10334303230047226}
			},
			{
				{0.1422678679227829}
			},
			{
				{0.0011540750274434686}
			},
			{
				{0.13870103657245636}
			},
			{
				{0.10237669944763184}
			},
			{
				{-0.11351296305656433}
			},
			{
				{0.1550019383430481}
			},
			{
				{-0.03880429267883301}
			},
			{
				{0.16673779487609863}
			},
			{
				{-0.072267085313797}
			},
			{
				{0.12566247582435608}
			},
			{
				{0.029069848358631134}
			},
			{
				{-0.12216150760650635}
			},
			{
				{-0.13514578342437744}
			},
			{
				{0.0796598419547081}
			},
			{
				{-0.009480301290750504}
			},
			{
				{0.15861064195632935}
			},
			{
				{-0.03839413449168205}
			},
			{
				{0.013999274000525475}
			},
			{
				{-0.04093009978532791}
			},
			{
				{-0.09139548987150192}
			},
			{
				{-0.08039509505033493}
			},
			{
				{-0.1351659744977951}
			},
			{
				{-0.0034805594477802515}
			},
			{
				{-0.02435920387506485}
			},
			{
				{-0.062433578073978424}
			},
			{
				{0.036200448870658875}
			},
			{
				{-0.03297284618020058}
			},
			{
				{-0.0032566983718425035}
			},
			{
				{0.07635734230279922}
			},
			{
				{0.12651187181472778}
			},
			{
				{0.10537604987621307}
			},
			{
				{0.041910525411367416}
			},
			{
				{0.053348515182733536}
			},
			{
				{-0.05836738646030426}
			},
			{
				{-0.04190784692764282}
			},
			{
				{0.03522346913814545}
			},
			{
				{-0.049785591661930084}
			},
			{
				{-0.019750574603676796}
			},
			{
				{0.0051904115825891495}
			},
			{
				{-0.05946246534585953}
			},
			{
				{-0.012023896910250187}
			},
			{
				{-0.129379540681839}
			},
			{
				{0.03504481166601181}
			},
			{
				{-0.01047481782734394}
			},
			{
				{0.10980048775672913}
			},
			{
				{0.09830991923809052}
			},
			{
				{0.06480056047439575}
			},
			{
				{-0.08414793759584427}
			},
			{
				{0.15148696303367615}
			},
			{
				{-0.11201710999011993}
			},
			{
				{0.09281033277511597}
			},
			{
				{-0.001990162767469883}
			},
			{
				{-0.13389524817466736}
			},
			{
				{-0.0330548919737339}
			},
			{
				{0.10576008260250092}
			},
			{
				{0.10496539622545242}
			},
			{
				{-0.06579836457967758}
			},
			{
				{-0.11548646539449692}
			},
			{
				{-0.025714609771966934}
			},
			{
				{0.012486976571381092}
			},
			{
				{-0.1540546715259552}
			},
			{
				{-0.038730692118406296}
			},
			{
				{-0.16229118406772614}
			},
			{
				{-0.017708489671349525}
			},
			{
				{-0.13484247028827667}
			},
			{
				{0.11729829013347626}
			},
			{
				{-0.06583918631076813}
			},
			{
				{-0.033940330147743225}
			},
			{
				{0.045104507356882095}
			},
			{
				{0.11865974217653275}
			},
			{
				{-0.04855898767709732}
			},
			{
				{-0.20750615000724792}
			},
			{
				{-0.009851665236055851}
			},
			{
				{0.04106133058667183}
			},
			{
				{0.03222712129354477}
			},
			{
				{0.026356631889939308}
			},
			{
				{0.010750425979495049}
			},
			{
				{-0.050488416105508804}
			},
			{
				{-0.02783098816871643}
			},
			{
				{-0.021796422079205513}
			},
			{
				{-0.08540844172239304}
			},
			{
				{0.04926611855626106}
			},
			{
				{-0.0836934819817543}
			},
			{
				{-0.03057285025715828}
			},
			{
				{-0.0034737803507596254}
			},
			{
				{0.017856266349554062}
			},
			{
				{0.03045060485601425}
			},
			{
				{0.06831046938896179}
			},
			{
				{0.0325753316283226}
			},
			{
				{-0.014960851520299911}
			},
			{
				{-0.0047704302705824375}
			},
			{
				{-0.009348494000732899}
			},
			{
				{0.08149171620607376}
			},
			{
				{-0.041551973670721054}
			},
			{
				{0.0630052462220192}
			},
			{
				{0.011164052411913872}
			},
			{
				{-0.09372097998857498}
			},
			{
				{0.08091249316930771}
			},
			{
				{-0.008247504942119122}
			},
			{
				{-0.11348322778940201}
			},
			{
				{0.08885321766138077}
			},
			{
				{0.13961361348628998}
			},
			{
				{-0.12146419286727905}
			},
			{
				{-0.023714503273367882}
			},
			{
				{-0.0376148484647274}
			},
			{
				{-0.04935741052031517}
			},
			{
				{-0.021478978917002678}
			},
			{
				{-0.09793367236852646}
			},
			{
				{-0.01946215331554413}
			},
			{
				{0.015444849617779255}
			},
			{
				{-0.15106798708438873}
			},
			{
				{-0.05793026462197304}
			},
			{
				{-0.08308885991573334}
			},
			{
				{-0.018988575786352158}
			},
			{
				{0.0907328650355339}
			},
			{
				{-0.09648983925580978}
			},
			{
				{-0.043880149722099304}
			},
			{
				{0.08363380283117294}
			},
			{
				{-0.03600689768791199}
			},
			{
				{0.08396239578723907}
			},
			{
				{0.15107086300849915}
			},
			{
				{0.020997174084186554}
			},
			{
				{0.06397566199302673}
			},
			{
				{-0.01264845672994852}
			},
			{
				{0.12611527740955353}
			},
			{
				{-0.02144460752606392}
			},
			{
				{0.06899086385965347}
			},
			{
				{0.10849706083536148}
			},
			{
				{-0.04654109850525856}
			},
			{
				{0.0036156130954623222}
			},
			{
				{-0.086226686835289}
			},
			{
				{0.05193723738193512}
			},
			{
				{-0.0486723855137825}
			},
			{
				{-0.0036873291246593}
			},
			{
				{0.09065937250852585}
			},
			{
				{0.14433683454990387}
			},
			{
				{0.07305937260389328}
			},
			{
				{0.07072478532791138}
			},
			{
				{-0.1107071191072464}
			},
			{
				{-0.05177581310272217}
			},
			{
				{0.016232850030064583}
			},
			{
				{-0.01367628388106823}
			},
			{
				{0.04283696413040161}
			},
			{
				{0.147579625248909}
			},
			{
				{0.0055558942258358}
			},
			{
				{0.17764224112033844}
			},
			{
				{-0.0025269892066717148}
			},
			{
				{0.10384678840637207}
			},
			{
				{-0.05677476525306702}
			},
			{
				{-0.027098583057522774}
			},
			{
				{-0.09691167622804642}
			},
			{
				{0.04557231068611145}
			},
			{
				{0.02706352435052395}
			},
			{
				{0.009873457252979279}
			},
			{
				{-0.05938778072595596}
			},
			{
				{-0.14811302721500397}
			},
			{
				{0.06670330464839935}
			},
			{
				{-0.026672614738345146}
			},
			{
				{0.06636040657758713}
			},
			{
				{-0.11323067545890808}
			},
			{
				{-0.022882994264364243}
			},
			{
				{-0.1670210361480713}
			},
			{
				{0.008642548695206642}
			},
			{
				{-0.05143038555979729}
			},
			{
				{0.06834171712398529}
			},
			{
				{0.057449549436569214}
			},
			{
				{-0.03439338877797127}
			},
			{
				{0.0006104377098381519}
			},
			{
				{0.08954407274723053}
			},
			{
				{-0.09568236023187637}
			},
			{
				{-0.12372694909572601}
			},
			{
				{-0.04247244819998741}
			},
			{
				{0.11480781435966492}
			},
			{
				{0.004229579586535692}
			},
			{
				{0.15188591182231903}
			},
			{
				{0.022822387516498566}
			},
			{
				{-0.11578360944986343}
			},
			{
				{-0.07979188114404678}
			},
			{
				{0.05655043572187424}
			},
			{
				{-0.1617240160703659}
			},
			{
				{0.09258206933736801}
			},
			{
				{0.032424863427877426}
			},
			{
				{-0.15501192212104797}
			},
			{
				{0.002538693370297551}
			},
			{
				{0.09286382794380188}
			},
			{
				{0.12309806048870087}
			},
			{
				{0.014001884497702122}
			},
			{
				{-0.04216707870364189}
			},
			{
				{0.17109723389148712}
			},
			{
				{-0.017702672630548477}
			},
			{
				{-0.07180056720972061}
			},
			{
				{-0.042603593319654465}
			},
			{
				{0.047197163105010986}
			},
			{
				{-0.11392062157392502}
			},
			{
				{-0.0028115815948694944}
			},
			{
				{-0.038975197821855545}
			},
			{
				{-0.06427532434463501}
			},
			{
				{-0.09439451992511749}
			},
			{
				{-0.007232826668769121}
			},
			{
				{0.06372445821762085}
			},
			{
				{-0.03261930122971535}
			},
			{
				{0.16687047481536865}
			},
			{
				{-0.00261984346434474}
			},
			{
				{-0.15568730235099792}
			},
			{
				{-0.0532371923327446}
			},
			{
				{-0.010751920752227306}
			},
			{
				{-0.07784966379404068}
			},
			{
				{0.020053694024682045}
			},
			{
				{0.03051297925412655}
			},
			{
				{-0.011556362733244896}
			},
			{
				{0.10507110506296158}
			},
			{
				{0.02419724501669407}
			},
			{
				{-0.06824704259634018}
			},
			{
				{0.17080891132354736}
			},
			{
				{-0.005458977539092302}
			},
			{
				{0.006394246127456427}
			},
			{
				{-0.06532751023769379}
			},
			{
				{-0.07450539618730545}
			},
			{
				{-0.09589386731386185}
			},
			{
				{0.001500766258686781}
			},
			{
				{0.033170443028211594}
			},
			{
				{-0.10026498138904572}
			},
			{
				{-0.006423245649784803}
			},
			{
				{-0.025204133242368698}
			},
			{
				{0.022824518382549286}
			},
			{
				{0.10080590844154358}
			},
			{
				{-0.07529053837060928}
			},
			{
				{-0.01829323172569275}
			},
			{
				{-0.04886981472373009}
			},
			{
				{0.09216887503862381}
			},
			{
				{-0.10155454277992249}
			},
			{
				{-0.05119596794247627}
			},
			{
				{0.052511733025312424}
			},
			{
				{-0.1201554462313652}
			},
			{
				{0.12504522502422333}
			},
			{
				{0.07887034118175507}
			},
			{
				{0.08499234914779663}
			},
			{
				{-0.04807008430361748}
			},
			{
				{-0.09424754977226257}
			},
			{
				{-0.12198456376791}
			},
			{
				{0.15047654509544373}
			},
			{
				{-0.01006048358976841}
			},
			{
				{0.033546604216098785}
			},
			{
				{-0.09070136398077011}
			},
			{
				{0.11138040572404861}
			},
			{
				{-0.1311567723751068}
			},
			{
				{0.09016556292772293}
			},
			{
				{0.09812133014202118}
			},
			{
				{-0.1006346195936203}
			},
			{
				{-0.11282790452241898}
			},
			{
				{0.10124111920595169}
			},
			{
				{-0.13426510989665985}
			},
			{
				{-0.06832542270421982}
			},
			{
				{0.011845133267343044}
			},
			{
				{0.09955371171236038}
			},
			{
				{-0.01836014725267887}
			},
			{
				{0.11502034962177277}
			},
			{
				{-0.09819842129945755}
			},
			{
				{-0.11088960617780685}
			},
			{
				{0.1390266865491867}
			},
			{
				{-0.11319097131490707}
			},
			{
				{0.1276039481163025}
			},
			{
				{-0.06822085380554199}
			},
			{
				{0.05748483166098595}
			},
			{
				{0.0943353995680809}
			},
			{
				{-0.02909962274134159}
			},
			{
				{-0.003042590571567416}
			},
			{
				{-0.0973522961139679}
			},
			{
				{-0.14628979563713074}
			},
			{
				{-0.01346573792397976}
			},
			{
				{0.09692756086587906}
			},
			{
				{0.10442782193422318}
			},
			{
				{0.1021086648106575}
			},
			{
				{0.0303459744900465}
			},
			{
				{-0.1920754313468933}
			},
			{
				{0.06711846590042114}
			},
			{
				{0.08619824051856995}
			},
			{
				{0.04406542703509331}
			},
			{
				{-0.036052439361810684}
			},
			{
				{-0.10258608311414719}
			},
			{
				{-0.12211739271879196}
			},
			{
				{-0.07296112179756165}
			},
			{
				{-0.0847276896238327}
			},
			{
				{0.06745492666959763}
			},
			{
				{-0.1474442332983017}
			},
			{
				{-0.027638450264930725}
			},
			{
				{-0.054092537611722946}
			},
			{
				{-0.0991809219121933}
			},
			{
				{-0.034674908965826035}
			},
			{
				{0.09030114114284515}
			},
			{
				{0.05084683746099472}
			},
			{
				{0.0028229134622961283}
			},
			{
				{0.07654651254415512}
			},
			{
				{0.05308913439512253}
			},
			{
				{0.11342587321996689}
			},
			{
				{-0.11303941905498505}
			},
			{
				{-0.10982513427734375}
			},
			{
				{0.045999009162187576}
			},
			{
				{0.1031370609998703}
			},
			{
				{-0.10078805685043335}
			},
			{
				{-0.03521828353404999}
			},
			{
				{-0.006058791186660528}
			},
			{
				{-0.17234893143177032}
			},
			{
				{0.07458169758319855}
			},
			{
				{0.03129197284579277}
			},
			{
				{0.10181739181280136}
			},
			{
				{0.12404990941286087}
			},
			{
				{-0.015744321048259735}
			},
			{
				{-0.07599218934774399}
			},
			{
				{-0.03407011926174164}
			},
			{
				{0.038439877331256866}
			},
			{
				{-0.044615525752305984}
			},
			{
				{0.03399566188454628}
			},
			{
				{0.03267839550971985}
			},
			{
				{0.001309964107349515}
			},
			{
				{0.051247403025627136}
			},
			{
				{0.04869939759373665}
			},
			{
				{0.10019171237945557}
			},
			{
				{0.06479135155677795}
			},
			{
				{-0.11268462985754013}
			},
			{
				{0.10200142860412598}
			},
			{
				{-0.037555139511823654}
			},
			{
				{0.014809366315603256}
			},
			{
				{0.1421026736497879}
			},
			{
				{-0.08451647311449051}
			},
			{
				{0.007031499408185482}
			},
			{
				{0.03155924752354622}
			},
			{
				{0.03222116827964783}
			},
			{
				{0.16369584202766418}
			},
			{
				{0.11342096328735352}
			},
			{
				{-0.09150659292936325}
			},
			{
				{-0.12704825401306152}
			},
			{
				{0.08443222939968109}
			},
			{
				{-0.022972727194428444}
			},
			{
				{0.13967306911945343}
			},
			{
				{0.10465098917484283}
			},
			{
				{-0.017124390229582787}
			},
			{
				{0.09545773267745972}
			},
			{
				{0.055772095918655396}
			},
			{
				{-0.03542889654636383}
			},
			{
				{-0.005747766233980656}
			},
			{
				{0.00561778899282217}
			},
			{
				{-0.013952584005892277}
			},
			{
				{0.004926313180476427}
			},
			{
				{-0.09374848008155823}
			},
			{
				{-0.027409924194216728}
			},
			{
				{0.16360054910182953}
			},
			{
				{0.05212711915373802}
			},
			{
				{-0.007609978783875704}
			},
			{
				{-0.13254842162132263}
			},
			{
				{0.06619198620319366}
			},
			{
				{-0.016879107803106308}
			},
			{
				{-0.09598416835069656}
			},
			{
				{-0.1328514963388443}
			},
			{
				{0.012055464088916779}
			},
			{
				{-0.025545071810483932}
			},
			{
				{0.12936155498027802}
			},
			{
				{0.13688331842422485}
			},
			{
				{-0.07660924643278122}
			},
			{
				{-0.003248056396842003}
			},
			{
				{0.019296135753393173}
			},
			{
				{-0.12168240547180176}
			},
			{
				{0.10915174335241318}
			},
			{
				{0.016958076506853104}
			},
			{
				{-0.07353809475898743}
			},
			{
				{0.05614162236452103}
			},
			{
				{0.0927523747086525}
			},
			{
				{-0.07472904771566391}
			},
			{
				{-0.043025530874729156}
			},
			{
				{0.16366179287433624}
			},
			{
				{-0.06853234022855759}
			},
			{
				{-0.006820150185376406}
			},
			{
				{-0.01900765858590603}
			},
			{
				{0.01668301783502102}
			},
			{
				{0.031103352084755898}
			},
			{
				{0.04329531267285347}
			},
			{
				{-0.04394196718931198}
			},
			{
				{0.01678049936890602}
			},
			{
				{0.07297508418560028}
			},
			{
				{-0.06100999191403389}
			},
			{
				{-0.03374291583895683}
			},
			{
				{-0.03420772776007652}
			},
			{
				{0.07637867331504822}
			},
			{
				{0.0025866522919386625}
			},
			{
				{-0.018477458506822586}
			},
			{
				{0.022085893899202347}
			},
			{
				{0.15216709673404694}
			},
			{
				{-0.1253507435321808}
			},
			{
				{0.13262170553207397}
			},
			{
				{0.037936218082904816}
			},
			{
				{0.16061171889305115}
			},
			{
				{0.003985103219747543}
			},
			{
				{-0.069286048412323}
			},
			{
				{0.020939605310559273}
			},
			{
				{-0.008326233364641666}
			},
			{
				{0.1312839537858963}
			},
			{
				{-0.002227224176749587}
			},
			{
				{-0.11287961900234222}
			},
			{
				{-0.06284933537244797}
			},
			{
				{0.09751438349485397}
			},
			{
				{-0.016160553321242332}
			},
			{
				{-0.08704373985528946}
			},
			{
				{-0.056115563958883286}
			},
			{
				{0.004343501292169094}
			},
			{
				{-0.025276755914092064}
			},
			{
				{0.045274969190359116}
			},
			{
				{-0.0470329113304615}
			},
			{
				{0.022256333380937576}
			},
			{
				{-0.025543170049786568}
			},
			{
				{0.010566255077719688}
			},
			{
				{0.07306426763534546}
			},
			{
				{0.12659631669521332}
			},
			{
				{0.08334431797266006}
			},
			{
				{0.08818458020687103}
			},
			{
				{-0.03935233876109123}
			},
			{
				{0.1799706071615219}
			},
			{
				{-0.06074775382876396}
			},
			{
				{0.17271412909030914}
			},
			{
				{-0.014022902585566044}
			},
			{
				{0.10277179628610611}
			},
			{
				{0.015140146017074585}
			},
			{
				{-0.13435544073581696}
			},
			{
				{0.01440698467195034}
			},
			{
				{0.016971683129668236}
			},
			{
				{0.04087292402982712}
			},
			{
				{0.024000536650419235}
			},
			{
				{-0.11681624501943588}
			},
			{
				{0.06826852262020111}
			},
			{
				{-0.046083804219961166}
			},
			{
				{0.02013227343559265}
			},
			{
				{-0.18855971097946167}
			},
			{
				{0.10603775084018707}
			},
			{
				{0.02311590500175953}
			},
			{
				{0.12782526016235352}
			},
			{
				{-0.08711239695549011}
			},
			{
				{0.11016620695590973}
			},
			{
				{0.1098809689283371}
			},
			{
				{0.0042471736669540405}
			},
			{
				{0.015181975439190865}
			},
			{
				{-0.005416808649897575}
			},
			{
				{-0.025573724880814552}
			},
			{
				{0.13458652794361115}
			},
			{
				{-0.025660229846835136}
			},
			{
				{-0.06489694863557816}
			},
			{
				{-0.053282007575035095}
			},
			{
				{-0.042633429169654846}
			},
			{
				{-0.03325522318482399}
			},
			{
				{0.008139196783304214}
			},
			{
				{0.10983950644731522}
			},
			{
				{-0.007826908491551876}
			},
			{
				{0.06274255365133286}
			},
			{
				{-0.1362239569425583}
			},
			{
				{0.07546409219503403}
			},
			{
				{0.009304794482886791}
			},
			{
				{0.000663741840980947}
			},
			{
				{0.05306333303451538}
			},
			{
				{-0.17705729603767395}
			},
			{
				{0.08943749964237213}
			},
			{
				{-0.005535774398595095}
			},
			{
				{0.1394481509923935}
			},
			{
				{0.08582957088947296}
			},
			{
				{-0.11581069231033325}
			},
			{
				{0.0505809560418129}
			},
			{
				{0.09302745759487152}
			},
			{
				{-0.024666281417012215}
			},
			{
				{0.0004600089159794152}
			},
			{
				{-0.04597872495651245}
			},
			{
				{-0.007197655737400055}
			},
			{
				{0.13863438367843628}
			},
			{
				{0.13127484917640686}
			},
			{
				{0.13927555084228516}
			},
			{
				{0.14491668343544006}
			},
			{
				{0.005573874339461327}
			},
			{
				{0.10009577125310898}
			},
			{
				{0.01012073177844286}
			},
			{
				{0.01968979276716709}
			},
			{
				{0.16799098253250122}
			},
			{
				{-0.10584938526153564}
			},
			{
				{0.11987417191267014}
			},
			{
				{-0.05637560784816742}
			},
			{
				{0.1436171531677246}
			},
			{
				{0.030193466693162918}
			},
			{
				{0.003537621581926942}
			},
			{
				{0.12505313754081726}
			},
			{
				{-0.0020099333487451077}
			},
			{
				{0.04782487824559212}
			},
			{
				{-0.05558234453201294}
			},
			{
				{-0.026489581912755966}
			},
			{
				{0.030798668041825294}
			},
			{
				{-0.01653323322534561}
			},
			{
				{-0.009557507932186127}
			},
			{
				{0.03907575085759163}
			},
			{
				{0.11274173855781555}
			},
			{
				{0.06129103899002075}
			},
			{
				{0.023185914382338524}
			},
			{
				{0.06532689183950424}
			},
			{
				{0.09983314573764801}
			},
			{
				{0.06049823388457298}
			},
			{
				{-0.03620061278343201}
			},
			{
				{-0.16881144046783447}
			},
			{
				{-0.0002452943881507963}
			},
			{
				{0.0021745897829532623}
			},
			{
				{-0.029566824436187744}
			},
			{
				{-0.043996188789606094}
			},
			{
				{0.01009159255772829}
			},
			{
				{0.11506220698356628}
			},
			{
				{0.10334362089633942}
			},
			{
				{0.047877825796604156}
			},
			{
				{0.042330510914325714}
			},
			{
				{-0.0038429871201515198}
			},
			{
				{-0.08628958463668823}
			},
			{
				{0.010322341695427895}
			},
			{
				{0.032318394631147385}
			},
			{
				{0.03212079778313637}
			},
			{
				{0.16119760274887085}
			},
			{
				{0.12965726852416992}
			},
			{
				{-0.058008190244436264}
			},
			{
				{0.055284660309553146}
			},
			{
				{0.04152417555451393}
			},
			{
				{0.02120133303105831}
			},
			{
				{-0.12762296199798584}
			},
			{
				{0.06498583406209946}
			},
			{
				{-0.022156281396746635}
			},
			{
				{-0.02741927281022072}
			},
			{
				{0.023331793025135994}
			},
			{
				{-0.04637895151972771}
			},
			{
				{0.0640941634774208}
			},
			{
				{-0.03215327858924866}
			},
			{
				{-0.022620849311351776}
			},
			{
				{0.02281997725367546}
			},
			{
