	{
		{
			{
				{0.013019838370382786,0.16457729041576385,-0.041556939482688904,-0.09355968981981277,0.13158775866031647},
				{-0.13238154351711273,-0.07708422839641571,0.019224321469664574,0.041960977017879486,-0.16956205666065216},
				{0.001725681941024959,-0.06990501284599304,0.006214844062924385,-0.13151013851165771,-0.08597837388515472},
				{-0.06843610852956772,-0.08501219749450684,0.035720787942409515,-0.11302081495523453,-0.0010161948157474399},
				{0.04151938483119011,0.002375014591962099,-0.16783352196216583,0.09167040139436722,-0.01569247990846634}
			},
			{
				{0.11707382649183273,-0.010266573168337345,0.0694323405623436,-0.1483335793018341,0.18328824639320374},
				{-0.05791119486093521,-0.1820589303970337,-0.12425548583269119,0.1497589349746704,-0.039502646774053574},
				{-0.12560272216796875,-0.011294957250356674,0.17158831655979156,-0.004919592756778002,-0.05714704468846321},
				{-0.12112244218587875,-0.2500036358833313,0.15170489251613617,-0.05029338598251343,0.0915394052863121},
				{0.09786766767501831,0.011563466861844063,0.0066310325637459755,0.009568187408149242,0.00982738845050335}
			},
			{
				{-0.01700437068939209,-0.1133730486035347,0.15948276221752167,-0.0504833422601223,0.1688164919614792},
				{0.014800695702433586,-0.019430946558713913,0.15353357791900635,0.0717160701751709,0.06175672262907028},
				{0.07128195464611053,0.10940351337194443,-0.09602969139814377,-0.053147122263908386,-0.03401685878634453},
				{0.028061402961611748,-0.021205587312579155,-0.007388480473309755,0.02386164665222168,0.07477589696645737},
				{0.12781922519207,0.09565504640340805,0.0073948809877038,-0.03587992861866951,-0.08374854922294617}
			},
			{
				{0.11991190910339355,-0.1873357892036438,0.15117765963077545,0.13671192526817322,0.09648434817790985},
				{0.06405547261238098,0.00859422143548727,-0.12041928619146347,-0.11745757609605789,-0.04401284456253052},
				{-0.12746991217136383,-0.033584821969270706,0.12325838953256607,-0.07018370181322098,0.04667820408940315},
				{0.08372341096401215,-0.02587306685745716,-0.09662871807813644,-0.20788607001304626,-0.11207067966461182},
				{-0.04660056531429291,0.07388690114021301,-0.03142567723989487,0.00025061139604076743,-0.17088040709495544}
			},
			{
				{-0.09245060384273529,0.04877118021249771,-0.006274458020925522,-0.0043116845190525055,-0.04989643394947052},
				{0.09925804287195206,-0.034624140709638596,-0.03196094185113907,-0.23694917559623718,-0.00634892750531435},
				{0.05899731069803238,0.05117727443575859,-0.007108021527528763,-0.08963382989168167,-0.10896031558513641},
				{0.08677764981985092,-0.1429210752248764,-0.008206627331674099,0.01364116184413433,-0.029141461476683617},
				{0.010070343501865864,-0.14095373451709747,-0.025307796895503998,-0.07129129022359848,0.038486968725919724}
			},
			{
				{-0.1396608054637909,-0.11168619990348816,-0.058229781687259674,-0.10853176563978195,-0.06030005216598511},
				{-0.05314531549811363,-0.11080460995435715,0.02781066671013832,0.12887465953826904,0.1389976441860199},
				{-0.09484875202178955,-0.11226075142621994,-0.04270452633500099,0.03670699521899223,-0.08680566400289536},
				{0.0389551967382431,0.11935488879680634,-0.09337280690670013,0.13918063044548035,0.018796980381011963},
				{0.010054308921098709,-0.09677379578351974,-0.04476865008473396,-0.05247321352362633,-0.04336737096309662}
			},
			{
				{-0.1299569308757782,0.07233686745166779,0.01941736973822117,-0.11173517256975174,-0.09607347100973129},
				{-0.003189709270372987,-0.16813626885414124,0.009839534759521484,0.01648627407848835,0.07895419001579285},
				{-0.11566249281167984,0.031596120446920395,-0.0011140464339405298,0.02997460775077343,-0.04129098728299141},
				{-0.10410365462303162,-0.12471920996904373,-0.07557862997055054,0.06182963401079178,0.04004191979765892},
				{0.06449291855096817,0.027584552764892578,-0.21118535101413727,0.07123106718063354,-0.02662689797580242}
			},
			{
				{-0.04238838329911232,0.09596022218465805,0.0434519462287426,0.02341514825820923,-0.12192866206169128},
				{0.03358587250113487,-0.1269848793745041,-0.03383156657218933,0.10119983553886414,-0.13660337030887604},
				{-0.015446045435965061,0.008433781564235687,-0.10490530729293823,-0.05896790698170662,-0.14402078092098236},
				{0.1175524890422821,0.004507262725383043,-0.06518038362264633,-0.05124686658382416,-0.03129892796278},
				{0.0853135958313942,-0.16336804628372192,0.13325026631355286,0.04570087790489197,-0.09963354468345642}
			},
			{
				{-0.025686638429760933,-0.1177421361207962,0.0377807542681694,0.09407618641853333,-0.09533222019672394},
				{0.06241759657859802,-0.16370967030525208,-0.12905767560005188,0.034080423414707184,-0.18441511690616608},
				{0.012992741540074348,0.1571234166622162,-0.11046531051397324,-0.02441498264670372,0.1894340217113495},
				{-0.015290667302906513,-0.03648781776428223,-0.07201024889945984,-0.01970246434211731,-0.08057224750518799},
				{0.005146134179085493,-0.04108766093850136,-0.09385411441326141,-0.07047358900308609,0.03569738194346428}
			},
			{
				{0.04238484054803848,-0.04435296356678009,-0.10528886318206787,0.027682268992066383,0.015170241706073284},
				{-0.06456227600574493,-0.1293448954820633,0.018347108736634254,-0.004718817304819822,0.19246968626976013},
				{-0.0597180612385273,-0.1684635579586029,-0.1412290632724762,0.0646146908402443,0.0716276541352272},
				{0.014614902436733246,0.09028686583042145,-0.19373680651187897,0.1187133640050888,-0.04021543636918068},
				{-0.09908172488212585,-0.13999107480049133,-0.22512465715408325,-0.018738262355327606,0.12702181935310364}
			},
			{
				{-0.06234968826174736,0.10056766122579575,0.07863637059926987,-0.10250882059335709,-0.026609079912304878},
				{-0.09828279912471771,-0.12220019847154617,-0.09377291798591614,-0.11448598653078079,-0.10095562785863876},
				{0.0835738480091095,-0.16197925806045532,0.1124735176563263,0.04395747184753418,0.03366360813379288},
				{-0.1705005168914795,-0.16067907214164734,0.06020175665616989,-0.01969979703426361,-0.14631175994873047},
				{-0.058999598026275635,0.05356384068727493,0.04016851633787155,-0.15856730937957764,0.15498469769954681}
			},
			{
				{-0.06916656345129013,0.03804684802889824,-0.10529698431491852,-0.17739082872867584,0.03174428269267082},
				{0.13998249173164368,-0.08759713172912598,-0.05592282861471176,0.06664334237575531,-0.012937667779624462},
				{-0.06160874664783478,-0.028829945251345634,-0.05895078927278519,-0.05014310032129288,0.04949910566210747},
				{-0.012361902743577957,-0.10493925213813782,0.03374193608760834,-0.07813714444637299,0.16760998964309692},
				{0.00821622647345066,-0.06066812202334404,-0.13858096301555634,-0.009885318577289581,-0.05681467801332474}
			},
			{
				{0.05761687830090523,-0.1379643976688385,-0.11942985653877258,-0.1695822775363922,0.04341502860188484},
				{0.13675667345523834,0.12626980245113373,0.10652854293584824,-0.007039286196231842,0.020572494715452194},
				{0.0038854845333844423,-0.016992757096886635,0.06908001005649567,0.06691734492778778,0.007791819050908089},
				{0.09306356310844421,-0.06117089092731476,0.04936385899782181,-0.07427503168582916,0.010102990083396435},
				{-0.014386468566954136,0.054896753281354904,-0.14431974291801453,0.02339734137058258,-0.021884119138121605}
			},
			{
				{0.023151014000177383,0.10819040983915329,0.11681122332811356,-0.0674920305609703,0.05266106128692627},
				{0.15250442922115326,0.14604519307613373,-0.04064422845840454,0.0570734366774559,-0.23751939833164215},
				{-0.01466530654579401,0.16034556925296783,0.05183715373277664,0.005986930802464485,0.008645686320960522},
				{-0.08530855923891068,-0.0897592231631279,-0.08830609172582626,0.048556528985500336,0.007870474830269814},
				{-0.07536076754331589,-0.1288449466228485,0.028455212712287903,-0.0716448500752449,0.09238508343696594}
			},
			{
				{0.008760851807892323,-0.12546193599700928,0.12434467673301697,0.11864855140447617,0.1896868795156479},
				{0.05346989631652832,-0.035044778138399124,0.0725293904542923,-0.10254678130149841,0.13436289131641388},
				{0.02335425093770027,0.1480630785226822,-0.05228078365325928,0.12964536249637604,0.11083116382360458},
				{0.15315473079681396,0.17380806803703308,0.09358851611614227,-0.05176877975463867,0.0719231516122818},
				{0.0430375337600708,0.10937575250864029,0.07615254819393158,-0.03697614744305611,0.08100086450576782}
			},
			{
				{-0.13000653684139252,0.11522848904132843,-0.04081492871046066,0.06434900313615799,0.04301689937710762},
				{0.13877485692501068,-0.10449147969484329,0.013327913358807564,-0.14450211822986603,0.05364095792174339},
				{0.1261221468448639,-0.023739414289593697,0.10212478786706924,-0.10421767085790634,-0.018932277336716652},
				{-0.04946257919073105,-0.11951036006212234,0.04086950421333313,-0.1047925055027008,0.18026423454284668},
				{0.0060929544270038605,-0.09170718491077423,-0.10724225640296936,0.14168833196163177,-0.09583550691604614}
			},
			{
				{0.09423720836639404,-0.221454918384552,0.11278622597455978,0.1481003314256668,0.09924915432929993},
				{-0.0051296125166118145,-0.10085048526525497,-0.059967540204524994,-0.06267557293176651,-0.09303878247737885},
				{-0.003304861718788743,0.1684720516204834,-0.1894659548997879,-0.1381060630083084,-0.03204541653394699},
				{0.12199440598487854,0.1343822330236435,-0.050576914101839066,-0.11589782685041428,-0.016923677176237106},
				{0.04726091027259827,-0.0829751044511795,0.02807643823325634,0.13720910251140594,-0.020513739436864853}
			},
			{
				{-0.051338497549295425,-0.015401575714349747,0.07469073683023453,0.12223029881715775,0.0048102159053087234},
				{-0.03426660597324371,-0.08706863224506378,-0.11287400126457214,0.07787994295358658,0.06850381940603256},
				{0.0535135418176651,0.11946835368871689,0.08342164009809494,0.02375918999314308,0.0010140585945919156},
				{-0.1131543517112732,-0.0797443762421608,0.01576458103954792,0.10554410517215729,-0.17956745624542236},
				{0.06551666557788849,0.14954708516597748,0.019547363743185997,0.012970998883247375,0.05105845257639885}
			},
			{
				{0.06614243984222412,0.01572243496775627,-0.06265971064567566,0.014053015038371086,0.07032441347837448},
				{0.11581995338201523,0.08837863802909851,-0.09501947462558746,-0.1844927966594696,0.10290788114070892},
				{-0.060642991214990616,-0.005521809682250023,0.08637859672307968,0.08762586861848831,-0.23013417422771454},
				{0.06675312668085098,-0.09105125814676285,-0.03694365546107292,0.03918594866991043,-0.03439077362418175},
				{-0.04067770019173622,-0.0741984099149704,0.021360311657190323,-0.10878926515579224,-0.0362800769507885}
			},
			{
				{0.09517158567905426,0.09100030362606049,0.0985850989818573,0.1160779744386673,-0.14493012428283691},
				{-0.20711460709571838,-0.02335525117814541,0.10745486617088318,0.029768401756882668,0.037237949669361115},
				{0.1145244762301445,0.13847185671329498,0.1552981287240982,0.07025884091854095,0.03344515338540077},
				{-0.13776825368404388,0.05676226690411568,-0.044902123510837555,0.0489109642803669,-0.12867441773414612},
				{0.06820143014192581,-0.1036212295293808,0.026669560000300407,-0.1462818831205368,0.1707788109779358}
			},
			{
				{-0.1848713904619217,0.1875360608100891,0.052108362317085266,-0.04039005935192108,0.04791603237390518},
				{0.06838013976812363,-0.08141699433326721,0.020657280460000038,-0.002530518686398864,-0.003946196753531694},
				{-0.08493141084909439,-0.0073828985914587975,-0.05423916503787041,-0.02306935377418995,-0.026028715074062347},
				{0.007356757763773203,-0.20382773876190186,-0.028602413833141327,-0.1353653520345688,0.08671177178621292},
				{0.06759679317474365,0.05455952137708664,0.04852556437253952,0.12103667855262756,-0.10602099448442459}
			},
			{
				{0.02728463150560856,0.026509273797273636,-0.03732074797153473,-0.05631253123283386,-0.03598662465810776},
				{-0.13815893232822418,0.07938004285097122,-0.011818816885352135,0.16332490742206573,0.007353073917329311},
				{-0.02160835452377796,-0.08108147233724594,-0.0932362899184227,0.009639455936849117,0.053070101886987686},
				{-0.04110267013311386,0.005521393846720457,-0.02176091820001602,0.10357791930437088,-0.0006619500345550478},
				{0.04786603897809982,-0.11216681450605392,-0.028218671679496765,-0.10571878403425217,0.042290423065423965}
			},
			{
				{-0.0700991228222847,-0.010784335434436798,-0.15267376601696014,0.04679875820875168,0.16008472442626953},
				{0.03095073252916336,0.010421321727335453,0.05237509682774544,-0.07523322105407715,-0.12517938017845154},
				{-0.1588888019323349,-0.21633867919445038,-0.16095316410064697,-0.008902840316295624,-0.007520509883761406},
				{-0.14711855351924896,-0.04857129603624344,9.787965245777741e-05,0.0985398218035698,0.029389584437012672},
				{0.15726624429225922,0.05646350979804993,0.04597056284546852,0.015582699328660965,0.08872918784618378}
			},
			{
				{-0.03607093170285225,0.07517067342996597,-0.07496292144060135,-0.09268953651189804,0.019009241834282875},
				{0.012547646649181843,0.014353233389556408,-0.14731957018375397,0.060134872794151306,-0.15868216753005981},
				{-0.09378430247306824,0.029165728017687798,-0.103123240172863,-0.13296501338481903,-0.11075206845998764},
				{-0.05339080095291138,0.015331385657191277,0.029318055137991905,-0.029344303533434868,-0.1884368360042572},
				{-0.07308866828680038,-0.09685345739126205,-0.03329659625887871,-0.1330568492412567,-0.16575883328914642}
			},
			{
				{-0.032424237579107285,-0.09135597199201584,-0.25506463646888733,-0.0402982160449028,-0.18637752532958984},
				{-0.01685231737792492,0.11384652554988861,-0.027758844196796417,-0.10042989253997803,0.02978193387389183},
				{0.03121000900864601,-0.08405209332704544,0.07897335290908813,0.05810270830988884,0.03417680040001869},
				{-0.07567230612039566,-0.06122451275587082,0.002208942547440529,0.030696004629135132,-0.12574048340320587},
				{-0.11429786682128906,-0.03462418168783188,-0.002301733708009124,-0.04443703964352608,-0.18458183109760284}
			},
			{
				{-0.11453573405742645,-0.023133842274546623,0.005679943133145571,-0.1049693301320076,-0.009861739352345467},
				{-0.018875477835536003,0.02323700301349163,-0.1971369981765747,-0.18576723337173462,0.06978808343410492},
				{-0.07578767091035843,0.10636454075574875,-0.04315086454153061,0.018209462985396385,0.07414950430393219},
				{-0.060931697487831116,-0.007724576164036989,-0.0011206254130229354,-0.05655118077993393,0.05309821292757988},
				{-0.023159751668572426,0.0017633646493777633,-0.18989121913909912,0.06253979355096817,0.10209110379219055}
			},
			{
				{0.0008319491753354669,-0.18980856239795685,0.021777311339974403,-0.13396809995174408,-0.08998816460371017},
				{0.1310129463672638,0.004665081389248371,0.07891196012496948,0.06205034255981445,0.05135047063231468},
				{-0.04951412230730057,-0.006067235954105854,-0.04329068958759308,0.08033695071935654,0.024513131007552147},
				{0.05434229597449303,0.07693979889154434,0.01724662259221077,-0.06330928206443787,0.07146856933832169},
				{0.05354658141732216,0.10373718291521072,-0.018871840089559555,0.10798703134059906,0.03534051030874252}
			},
			{
				{-0.1837715059518814,0.08058559894561768,-0.014478378929197788,0.07479579746723175,-0.059686802327632904},
				{-0.10480299592018127,-0.1286625862121582,0.09135181456804276,0.02070576325058937,-0.1464758962392807},
				{-0.03606678545475006,-0.1584193855524063,0.12171424925327301,-0.05834886431694031,0.1337703913450241},
				{0.057174306362867355,-0.0932634100317955,-0.05070445314049721,-0.03448304906487465,0.08350323140621185},
				{-0.06847355514764786,0.13487882912158966,-0.06740495562553406,0.13278664648532867,-0.01890333741903305}
			},
			{
				{-0.16372396051883698,0.053573910146951675,-0.11847640573978424,-0.11224738508462906,-0.18045459687709808},
				{-0.11481469869613647,0.1667424887418747,0.14717572927474976,0.007781180087476969,0.0860171690583229},
				{-0.0023052862379699945,-0.04883382096886635,0.0941820964217186,0.12477997690439224,-0.006849402561783791},
				{0.1643054336309433,0.062151264399290085,0.06452822685241699,-0.1580214649438858,0.009167530573904514},
				{0.0395500548183918,0.06354235857725143,-0.08119115978479385,-0.15144681930541992,0.02928675338625908}
			},
			{
				{-0.16259188950061798,0.05050288140773773,-0.10721354186534882,0.17462876439094543,-0.18049731850624084},
				{0.08342375606298447,-0.1514662802219391,0.06403292715549469,0.021788280457258224,-0.11185134202241898},
				{-0.055886391550302505,-0.04611348733305931,-0.1154196634888649,-0.1481100469827652,0.08578605204820633},
				{-0.1327633112668991,-0.02115897834300995,-0.05178677663207054,-0.1386977583169937,0.02275027520954609},
				{0.0731569305062294,0.018082141876220703,-0.04829462245106697,0.04896455630660057,-0.1519438922405243}
			},
			{
				{-0.13327905535697937,-0.03205845504999161,0.12500521540641785,-0.0005235974676907063,0.044518377631902695},
				{0.043274857103824615,0.07706373929977417,-0.01227336935698986,-0.01694372668862343,-0.08732171356678009},
				{0.0733516588807106,-0.11095824092626572,0.10130762308835983,0.09859906136989594,-0.05411107838153839},
				{0.0037446175701916218,0.10947224497795105,0.05441587418317795,-0.148624449968338,0.10164480656385422},
				{0.11554338037967682,-0.08111860603094101,-0.046255502849817276,0.011021914891898632,-0.15806587040424347}
			},
			{
				{0.00897932518273592,-0.13379432260990143,-0.10858230292797089,0.15879297256469727,-0.08002224564552307},
				{0.017574360594153404,0.05430981516838074,-0.029912738129496574,-0.07265089452266693,-0.018878839910030365},
				{-0.10361560434103012,0.14241546392440796,0.18125565350055695,0.08997028321027756,-0.06754479557275772},
				{-0.11891136318445206,0.07280565798282623,-0.050021104514598846,-6.961692270124331e-05,0.06447963416576385},
				{-0.038776569068431854,0.11072535812854767,0.07191263884305954,-0.17277923226356506,0.04831681400537491}
			},
			{
				{0.02166130766272545,0.02898527681827545,0.04425646364688873,0.0401216484606266,0.07243067026138306},
				{0.009447594173252583,-0.0014106198213994503,0.07552170008420944,0.1278654932975769,-0.03224596381187439},
				{-0.00033965398324653506,-0.05925873667001724,0.05256537348031998,0.1076430007815361,0.08997080475091934},
				{-0.02477949671447277,0.03997041657567024,-0.04090351238846779,-0.07833272963762283,-0.11131986230611801},
				{0.03856043517589569,-0.0068636080250144005,-0.0037170047871768475,-0.13292436301708221,0.16545304656028748}
			},
			{
				{-0.07274226099252701,-0.0011200412409380078,-0.15706197917461395,-0.060356345027685165,-0.03721816837787628},
				{0.06616206467151642,-0.12500491738319397,0.007716425694525242,-0.073736771941185,-0.14867085218429565},
				{-0.007735695689916611,0.07561800628900528,0.0633627325296402,0.15544387698173523,-0.04193827882409096},
				{-0.07967871427536011,-0.013070361688733101,0.13470089435577393,-0.19682852923870087,0.017609167844057083},
				{0.04071161523461342,0.11287007480859756,-0.09455408900976181,-0.12296215444803238,0.06893350929021835}
			},
			{
				{-0.00432361988350749,-0.07904567569494247,0.020865559577941895,0.05059383064508438,-0.2038448601961136},
				{-0.07913925498723984,-0.03890862315893173,0.015476223081350327,0.04178720340132713,0.16632625460624695},
				{0.05133938789367676,0.07331574708223343,-0.14552873373031616,-0.017883406952023506,-0.1845037043094635},
				{-0.18650132417678833,-0.1496150642633438,-0.13407884538173676,0.13159272074699402,-0.05061813071370125},
				{0.13388289511203766,-0.0036433623172342777,-0.10931536555290222,-0.09393321722745895,-0.10379975289106369}
			},
			{
				{0.10505028069019318,0.05011169984936714,-0.07237080484628677,-0.006907303351908922,-0.11324850469827652},
				{-0.020937742665410042,-0.23178093135356903,-0.042335450649261475,0.018521921709179878,-0.05459579452872276},
				{-0.022965220734477043,-0.03498451039195061,-0.04583768546581268,0.02012706734240055,-0.16072125732898712},
				{-0.07163725793361664,0.07897709310054779,0.16092494130134583,-0.06452993303537369,0.0007380772149190307},
				{0.07942113280296326,0.04685743525624275,0.02762950025498867,-0.07077445834875107,-0.15207163989543915}
			},
			{
				{-0.04663155972957611,-0.04641943424940109,-0.09900416433811188,-0.003889624262228608,-0.09091732650995255},
				{0.08498566597700119,0.06189844384789467,0.06302422285079956,0.12124813348054886,-0.14020052552223206},
				{-0.04459133371710777,-0.1614399403333664,-0.06751101464033127,-0.05088401958346367,0.05221495032310486},
				{0.07025577127933502,-0.15550923347473145,-0.03906112536787987,0.010291351936757565,-0.10348058491945267},
				{-0.06452562659978867,0.1204950287938118,-0.11808723211288452,0.10309091210365295,-0.20764131844043732}
			},
			{
				{-0.11270003765821457,-0.09802034497261047,0.08615011721849442,-0.1164855882525444,0.011345074512064457},
				{0.10494350641965866,0.019205408170819283,0.060094259679317474,0.011327998712658882,0.04808910936117172},
				{-0.007985915057361126,-0.043753981590270996,0.16187730431556702,-0.05886363610625267,-0.09159822016954422},
				{0.026415204629302025,0.08332328498363495,-0.07702233642339706,0.043227724730968475,-0.018321340903639793},
				{-0.15735454857349396,0.11583118885755539,-0.13321378827095032,-0.11906231194734573,0.11505004018545151}
			},
			{
				{-0.0751158818602562,-0.005332700442522764,-0.01998922973871231,0.026138076558709145,-0.08828454464673996},
				{0.11360273510217667,0.02883254364132881,0.04564715549349785,0.12529237568378448,0.027094349265098572},
				{0.04420234635472298,-0.001969830598682165,-0.10532863438129425,-0.07245688140392303,-0.02906131185591221},
				{-0.030299203470349312,-0.21493655443191528,-0.0966065376996994,0.06152225285768509,0.08134374022483826},
				{-0.028103642165660858,0.02521231211721897,-0.04090424254536629,0.03038937784731388,-0.06453031301498413}
			},
			{
				{-0.055709224194288254,-0.09954389929771423,0.02851530723273754,0.04523789510130882,0.0338754765689373},
				{0.07843580842018127,-0.021739168092608452,0.0789962112903595,-0.08654333651065826,-0.20281122624874115},
				{-0.11883296817541122,0.07660170644521713,-0.014190339483320713,-0.008906271308660507,0.062019649893045425},
				{0.024675430729985237,0.04574320837855339,0.03861254081130028,0.14985109865665436,0.15644176304340363},
				{-0.11663094907999039,0.05176790431141853,-0.009158686734735966,-0.16667166352272034,-0.17830124497413635}
			},
			{
				{0.03483203798532486,0.020463602617383003,-0.15548831224441528,-0.20815469324588776,-0.002488679951056838},
				{0.1296563446521759,-0.04452909156680107,0.13211217522621155,-0.11966130882501602,-0.07813968509435654},
				{0.07226729393005371,0.05672350898385048,-0.009884649887681007,-0.054980140179395676,0.0303508210927248},
				{0.007425407879054546,-0.05219092592597008,-0.057030510157346725,-0.030308643355965614,-0.1821257472038269},
				{-0.03724480792880058,-0.02667216956615448,-0.07448936253786087,-0.06152641028165817,-0.19311057031154633}
			},
			{
				{-0.11881985515356064,0.05664633587002754,-0.1347569078207016,-0.001920666079968214,-0.18353021144866943},
				{-0.06048455834388733,-0.06472862511873245,0.003895916510373354,0.004207035526633263,-0.031117411330342293},
				{-0.137862890958786,0.004887021612375975,-0.05248695984482765,0.021626433357596397,0.04064713045954704},
				{-0.022349998354911804,-0.04584435001015663,-0.06522730737924576,-0.10225144773721695,-0.15007969737052917},
				{0.06969515979290009,-0.06631092727184296,-0.0406913086771965,-0.07263500988483429,0.10342657566070557}
			},
			{
				{-0.13760657608509064,-0.04932868108153343,-0.11100466549396515,-0.0029776361770927906,-0.007405418902635574},
				{-0.005130478646606207,-0.1313820630311966,-0.13414616882801056,0.07341490685939789,-0.03202279284596443},
				{-0.09673147648572922,-0.05523611605167389,-0.07540623843669891,0.10552969574928284,-0.042634498327970505},
				{0.04552767053246498,-0.03153907507658005,-0.05392488092184067,-0.09357964992523193,-0.1205141544342041},
				{-0.07223749905824661,-0.04331772401928902,-0.053338684141635895,0.039469193667173386,-0.20815269649028778}
			},
			{
				{0.10972163081169128,-0.0021093995310366154,-0.015226973220705986,-0.11188841611146927,0.09987735748291016},
				{-0.032118964940309525,0.15375755727291107,-0.070879727602005,-0.017597829923033714,0.06399474292993546},
				{0.13327550888061523,0.05501687899231911,0.025232132524251938,0.00997394323348999,-0.14740318059921265},
				{0.1857789009809494,0.07037374377250671,-0.015676526352763176,-0.07381768524646759,0.055783044546842575},
				{-0.04026764631271362,-0.17405295372009277,-0.041898004710674286,-0.020133864134550095,0.15854915976524353}
			},
			{
				{0.20259195566177368,-0.1128174215555191,-0.07843001931905746,-0.026643045246601105,-0.12431850284337997},
				{-0.03526556119322777,0.1428356170654297,-0.0364549420773983,-0.03277359530329704,-0.19404847919940948},
				{0.09297562390565872,0.017061768099665642,-0.06022074818611145,-0.11998622119426727,-0.08277219533920288},
				{-0.0958324521780014,-0.02488807402551174,-0.21071812510490417,-0.09676968306303024,0.08156800270080566},
				{-0.03860059753060341,0.10275798290967941,0.1335185468196869,-0.06199661269783974,0.04569067060947418}
			},
			{
				{0.030614836141467094,-0.10707549005746841,0.05164872109889984,0.09049616008996964,0.13439005613327026},
				{-0.08283790946006775,-0.030311357229948044,-0.012540705502033234,-0.0989987850189209,0.08180652558803558},
				{-0.0019094317685812712,0.025435570627450943,0.005913037806749344,-0.07340627908706665,-0.013889512978494167},
				{-0.08663352578878403,-0.12465081363916397,-0.05068046227097511,0.048320770263671875,0.0754617229104042},
				{0.07842962443828583,0.008301835507154465,0.09323502331972122,0.035050857812166214,-0.045761339366436005}
			},
			{
				{-0.0484570749104023,0.014208491891622543,-0.03968300670385361,-0.11351659148931503,0.08619239926338196},
				{-0.1838526427745819,0.03345445916056633,-0.17578302323818207,-0.0012926110066473484,0.13236144185066223},
				{0.0042546940967440605,-0.21197888255119324,0.07753508538007736,0.004714596085250378,0.030843351036310196},
				{0.09722372144460678,-0.10768970847129822,-0.04794766381382942,0.05971771478652954,-0.015334284864366055},
				{-0.026521334424614906,-0.056631751358509064,-0.005768212955445051,-0.060115113854408264,-0.12659277021884918}
			},
			{
				{0.059726323932409286,0.017126046121120453,-0.133496955037117,-0.11369149386882782,-0.02916531078517437},
				{-0.07177744805812836,-0.008116648532450199,-0.01060260459780693,-0.1333344429731369,-0.050067197531461716},
				{-0.07066875696182251,-0.02692750096321106,-0.0012656946200877428,0.15370239317417145,-0.09999418258666992},
				{0.001967306714504957,0.11950553208589554,0.055897098034620285,0.10026835650205612,0.0813293382525444},
				{-0.026461657136678696,0.05022325739264488,0.011683928780257702,0.014834742061793804,-0.13960978388786316}
			},
			{
				{0.059832263737916946,-0.019199520349502563,-0.036829669028520584,0.1335904747247696,-0.0015238694613799453},
				{-0.029170537367463112,0.014147446490824223,0.02325792983174324,-0.03898293524980545,0.06998567283153534},
				{-0.18849879503250122,0.07339673489332199,0.06065957620739937,0.03299545496702194,-0.028678283095359802},
				{-0.17963281273841858,0.019332507625222206,-0.14337565004825592,-0.1575155109167099,-0.16375607252120972},
				{-0.1476777195930481,-0.0034699125681072474,-0.005272441077977419,-0.08248358964920044,0.13304011523723602}
			},
			{
				{0.10862857848405838,0.09685417264699936,0.031113091856241226,-0.11817923933267593,0.09539604932069778},
				{0.08350210636854172,0.191450297832489,-0.04315071552991867,-0.031037943437695503,-0.037298113107681274},
				{0.017012864351272583,0.05659147724509239,0.12035749852657318,-0.03191313147544861,0.1317051202058792},
				{-0.08946461230516434,-0.08747708052396774,0.016937514767050743,0.05403170734643936,0.02354934625327587},
				{0.03987807780504227,-0.12998756766319275,-0.027926791459321976,-0.04275036230683327,0.0820537880063057}
			},
			{
				{-0.00038865720853209496,0.07916880398988724,0.04136702045798302,-0.0029863030649721622,0.13574251532554626},
				{0.002272622426971793,0.03974740579724312,0.02694130130112171,-0.047170791774988174,-0.003186773741617799},
				{-0.09494787454605103,-0.1418813318014145,-0.028092246502637863,-0.2375955432653427,0.07511885464191437},
				{-0.05051770433783531,-0.12157565355300903,0.1455240398645401,0.0637139230966568,0.13199301064014435},
				{0.00795361865311861,-0.011957109905779362,0.0395515002310276,-0.05057849735021591,-0.09433826804161072}
			},
			{
				{0.08997839689254761,0.12794119119644165,0.011019017547369003,-0.03987366706132889,-0.11789749562740326},
				{-0.19084271788597107,0.09396528452634811,-0.14849525690078735,-0.1061646044254303,-0.14083807170391083},
				{-0.029201041907072067,-0.03354102745652199,-0.0042370958253741264,-0.09163639694452286,-0.17052236199378967},
				{0.03808261826634407,0.024652471765875816,0.014148222282528877,-0.10742619633674622,-0.0019744527526199818},
				{-0.05669565126299858,0.13757407665252686,0.04407573863863945,-0.06990201771259308,0.038247451186180115}
			},
			{
				{-0.06892966479063034,-0.1147090271115303,-0.039510130882263184,-0.026567421853542328,0.050495363771915436},
				{-0.10796785354614258,-0.03146912157535553,-0.18197450041770935,-0.025952523574233055,0.018780406564474106},
				{0.03035098686814308,0.14710693061351776,-0.03696660324931145,-0.07962609827518463,0.14583240449428558},
				{-0.16199885308742523,-0.05928884074091911,0.005889678839594126,-0.15643344819545746,-0.22739388048648834},
				{-0.0970287173986435,-0.008814114145934582,-0.03222358599305153,-0.01253062766045332,-0.08812925219535828}
			},
			{
				{-0.17851954698562622,-0.04418136551976204,0.03658881410956383,-0.10667914897203445,0.050675101578235626},
				{0.019188877195119858,-0.04112148657441139,-0.13724344968795776,0.12987931072711945,-0.1499297171831131},
				{-0.12149069458246231,-0.06992428004741669,-0.09807678312063217,-0.08265703916549683,0.021590566262602806},
				{-0.021117011085152626,-0.1463882178068161,-0.16262805461883545,-0.09835086762905121,-0.0614631287753582},
				{-0.12531131505966187,-0.0630309134721756,0.049356166273355484,-0.18820178508758545,-0.10738619416952133}
			},
			{
				{0.003424767404794693,-0.013843640685081482,0.09481967985630035,0.029792193323373795,-0.10096796602010727},
				{-0.1015087366104126,-0.19045263528823853,0.10015228390693665,-0.009920043870806694,-0.09499328583478928},
				{-0.06687052547931671,-0.0940278172492981,0.1744174361228943,-0.1040320098400116,-0.04361576586961746},
				{-0.09584696590900421,-0.204603374004364,0.15049733221530914,0.15874263644218445,-0.06118302792310715},
				{-0.050392817705869675,0.02649003639817238,-0.050218597054481506,-0.09718778729438782,-0.009874559938907623}
			},
			{
				{-0.046732958406209946,0.18086892366409302,0.10144440084695816,-0.17773154377937317,-0.10622428357601166},
				{-0.04996541142463684,0.14313526451587677,0.11918538063764572,-0.1219651997089386,0.011580945923924446},
				{-0.10555633902549744,0.01948746107518673,-0.10546963661909103,-0.05217244103550911,0.02469269372522831},
				{-0.0923517569899559,0.10201200097799301,0.013014273717999458,-0.21935255825519562,0.014940149150788784},
				{0.0692354142665863,-0.05158381536602974,-0.06775949895381927,-0.11356044560670853,-0.04429316148161888}
			},
			{
				{-0.01947416551411152,0.11289320886135101,0.07768657803535461,0.012842020951211452,-0.01556079275906086},
				{-0.16745136678218842,0.037643324583768845,-0.04860452562570572,0.1431814432144165,0.056867584586143494},
				{-0.053343649953603745,0.029916075989603996,-0.01825164444744587,-0.07250211387872696,0.026836330071091652},
				{-0.01314645167440176,0.1397664099931717,-0.057463183999061584,0.07783076912164688,-0.13500851392745972},
				{-0.03692540526390076,0.16034840047359467,0.08212580531835556,0.11632461100816727,0.04014114663004875}
			},
			{
				{-0.016433820128440857,0.048886291682720184,-0.056566979736089706,-0.07692168653011322,-0.08828721940517426},
				{-0.0974687859416008,-0.14431944489479065,-0.0399833545088768,0.05248666927218437,-0.014883032068610191},
				{0.0833902508020401,-0.030183913186192513,0.0824945941567421,0.008158847689628601,0.06824976205825806},
				{0.0739053264260292,0.00903536006808281,-0.08030620962381363,0.03211328014731407,0.062426723539829254},
				{0.026841366663575172,-0.0679740160703659,-0.07470446825027466,-0.05213009566068649,-0.07343683391809464}
			},
			{
				{-0.15005400776863098,0.06642088294029236,0.016246208921074867,-0.07455083727836609,-0.11187302321195602},
				{0.043635014444589615,-0.035659369081258774,0.05771302431821823,0.120184987783432,-0.10167905688285828},
				{-0.1967722624540329,-0.04679262638092041,-0.0332295298576355,0.038569770753383636,0.09482633322477341},
				{0.05960690602660179,-0.08565200865268707,-0.19058522582054138,0.005526535212993622,-0.10845547914505005},
				{-0.09481531381607056,0.008476718328893185,0.09999571740627289,-0.16598699986934662,-0.03671593591570854}
			},
			{
				{-0.10765407234430313,-0.10545804351568222,0.1668279767036438,0.02724234014749527,-0.028332119807600975},
				{0.009707320481538773,-0.10037408024072647,-0.038380950689315796,0.17517271637916565,0.0815744623541832},
				{-0.011768067255616188,0.007348927669227123,-0.07624219357967377,0.02683888003230095,-0.06981127709150314},
				{-0.15601930022239685,0.06897560507059097,0.07129143923521042,0.017052404582500458,0.05895337462425232},
				{-0.001057998975738883,0.06071415916085243,0.06123574450612068,0.056426938623189926,-0.14593738317489624}
			},
			{
				{-0.08448828011751175,0.033156074583530426,-0.12825176119804382,0.12278026342391968,0.0009208042756654322},
				{-0.05028775706887245,-0.03230700269341469,0.008199536241590977,-0.0062821367755532265,-0.1252504140138626},
				{0.01177731528878212,-0.20257827639579773,-0.14951109886169434,-0.13939125835895538,0.10065925121307373},
				{0.0634007453918457,-0.06905670464038849,0.010021748021245003,0.008875027298927307,0.0022607063874602318},
				{-0.02896145172417164,-0.11321088671684265,-0.09194990992546082,-0.08424601703882217,-0.06981401145458221}
			},
			{
				{-0.1114015281200409,-0.02257756143808365,-0.06484173983335495,-0.06114860251545906,-0.01493455283343792},
				{-0.09611780941486359,-0.011295952834188938,-0.03365304321050644,-0.06238877400755882,-0.0073000602424144745},
				{-0.05241764336824417,-0.10864946991205215,-0.1236419528722763,-0.11959946900606155,-0.17764528095722198},
				{-0.09997086226940155,-0.19278527796268463,-0.0790008082985878,-0.1975487321615219,0.03643402084708214},
				{0.08358480781316757,0.028071796521544456,-0.0037519442848861217,-0.060856953263282776,-0.13395945727825165}
			},
			{
				{-0.029519446194171906,0.01067977026104927,-0.018943998962640762,-0.1322070062160492,-0.11852379888296127},
				{0.08644258975982666,-0.11383705586194992,0.07624431699514389,0.11042491346597672,-0.07357370108366013},
				{-0.1648780256509781,-0.09058842808008194,-0.01712537556886673,-0.01486844290047884,0.14145584404468536},
				{-0.05602022632956505,-0.10229760408401489,-0.08046665042638779,0.07034902274608612,-0.014594392850995064},
				{-0.08512414991855621,0.011024398729205132,-0.15693561732769012,0.09002535790205002,0.04833236336708069}
			},
			{
				{0.09176002442836761,0.06820466369390488,-0.0449037067592144,-0.11769433319568634,-0.010917114093899727},
				{0.05419865995645523,0.05183279886841774,0.06297670304775238,-0.07222629338502884,-0.06608128547668457},
				{0.0059501295909285545,-0.03091525472700596,-0.10687540471553802,-0.03256157413125038,-0.11180955916643143},
				{-0.002806831616908312,0.15595018863677979,0.03884021192789078,-0.06777477264404297,0.10349134355783463},
				{-0.02356988750398159,-0.15863727033138275,-0.0028943312354385853,0.08830468356609344,-0.01403898373246193}
			},
			{
				{-0.017076335847377777,-0.0848253071308136,0.028425872325897217,-0.041441820561885834,-0.127274751663208},
				{0.10592257231473923,-0.0004154335765633732,-0.11319048702716827,-0.08408540487289429,-0.0699618011713028},
				{-0.007891777902841568,0.14712512493133545,0.03059525601565838,-0.028971340507268906,-0.054687704890966415},
				{-0.027950376272201538,0.00027877907268702984,0.08113407343626022,-0.0738510712981224,0.08489635586738586},
				{-0.030928805470466614,-0.17336370050907135,-0.10050292313098907,-0.03482547774910927,0.1443289965391159}
			},
			{
				{0.019734632223844528,0.07675716280937195,0.19542765617370605,0.010186132043600082,-0.06145557761192322},
				{-0.06638191640377045,0.05474988743662834,-0.13395000994205475,-0.13280658423900604,-0.056879717856645584},
				{0.02020440250635147,-0.07017666101455688,-0.12382607161998749,-0.0003124640788882971,0.015482787042856216},
				{-0.08556202799081802,0.05013192445039749,-0.043758995831012726,-0.09177855402231216,-0.09245409816503525},
				{-0.03961912542581558,-0.19551688432693481,-0.008936673402786255,0.18264879286289215,-0.1558956801891327}
			},
			{
				{0.04762129485607147,-0.09259982407093048,0.02099842205643654,-0.02333245612680912,-0.21033386886119843},
				{-0.06959304213523865,-0.15978996455669403,0.16458387672901154,0.07054869085550308,-0.07104974240064621},
				{-0.08975391834974289,0.019510747864842415,-0.008579014800488949,0.0029911305755376816,0.1318642646074295},
				{-0.04494217038154602,-0.04493790864944458,-0.07907619327306747,-0.023015780374407768,0.10100647062063217},
				{0.030145063996315002,-0.009128949604928493,-0.06475938111543655,-0.12197477370500565,0.056561265140771866}
			},
			{
				{-0.10168202221393585,0.1362382471561432,0.03548996150493622,0.0766696184873581,0.024002980440855026},
				{-0.08676488697528839,0.008241569623351097,0.011770937591791153,0.002571945311501622,0.12390492111444473},
				{0.10592205822467804,-0.025059444829821587,-0.07090815901756287,0.022919319570064545,0.068582683801651},
				{-0.0395340658724308,0.042156655341386795,-0.09650343656539917,-0.04716235399246216,-0.056553155183792114},
				{-0.11738351732492447,-0.14032483100891113,-0.07704019546508789,0.11010489612817764,-0.04792212322354317}
			},
			{
				{0.13183647394180298,0.11589328199625015,0.052145715802907944,-0.06546475738286972,0.008174067363142967},
				{-0.0012143058702349663,-0.2173612117767334,-0.020365023985505104,0.1293446570634842,0.025075770914554596},
				{0.029936321079730988,-0.009929876774549484,-0.04833785444498062,-0.04464413598179817,-0.1037515327334404},
				{0.11675246804952621,0.03512302786111832,-0.03015836514532566,-0.11963125318288803,0.11764180660247803},
				{-0.029024604707956314,-0.01862850785255432,-0.06816445291042328,-0.015636706724762917,-0.043020088225603104}
			},
			{
				{-0.1486157327890396,-0.17281988263130188,-0.19780465960502625,-0.03270036727190018,-0.16814367473125458},
				{-0.06539512425661087,-0.07036354392766953,-0.04004340618848801,0.003366055665537715,-0.09108894318342209},
				{0.04539061710238457,-0.1164369136095047,0.0747847631573677,-0.056760095059871674,-0.150065079331398},
				{-0.12126852571964264,0.11963266134262085,-0.0040246970020234585,-0.013528198935091496,-0.07571282237768173},
				{-0.12713384628295898,-0.05333689972758293,-0.0868113711476326,-0.07070411741733551,-0.07215628027915955}
			},
			{
				{-0.05730900168418884,-0.010129178874194622,0.05482308566570282,-0.029837626963853836,0.015429593622684479},
				{-0.009014208801090717,-0.0980936735868454,-0.006115978118032217,-0.08834504336118698,0.03556199371814728},
				{0.0643523633480072,-0.1478709578514099,-0.04631926491856575,-0.11029927432537079,-0.07149553298950195},
				{-0.0632309690117836,-0.06826011091470718,-0.03345325216650963,0.022829586640000343,-0.03930645436048508},
				{0.07669864594936371,0.0036220804322510958,0.06205897405743599,-0.08334099501371384,-0.14850303530693054}
			},
			{
				{0.053354308009147644,-0.009526066482067108,-0.15761910378932953,0.07769540697336197,-0.06010570749640465},
				{0.014928799122571945,0.10484786331653595,-0.20480385422706604,-0.026280337944626808,-0.238333061337471},
				{0.05382940545678139,-0.01831803470849991,-0.010592599399387836,0.09221609681844711,0.05179084464907646},
				{-0.034889183938503265,0.01815836876630783,-0.13912080228328705,0.04242114722728729,-0.025926746428012848},
				{0.08094362169504166,0.10475534945726395,0.08377271890640259,0.059262964874506,-0.1818656623363495}
			},
			{
				{-0.11201533675193787,-0.045337095856666565,0.005397244822233915,-0.0759221613407135,-0.009927086532115936},
				{-0.09025462716817856,0.05277823656797409,-0.2320302277803421,-0.15522515773773193,-0.08291623741388321},
				{0.04543226957321167,-0.01923762634396553,0.09629110246896744,-0.04574107378721237,0.12505361437797546},
				{0.013097625225782394,-0.08049438893795013,0.01742510311305523,-0.08716799318790436,-0.016760537400841713},
				{0.00851745717227459,-0.026546858251094818,-0.04437103495001793,-0.10328821837902069,-0.05279013514518738}
			},
			{
				{0.005090946797281504,0.07755231857299805,-0.11652174592018127,-0.10970839858055115,-0.030525024980306625},
				{-0.1286005973815918,0.12398161739110947,-0.008452867157757282,-0.14224347472190857,-0.10914283245801926},
				{0.04787910729646683,0.17605794966220856,-0.020510466769337654,-0.03182337060570717,0.0860917791724205},
				{0.02707941271364689,-0.08472520112991333,0.10465816408395767,0.0037139588966965675,-0.04388921707868576},
				{-0.06385695189237595,-0.01636413298547268,-0.04404882714152336,0.02925299108028412,-0.2065144032239914}
			},
			{
				{0.08924665302038193,-0.07351857423782349,0.07166649401187897,-0.06285437196493149,0.10355968028306961},
				{-0.07210532575845718,-0.1378648728132248,-0.033585283905267715,-0.06898183375597,-0.04877256229519844},
				{-0.1227647140622139,-0.13017615675926208,0.08636830002069473,0.15165281295776367,-0.11889739334583282},
				{-0.13500094413757324,-0.03167029470205307,-0.15175087749958038,-0.13416533172130585,-0.08882542699575424},
				{0.008139762096107006,-0.045733172446489334,-0.012756000272929668,-0.1379006803035736,0.038985177874565125}
			},
			{
				{2.9625671231769957e-06,-0.08357734978199005,-0.023427532985806465,-0.09873142838478088,-0.05776955559849739},
				{0.07310029119253159,-0.05778757482767105,-0.07388130575418472,0.05572732910513878,0.05539871007204056},
				{0.0417647548019886,-0.19767235219478607,-0.17467378079891205,0.040598828345537186,-0.013480660505592823},
				{0.06815142184495926,-0.10110551863908768,-0.0322955921292305,-0.18213510513305664,-0.1164010614156723},
				{-0.06664067506790161,-0.056586991995573044,-0.02959093078970909,0.08203957229852676,-0.023789823055267334}
			},
			{
				{-0.0199462678283453,0.09845837205648422,-0.08925851434469223,0.002361186547204852,0.05821610987186432},
				{0.023674026131629944,0.07076478004455566,0.11721576005220413,-0.06423482298851013,-0.05262807756662369},
				{-0.040664128959178925,-0.10802005976438522,0.039398785680532455,0.038821231573820114,-0.09530916064977646},
				{-0.1368250846862793,-0.14145241677761078,-0.03862158581614494,0.03892816975712776,0.08002641797065735},
				{-0.022604724392294884,0.058764733374118805,-0.20973043143749237,-0.1076895073056221,-0.060016099363565445}
			},
			{
				{-0.12122584879398346,0.10930079221725464,-0.15240100026130676,-0.08543965220451355,0.15273718535900116},
				{0.1182897686958313,0.003947275225073099,-0.08995585888624191,0.01425587572157383,-0.034333065152168274},
				{0.052820559591054916,-0.05720540136098862,-0.018297720700502396,-0.07952897995710373,0.11023827642202377},
				{0.038735657930374146,-0.18082723021507263,-0.035990774631500244,0.18819618225097656,0.13776788115501404},
				{0.004461265169084072,-0.11027746647596359,0.04192192852497101,-0.041986819356679916,0.060965947806835175}
			},
			{
				{0.06705869734287262,7.404867938021198e-05,-0.03576486557722092,0.07937521487474442,-0.11309847235679626},
				{0.06990815699100494,-0.02513643354177475,0.0663534626364708,0.016572769731283188,-0.0985310897231102},
				{0.08760201930999756,-0.03999108076095581,-0.14408476650714874,0.1590779572725296,-0.16122333705425262},
				{-0.06552509218454361,-0.026062892749905586,0.08593908697366714,-0.048557769507169724,-0.01750343292951584},
				{0.06389323621988297,-0.11740608513355255,0.00792713277041912,-0.09361504018306732,-0.05883309990167618}
			},
			{
				{0.11104743182659149,-0.02993442304432392,-0.15139316022396088,-0.03861503675580025,0.01596076227724552},
				{-0.07533136010169983,-0.024793025106191635,-0.128292515873909,-0.007428884040564299,-0.040462516248226166},
				{0.003138500265777111,-0.055530816316604614,-0.06844451278448105,-0.08440021425485611,0.08816222846508026},
				{-0.161935493350029,0.078130342066288,-0.1749730408191681,-0.08884820342063904,0.018348265439271927},
				{-0.03386157751083374,0.08758639544248581,-0.08433099091053009,-0.10084313154220581,0.142075777053833}
			},
			{
				{-0.016331281512975693,-0.11609580367803574,0.09836699068546295,-0.2105611115694046,0.00129003229085356},
				{-0.014781861566007137,-0.006221470423042774,0.13141538202762604,-0.05735522881150246,-0.09060554951429367},
				{-0.07662535458803177,0.009387301281094551,0.04451273754239082,0.06453306972980499,-0.1804731786251068},
				{0.005020881071686745,-0.14030733704566956,-0.015247677452862263,0.13304944336414337,0.03788618743419647},
				{0.12779217958450317,0.0687239021062851,-0.003307780483737588,-0.06819171458482742,0.0504055917263031}
			},
			{
				{-0.23199808597564697,-0.025758633390069008,-0.14290355145931244,0.028359832242131233,-0.15201957523822784},
				{-0.04064088314771652,0.08809718489646912,0.11254305392503738,-0.08755093812942505,-0.16192114353179932},
				{-0.1411258429288864,0.005327412858605385,0.1214613988995552,-0.05904689058661461,-0.0904642790555954},
				{-0.12642019987106323,0.06349040567874908,-0.06649921089410782,-0.01193840429186821,0.10662490874528885},
				{0.15539467334747314,-0.14231492578983307,0.029652567580342293,0.05485518276691437,-0.013691513799130917}
			},
			{
				{0.07472279667854309,0.05321250483393669,0.16541755199432373,0.09668050706386566,-0.17542549967765808},
				{-0.1421917825937271,-0.16688290238380432,-0.05045375972986221,-0.04378839582204819,0.004252982791513205},
				{-0.20421190559864044,0.00222511263564229,-0.19127453863620758,0.053448889404535294,0.13491371273994446},
				{0.09342730045318604,-0.04590190201997757,-0.0783718153834343,-0.24700228869915009,-0.029623715206980705},
				{0.0022086419630795717,0.03712376952171326,0.1736733466386795,0.08169809728860855,-0.08703557401895523}
			},
			{
				{-0.17430433630943298,0.11716035008430481,0.024561379104852676,-0.0605912059545517,-0.06829075515270233},
				{-0.014924092218279839,0.02454446442425251,-0.026251170784235,0.1592070609331131,0.10445316880941391},
				{0.00785531010478735,0.022197170183062553,-0.030260398983955383,-0.06346740573644638,-0.006696187425404787},
				{0.1051037460565567,0.10112427175045013,-0.10895819962024689,-0.12733705341815948,-0.019753986969590187},
				{0.02047950029373169,-0.12276331335306168,0.0652463361620903,-0.02246636524796486,0.06816089898347855}
			},
			{
				{0.009310701861977577,-0.0064565869979560375,0.09797883033752441,-0.04046657681465149,-0.10120823979377747},
				{-0.16854625940322876,0.02783786691725254,-0.022106653079390526,0.021136805415153503,-0.12063199281692505},
				{-0.18549686670303345,-0.07521592080593109,0.057137005031108856,-0.10703740268945694,-0.0902155190706253},
				{-0.042598724365234375,0.13105830550193787,0.04662097617983818,0.07955972850322723,0.013339687138795853},
				{0.03019748628139496,0.08624713867902756,0.08085957169532776,0.06983565539121628,-0.15979833900928497}
			},
			{
				{-0.05359211564064026,0.02105245739221573,-0.05674678087234497,-0.20125408470630646,-0.06290280073881149},
				{-0.08887626230716705,-0.06402142345905304,0.03457271307706833,0.015652043744921684,-0.030399736016988754},
				{-0.06553371995687485,-0.13386380672454834,0.038528408855199814,0.0559353344142437,0.0279201939702034},
				{-0.0713576003909111,-0.011189584620296955,-0.06011326611042023,-0.16958245635032654,0.09012444317340851},
				{-0.08025047928094864,0.07267089933156967,-0.043504681438207626,-0.14300094544887543,-0.0044954395852983}
			},
			{
				{0.1308671534061432,-0.08176438510417938,-0.0011178867425769567,-0.035228144377470016,0.1058245375752449},
				{0.11876903474330902,0.08638936281204224,0.06013331934809685,0.036084067076444626,-0.13209129869937897},
				{-0.13920247554779053,-0.05978180840611458,0.041997216641902924,0.15766434371471405,0.015501356683671474},
				{-0.03991038724780083,0.012210371904075146,-0.02738885022699833,-0.025528574362397194,0.18328244984149933},
				{0.09026255458593369,-0.13491752743721008,0.05326054245233536,-0.054805926978588104,0.06707144528627396}
			},
			{
				{-0.04321843385696411,-0.08869626373052597,-0.14721781015396118,-0.018497664481401443,-0.08175522834062576},
				{-0.18400968611240387,-0.08909028023481369,-0.1105634942650795,-0.02134140208363533,-0.15855076909065247},
				{0.08508259057998657,-0.012309438548982143,0.0204521045088768,-0.1710488200187683,0.0661977156996727},
				{0.039859604090452194,-0.04908797889947891,0.009754298254847527,0.07002545148134232,0.008523102849721909},
				{-0.015243325382471085,-0.12150657922029495,-0.04953368380665779,0.09884244203567505,-0.055891912430524826}
			},
			{
				{0.021980110555887222,-0.1221439465880394,-0.06627196818590164,0.054212167859077454,0.05092998221516609},
				{0.04430301487445831,-0.02550547383725643,0.08762049674987793,0.11034790426492691,0.11995496600866318},
				{0.07966773957014084,-0.07069986313581467,-0.05620991438627243,-0.14768899977207184,0.04625483974814415},
				{0.03254970908164978,-0.0824580118060112,-0.05580246448516846,-0.07456661015748978,-0.200492724776268},
				{0.04319049417972565,-0.028440866619348526,0.0261782705783844,0.08351236581802368,-0.01350365113466978}
			},
			{
				{-0.11645311862230301,-0.0628187507390976,0.07036425173282623,0.0017005461268126965,-0.07765712589025497},
				{-0.050607871264219284,-0.045859772711992264,-0.010035923682153225,0.0018013317603617907,-0.13560719788074493},
				{0.05959206819534302,-0.10221248865127563,0.04292837530374527,0.02519441395998001,0.07763165235519409},
				{0.019851073622703552,0.14707745611667633,0.0296240895986557,-0.12030397355556488,0.01054221112281084},
				{0.025707043707370758,-0.05700339749455452,0.10456016659736633,-0.03187901899218559,0.00422950042411685}
			},
			{
				{-0.145342618227005,0.15834221243858337,0.0010947025148198009,0.01876951940357685,-0.14914408326148987},
				{0.06424301117658615,-0.12310954928398132,-0.09705529361963272,0.1495629996061325,-0.08681685477495193},
				{0.2067732959985733,-0.14490918815135956,0.049339793622493744,0.08752754330635071,-0.012802064418792725},
				{0.04726269468665123,0.08279380947351456,0.044469788670539856,-0.03655698895454407,-0.04407200589776039},
				{-0.09269122779369354,0.12282232195138931,0.0655723512172699,-0.05532962828874588,-0.056412503123283386}
			},
			{
				{-0.11249976605176926,-0.04728126525878906,-0.03263983875513077,0.1030951514840126,-0.15827105939388275},
				{-0.18257014453411102,-0.2046029269695282,-0.16471125185489655,0.14307846128940582,-0.05344769358634949},
				{0.06362635642290115,-0.22451476752758026,0.0969005897641182,-0.0677437037229538,-0.0226125605404377},
				{0.07693877071142197,0.05365265533328056,0.013973508961498737,-0.10752014815807343,0.047937121242284775},
				{0.13822020590305328,-0.09970700740814209,-0.1729304939508438,-0.09336624294519424,-0.015613551251590252}
			},
			{
				{0.11183402687311172,0.011059029959142208,-0.12716761231422424,-0.1339787244796753,-0.18145348131656647},
				{0.03389103338122368,0.05881740525364876,-0.029700392857193947,-0.009798905812203884,-0.0699876919388771},
				{-0.011325735598802567,-0.02049975097179413,-0.03881148248910904,0.08209563046693802,-0.047596558928489685},
				{-0.13578033447265625,0.010011598467826843,-0.03575840964913368,0.012173088267445564,0.07958946377038956},
				{-0.08792790025472641,-0.11956214159727097,0.1300298571586609,0.03304528445005417,-0.07252282649278641}
			},
			{
				{0.011615011841058731,-0.035471197217702866,-0.07182425260543823,-0.04400503262877464,-0.1795494258403778},
				{0.008807258680462837,0.01462008710950613,-0.1304420679807663,0.04064071923494339,0.0034735347144305706},
				{-0.18732400238513947,0.07259929180145264,0.060735367238521576,0.12886828184127808,-0.10089079290628433},
				{0.0733221173286438,-0.08593922853469849,-0.09298338741064072,0.06387260556221008,-0.0007468522526323795},
				{0.1887248009443283,0.14628538489341736,-0.06336503475904465,-0.013621191494166851,0.17426706850528717}
			},
			{
				{-0.09771271049976349,-0.09076094627380371,-0.08407227694988251,-0.050582654774188995,-0.03378177061676979},
				{0.05872039869427681,-0.05562588945031166,0.04164721816778183,-0.13021281361579895,0.05808018893003464},
				{-0.1264188140630722,0.0511585958302021,-0.020413927733898163,-0.0481463186442852,0.029956452548503876},
				{0.1209181398153305,0.022070888429880142,0.13779376447200775,-0.047349780797958374,-0.05664917454123497},
				{-0.2079201191663742,-0.020507916808128357,-0.03219269588589668,0.07523173838853836,-0.13002081215381622}
			},
			{
				{0.0502508208155632,0.14850477874279022,0.13184426724910736,0.14371845126152039,0.055936187505722046},
				{-0.0022438743617385626,-0.09633727371692657,0.018181923776865005,-0.018746327608823776,-0.20192427933216095},
				{0.011968574486672878,0.07996553182601929,0.08347862958908081,-0.12537796795368195,-0.11743417382240295},
				{0.015124003402888775,0.03440340608358383,-0.011475648730993271,0.11068890988826752,-0.18311290442943573},
				{0.12626461684703827,-0.1037568747997284,-0.010417602024972439,0.03375726938247681,0.009655020199716091}
			},
			{
				{-0.048403285443782806,0.026237184181809425,-0.1494186371564865,-0.029270878061652184,0.04230964556336403},
				{-0.022794373333454132,-0.05832580849528313,-0.0131255267187953,-0.06337779760360718,-0.04084860533475876},
				{0.007885385304689407,0.03867138549685478,-0.027904540300369263,-0.025671008974313736,-0.01382080465555191},
				{0.09536070376634598,-0.013262010179460049,-0.1606590300798416,-0.0022629823070019484,0.03946959227323532},
				{0.0817844569683075,0.07186677306890488,0.009870395064353943,-0.031041264533996582,-0.03514162823557854}
			},
			{
				{-0.09670720994472504,-0.13692723214626312,-0.06789606809616089,0.0744081363081932,-0.01703578233718872},
				{0.06345217674970627,-0.2030518352985382,0.11365486681461334,0.07298772037029266,-0.01744263246655464},
				{-0.0065387641079723835,-0.07933309674263,-0.1147300973534584,0.013639002107083797,-0.09091269969940186},
				{-0.002086768625304103,0.050528500229120255,0.023675834760069847,-0.024406610056757927,-0.153109610080719},
				{0.14768779277801514,-0.12368810176849365,0.04820152372121811,0.14918449521064758,0.06978986412286758}
			},
			{
				{0.1180264875292778,0.15008306503295898,0.12573513388633728,0.024977993220090866,-0.11068582534790039},
				{0.05965014547109604,0.015405792742967606,-0.0027032329235225916,-0.034070853143930435,-0.12046889215707779},
				{-0.12010464072227478,0.041386064141988754,-0.08008938282728195,0.022685885429382324,-0.1796073019504547},
				{-0.059945426881313324,0.033602599054574966,-0.10246254503726959,-0.12123294919729233,0.15573620796203613},
				{-0.019107181578874588,0.002376368036493659,0.008837939240038395,0.0764848068356514,-0.03353533148765564}
			},
			{
				{-0.1490057110786438,0.020192068070173264,-0.08222198486328125,0.05194292217493057,0.15386559069156647},
				{-0.14834177494049072,-0.13218571245670319,0.0767548605799675,0.02940370701253414,-0.04139858856797218},
				{-0.06980735808610916,0.047685250639915466,0.03472888469696045,-0.08370944857597351,-0.038657017052173615},
				{0.007056646514683962,-0.08223887532949448,0.05231337994337082,-0.07526212185621262,-0.03360384702682495},
				{0.15117137134075165,-0.2135833203792572,-0.0547877661883831,0.07693877816200256,-0.1289464235305786}
			},
			{
				{0.054299648851156235,-0.13928093016147614,0.0036221896298229694,0.07543093711137772,0.04888641834259033},
				{-0.01370728574693203,-0.1202973946928978,-0.0564451701939106,0.053444597870111465,0.04840727150440216},
				{0.022824864834547043,-0.14728830754756927,0.04652554914355278,0.08984299004077911,-0.07885215431451797},
				{0.0385359451174736,0.009021268226206303,0.08285682648420334,-0.17101667821407318,-0.08533729612827301},
				{-0.1473282128572464,-0.14994965493679047,0.02387748286128044,0.037083182483911514,0.034277379512786865}
			},
			{
				{-0.09556764364242554,0.16057711839675903,-0.06273049116134644,0.05658229440450668,-0.0629422515630722},
				{0.1889682412147522,0.03932077810168266,-0.11387350410223007,0.05934026837348938,0.059388965368270874},
				{-0.020907670259475708,0.09059585630893707,-0.038039226084947586,0.04291892051696777,0.005391342099756002},
				{-0.0440414659678936,0.08025523275136948,-0.19473035633563995,-0.018156863749027252,0.13866207003593445},
				{0.04580637812614441,-0.05167344585061073,-0.14481554925441742,0.1271023452281952,-0.034781187772750854}
			},
			{
				{-0.15223652124404907,-0.04166469722986221,-0.014145187102258205,0.006554936990141869,-0.007493913639336824},
				{0.13778062164783478,-0.03003452718257904,-0.15754087269306183,-0.1351010650396347,0.09724429249763489},
				{0.02687486819922924,0.012024838477373123,-0.14128568768501282,-0.04828265309333801,-0.1156158521771431},
				{-9.117848821915686e-05,-0.03000979870557785,0.08558516949415207,0.026429828256368637,0.0393112413585186},
				{0.0697827860713005,-0.020188279449939728,-0.034149181097745895,-0.15099473297595978,-0.12477218359708786}
			},
			{
				{0.13521629571914673,0.085235096514225,-0.07752756774425507,0.019510775804519653,0.14360091090202332},
				{-0.0542893186211586,0.08868933469057083,-0.05819123610854149,0.0043252077884972095,-0.005596519447863102},
				{0.03796980902552605,0.052718423306941986,0.05222824588418007,0.047847699373960495,-0.01969972252845764},
				{0.07123207300901413,-0.0962565690279007,0.043504610657691956,0.04527866467833519,-0.12469791620969772},
				{-0.040950700640678406,0.09076112508773804,-0.0015159652102738619,-0.11664776504039764,-0.08082817494869232}
			},
			{
				{-0.16492420434951782,0.015673303976655006,-0.08793242275714874,-0.05534793436527252,-0.029555238783359528},
				{-0.1038953885436058,0.0037960903719067574,-0.005658052396029234,-0.04600197821855545,-0.062089838087558746},
				{0.004786219913512468,-0.15581835806369781,0.07454131543636322,0.08100832253694534,-0.015190641395747662},
				{-0.013398673385381699,-0.05720539763569832,-0.10527366399765015,-0.04107290878891945,-0.1234046071767807},
				{-0.005781065206974745,0.11387013643980026,0.027281397953629494,-0.10161208361387253,-0.1811845749616623}
			},
			{
				{0.09785646200180054,-0.17314651608467102,-0.10710007697343826,0.04684075340628624,-0.05677572265267372},
				{0.015563646331429482,-0.12715712189674377,-0.03737082704901695,0.13640686869621277,0.03868184983730316},
				{-0.0776493027806282,0.02304070256650448,0.026889266446232796,-0.1954171359539032,-0.07199130952358246},
				{-0.019666431471705437,-0.13552521169185638,-0.01974659040570259,-0.07348226755857468,0.11053813248872757},
				{0.031567834317684174,0.05369501933455467,-0.1250508725643158,0.035542722791433334,-0.003976486623287201}
			},
			{
				{0.18356846272945404,0.03420156240463257,0.046749576926231384,-0.10850322991609573,-0.06731627136468887},
				{-0.1986725777387619,-0.012430893257260323,0.0346207432448864,-0.02652401477098465,0.01683027110993862},
				{0.046891145408153534,0.10283893346786499,-0.02727813459932804,0.01861599087715149,-0.06394299864768982},
				{-0.1449066400527954,-0.06564663350582123,-0.11624111980199814,-0.09309504181146622,0.02176952362060547},
				{-0.051746197044849396,-0.024550339207053185,-0.1838192492723465,0.02887130342423916,0.12140260636806488}
			},
			{
				{-0.04418613761663437,-0.022540701553225517,0.10873045027256012,0.019871031865477562,-0.17539973556995392},
				{0.030516747385263443,0.11080221086740494,0.10397234559059143,-0.06624878197908401,-0.08734768629074097},
				{0.023121239617466927,0.08786545693874359,0.026908298954367638,-0.1800069659948349,0.011652817949652672},
				{-0.04922349005937576,-0.08105742931365967,-0.013020612299442291,-0.21475714445114136,-0.04932970553636551},
				{-0.03319256380200386,-0.181252121925354,-0.12847979366779327,-0.02163832262158394,-0.0949510782957077}
			},
			{
				{-0.02179161086678505,0.014076045714318752,-0.0427253358066082,-0.06526675075292587,0.0316670686006546},
				{0.10230465233325958,0.07542063295841217,-0.0031621698290109634,0.00726979598402977,0.0662083700299263},
				{0.052661169320344925,0.010294812731444836,0.09575314074754715,-0.027060873806476593,-0.03866963088512421},
				{-0.08592146635055542,0.07374300807714462,0.07311587780714035,-0.11643127351999283,-0.11229842156171799},
				{-0.1321592926979065,0.11628055572509766,0.03324209153652191,-0.0664873942732811,-0.197280153632164}
			},
			{
				{0.1701250523328781,0.030660517513751984,0.04466928541660309,-0.07775796204805374,-0.03716958686709404},
				{0.15575328469276428,0.006788255181163549,0.005067659541964531,0.0032061515375971794,-0.1539398580789566},
				{-0.12821315228939056,0.16406114399433136,-0.15550115704536438,0.1315724402666092,-0.04827359318733215},
				{-0.03476550057530403,-0.017030145972967148,-0.006764575373381376,-0.10813473910093307,-0.12271203845739365},
				{-0.12159683555364609,-0.2023579478263855,-0.02514423057436943,0.10169633477926254,-0.15353092551231384}
			},
			{
				{-0.0438796803355217,-0.20573675632476807,0.11344146728515625,-0.09474968165159225,-0.054989736527204514},
				{-0.05072372034192085,-0.19696293771266937,-0.0461873821914196,-0.05603938549757004,-0.06559544056653976},
				{-0.06805682182312012,-0.055555474013090134,0.032430101186037064,0.010582159273326397,0.03682025521993637},
				{0.020058296620845795,-0.035492513328790665,0.010050445795059204,-0.06703606992959976,-0.03753088042140007},
				{0.06733706593513489,0.14458446204662323,-0.17599108815193176,-0.03573259338736534,-0.05439046770334244}
			},
			{
				{-0.09098272025585175,-0.01836153119802475,0.09582512080669403,-0.062095869332551956,-0.18888282775878906},
				{-0.006280857603996992,0.029822256416082382,0.02117692120373249,-0.12772192060947418,-0.08217735588550568},
				{0.14834752678871155,-0.06366509199142456,-0.22144831717014313,-0.071042001247406,0.07787711173295975},
				{0.13324673473834991,0.10287340730428696,0.046155255287885666,-0.027957579120993614,0.18808704614639282},
				{-0.18877696990966797,0.0909222960472107,0.027299953624606133,0.0686332955956459,-0.05522339791059494}
			},
			{
				{0.014648069627583027,-0.05278889462351799,-0.20245146751403809,-0.03478138893842697,0.07646425068378448},
				{0.03783584386110306,-0.08396932482719421,0.023663900792598724,0.005502276588231325,-0.03595004603266716},
				{-0.012940144166350365,0.19660650193691254,0.025497470051050186,0.11739106476306915,0.029947927221655846},
				{-0.05805604159832001,0.19831706583499908,0.0967009961605072,-0.007967265322804451,-0.1937466263771057},
				{-0.044302135705947876,-0.05217747762799263,-0.004528079181909561,-0.0575968436896801,0.05830320343375206}
			},
			{
				{-0.08704588562250137,0.052173905074596405,-0.04579442739486694,0.000982062891125679,0.157992884516716},
				{-0.027276409789919853,0.09757640212774277,-0.023084675893187523,-0.0016985397087410092,0.09015954285860062},
				{-0.10735999792814255,-0.027906011790037155,-0.03175835311412811,-0.023115986958146095,0.05700065195560455},
				{-0.1325134038925171,0.09801735728979111,-0.009787759743630886,-0.045788008719682693,-0.1150253638625145},
				{-0.07622703909873962,0.03095281310379505,-0.1202634871006012,-0.12421657145023346,-0.0018757570069283247}
			},
			{
				{0.05403118580579758,0.07710627466440201,-0.04065414145588875,-0.06837445497512817,-0.08469504863023758},
				{0.0011826817644760013,0.02828787826001644,0.033453211188316345,-0.10870598256587982,-0.07166864722967148},
				{-0.054595887660980225,0.11544845998287201,-0.08679012209177017,-0.058901913464069366,0.10287977010011673},
				{0.09410759061574936,0.03818291053175926,0.030408702790737152,0.01286812499165535,-0.09181000292301178},
				{0.12945912778377533,0.08814209699630737,-0.1802995651960373,0.03632168099284172,-0.060073211789131165}
			},
			{
				{-0.12403415143489838,0.10230070352554321,0.020645899698138237,0.07633554935455322,-0.14958877861499786},
				{-0.03929342329502106,0.08618677407503128,0.09845984727144241,0.06340589374303818,0.05449746549129486},
				{-0.12409594655036926,-0.10325516015291214,0.05197037383913994,-0.041684769093990326,0.11133614182472229},
				{-0.04468020051717758,-0.1700311154127121,-0.09173689782619476,0.06716878712177277,0.09917254745960236},
				{0.03630836308002472,-0.15387552976608276,0.08914311975240707,0.1331181824207306,-0.14110128581523895}
			},
			{
				{-0.09090835601091385,-0.09229074418544769,0.10353917628526688,-0.062236469238996506,0.10222619026899338},
				{-0.14817887544631958,0.0282190702855587,-0.028457220643758774,-0.0032350951805710793,-0.06915885210037231},
				{-0.05658357962965965,-0.034124284982681274,0.03702244162559509,-0.13220982253551483,-0.09731008857488632},
				{0.049119990319013596,0.01716243103146553,-0.003112273756414652,0.014336797408759594,0.024276014417409897},
				{0.007123684510588646,-0.13636791706085205,-0.004661604296416044,-0.01950395479798317,-0.013855439610779285}
			},
			{
				{-0.10361187905073166,-0.1076236143708229,-0.09442335367202759,-0.11556395888328552,-0.09508948773145676},
				{0.11652129143476486,-0.01104788389056921,0.014638351276516914,-0.033683616667985916,-0.11212264746427536},
				{-0.09889081865549088,-0.06906604766845703,0.1045079156756401,0.029778407886624336,-0.08926758915185928},
				{-0.08740027993917465,0.1334349811077118,0.06287102401256561,-0.09282030165195465,0.12116675078868866},
				{0.030319606885313988,0.08914192020893097,-0.03800554201006889,-0.06007346883416176,-0.03906843438744545}
			},
			{
				{-0.01871696673333645,0.1113658919930458,-0.019949499517679214,-0.09046313166618347,-0.001677069696597755},
				{-0.07835448533296585,0.06435536593198776,-0.021685747429728508,-0.005796113517135382,-0.11348599940538406},
				{-0.13437603414058685,-0.07351116836071014,-0.06818335503339767,0.026281921193003654,0.16785895824432373},
				{0.12508435547351837,-0.22543710470199585,0.0809735655784607,-0.040941622108221054,-0.14898499846458435},
				{0.07557792961597443,0.010205626487731934,-0.20089702308177948,0.03904488682746887,0.1541145294904709}
			},
			{
				{-0.10527962446212769,-0.19936348497867584,0.08635161817073822,0.11856984347105026,0.028820345178246498},
				{-0.2215106040239334,-0.1794324666261673,-0.015514030121266842,-0.14115279912948608,0.03285956010222435},
				{0.05479849502444267,0.04200632497668266,-0.06842474639415741,0.042177464812994,-0.0496334470808506},
				{0.11808589845895767,0.001493226969614625,-0.08428962528705597,-0.023790985345840454,0.027619797736406326},
				{-0.06888114660978317,-0.001953398808836937,0.03984924405813217,0.0997084230184555,-0.031767189502716064}
			},
			{
				{0.08706429600715637,0.02182134985923767,0.024652555584907532,-0.018892845138907433,0.04954284802079201},
				{-0.09854190051555634,-0.08376503735780716,-0.10168533772230148,0.07305031269788742,-0.20363642275333405},
				{-0.05495286360383034,0.10323606431484222,-0.06015858054161072,-0.11918289214372635,-0.10886424779891968},
				{-0.12135326862335205,-0.20334377884864807,-0.0712490826845169,-0.050339993089437485,0.12569573521614075},
				{-0.004120116122066975,-0.018474111333489418,-0.016417747363448143,-0.0047507211565971375,0.1430148333311081}
			},
			{
				{0.05633268505334854,-0.05672232061624527,0.05542827025055885,-0.13861921429634094,-0.054390110075473785},
				{0.0023066240828484297,-0.1391628235578537,-0.09560694545507431,-0.030977020040154457,0.004526467062532902},
				{-0.022868376225233078,0.021127574145793915,-0.05809907987713814,-0.013579629361629486,-0.030073339119553566},
				{0.05764525383710861,-0.05097081884741783,0.0034005537163466215,-0.22897969186306,0.0988728255033493},
				{-0.14836855232715607,-0.04253675043582916,0.03310063108801842,-0.09273822605609894,-0.1143602505326271}
			},
			{
				{-0.08562283962965012,0.035235658288002014,0.151876300573349,0.01861860789358616,-0.03286143019795418},
				{0.009674237109720707,0.08239490538835526,0.1052253395318985,0.1008182018995285,0.055703017860651016},
				{-0.071607805788517,-0.13462014496326447,0.18409521877765656,-0.15315775573253632,0.1007041335105896},
				{0.07596837729215622,-0.1226193755865097,0.14043311774730682,0.09748361259698868,-0.017187858000397682},
				{-0.11332898586988449,-0.036652956157922745,-0.07819446921348572,-0.0819922387599945,0.018000377342104912}
			},
			{
				{0.1295139044523239,0.11420632898807526,-0.005683560855686665,-0.09795648604631424,-0.0993877500295639},
				{-0.036747731268405914,0.024132344871759415,-0.08730477094650269,0.11364475637674332,0.054703351110219955},
				{-0.1338769644498825,-0.046066764742136,0.015525739639997482,-0.1359420120716095,0.13087427616119385},
				{-0.06126189976930618,-0.12099529802799225,-0.10294871032238007,-0.012378203682601452,0.052392877638339996},
				{-0.02868535928428173,0.01362532563507557,-0.2531064450740814,-0.07888389378786087,0.07496121525764465}
			},
			{
				{0.10068362206220627,0.019839555025100708,0.06292988359928131,0.03638894855976105,0.02313350699841976},
				{-0.02305184118449688,0.004281637724488974,0.08076202869415283,-0.22492465376853943,0.09580258280038834},
				{-0.059122856706380844,0.18164202570915222,0.09439408034086227,-0.015203638933598995,0.0009669436840340495},
				{0.07509338855743408,0.09100918471813202,0.09609640389680862,0.15626440942287445,-0.05781303346157074},
				{-0.04064076766371727,0.03038322925567627,-0.16276878118515015,0.13874435424804688,-0.20380833745002747}
			},
			{
				{0.03361210972070694,-0.031852103769779205,-0.09780311584472656,-0.0167180635035038,-0.019849101081490517},
				{0.08157075941562653,-0.03461523726582527,-0.1647089123725891,0.15626749396324158,-0.1221117302775383},
				{-0.13956144452095032,-0.055169373750686646,0.029118884354829788,0.014339610934257507,0.10366666316986084},
				{0.01921170763671398,0.1230449452996254,-0.014677049592137337,-0.03112228959798813,-0.07446485757827759},
				{-0.022410616278648376,-0.058498069643974304,-0.0032990407198667526,0.12650051712989807,0.060689810663461685}
			},
			{
				{0.03130314126610756,0.11416224390268326,-0.04635477438569069,-0.03669110685586929,-0.027452880516648293},
				{-0.13308268785476685,0.13150840997695923,0.16055846214294434,-0.11062973737716675,0.02583974041044712},
				{0.15002229809761047,-0.02547796070575714,-0.005317375995218754,0.03292461857199669,-0.009558390825986862},
				{-0.015950681641697884,-0.1588408499956131,0.13893279433250427,0.09416575729846954,-0.04130814969539642},
				{-0.06759509444236755,0.04835062101483345,0.10204244405031204,-0.09691615402698517,-0.040614642202854156}
			},
			{
				{-0.07586827129125595,-0.04604024067521095,0.04250147566199303,0.0516183041036129,0.07706733793020248},
				{0.007201757747679949,-0.007408006116747856,-0.12118414044380188,0.13804060220718384,0.045196130871772766},
				{-0.0032068099826574326,0.03958846256136894,0.062332917004823685,-0.04196557402610779,-0.09315915405750275},
				{-0.10351905226707458,-0.01382504403591156,-0.03180933743715286,0.14201676845550537,-0.015537988394498825},
				{0.06630528718233109,-0.02842254936695099,-0.17967836558818817,-0.04178761690855026,0.0654754787683487}
			},
			{
				{0.0793042778968811,0.0624670535326004,0.12185335159301758,-0.07128582149744034,0.1590932160615921},
				{-0.09204581379890442,-0.10832855105400085,0.0514376200735569,-0.04992692545056343,-0.06885528564453125},
				{-0.1107775941491127,0.050595276057720184,-0.11293995380401611,-0.030153095722198486,0.11481902748346329},
				{0.12022192776203156,-0.15475711226463318,-0.1522991955280304,-0.13599608838558197,-0.0069813537411391735},
				{-0.03051607869565487,-0.1485612541437149,-0.06744852662086487,0.059567682445049286,0.031090201810002327}
			},
			{
				{0.014394739642739296,0.16477657854557037,0.008301946334540844,-0.018556656315922737,-0.05478770285844803},
				{-0.06276050955057144,-0.024675223976373672,-0.00523377675563097,0.048969417810440063,0.032978303730487823},
				{0.049179807305336,-0.003990124445408583,-0.18909423053264618,0.07740933448076248,0.042351022362709045},
				{-0.03295031189918518,0.14718212187290192,0.0008575753890909255,0.00913884025067091,-0.18046940863132477},
				{0.0020177154801785946,0.03550460562109947,0.03242150694131851,0.01786687783896923,-0.10057917982339859}
			},
			{
				{-0.031135255470871925,0.11075673997402191,-0.07084611803293228,-0.022379253059625626,-0.15113452076911926},
				{-0.005164537113159895,-0.025100287050008774,-0.061097532510757446,-0.03172462433576584,-0.007770223077386618},
				{-0.10266342014074326,0.09363274276256561,-0.052686747163534164,0.06570785492658615,0.15947487950325012},
				{-0.11530829966068268,0.081898532807827,0.13186658918857574,0.07047829031944275,0.022503547370433807},
				{0.13493649661540985,0.10854211449623108,0.006151231471449137,-0.13226014375686646,0.10750241577625275}
			},
			{
				{-0.020186923444271088,-0.1403876096010208,0.1805524379014969,-0.15426094830036163,0.08818422257900238},
				{-0.040614400058984756,-0.009310282766819,-0.1917818933725357,0.09722664207220078,-0.028303517028689384},
				{-0.10211494565010071,-0.0823090523481369,-0.05630863830447197,0.06626670807600021,-0.06803204119205475},
				{-0.06859944760799408,0.18204861879348755,0.004352723713964224,-0.019520452246069908,0.11478313058614731},
				{0.04260668531060219,0.09601838886737823,0.08560384064912796,-0.09229647368192673,0.011122229509055614}
			},
			{
				{-0.09332872927188873,0.028683364391326904,-0.04152020812034607,0.07555627077817917,-0.06827379018068314},
				{0.02752319723367691,-0.03721573203802109,0.009216256439685822,0.09281525015830994,-0.0370127372443676},
				{-0.18484242260456085,0.1645096391439438,-0.12343186885118484,-0.06523040682077408,-0.020068086683750153},
				{-0.13733434677124023,-0.03460113704204559,-0.08076030761003494,0.09240766614675522,-0.16537372767925262},
				{-0.07015502452850342,-0.040506064891815186,0.05067230015993118,-0.19217874109745026,-0.09249977767467499}
			},
			{
				{0.06855587661266327,0.07728386670351028,-0.10081112384796143,0.14993882179260254,-0.027875982224941254},
				{-0.061777547001838684,-0.11156491190195084,-0.06794850528240204,0.12449956685304642,0.15858305990695953},
				{-0.027354545891284943,0.042822472751140594,0.017481934279203415,-0.17401883006095886,0.04875575378537178},
				{0.03215790539979935,0.07296748459339142,0.17385070025920868,-0.06474055349826813,-0.16580882668495178},
				{-0.04205906763672829,0.11244161427021027,0.19344721734523773,0.08892644196748734,-0.09973722696304321}
			},
			{
				{0.010437930934131145,-0.04702981188893318,-0.07848929613828659,0.0803181529045105,0.02271425724029541},
				{-0.19521109759807587,-0.231282576918602,-0.0857359766960144,0.15446454286575317,-0.13263243436813354},
				{-0.0205561313778162,0.04053022712469101,0.07114140689373016,0.08894295990467072,-0.08037494122982025},
				{0.15532635152339935,0.020415838807821274,-0.06533768028020859,-0.11286665499210358,0.0021968381479382515},
				{0.04449813440442085,0.06708618998527527,-0.09845484793186188,0.12878146767616272,0.06571915745735168}
			},
			{
				{-0.10152984410524368,0.0037003583274781704,0.16392944753170013,-0.09072253108024597,0.05054274946451187},
				{-0.13748109340667725,-0.22767481207847595,-0.047504033893346786,0.09822948276996613,0.029440414160490036},
				{0.0770828127861023,0.007087938487529755,-0.022776780650019646,-0.1617995798587799,0.11830449849367142},
				{0.09339019656181335,0.14558550715446472,-0.11211768537759781,0.0378539003431797,0.00025731499772518873},
				{-0.06661027669906616,0.06762117892503738,-0.06359901279211044,-0.10402484983205795,-0.01056496612727642}
			},
			{
				{0.04675646871328354,-0.11028642952442169,0.012505950406193733,-0.16545002162456512,-0.041641123592853546},
				{-0.0014818980125710368,-0.0010509893763810396,-0.09215784072875977,0.0235297754406929,-0.09117470681667328},
				{-0.17888043820858002,0.06393911689519882,-0.03977784886956215,-0.04832516983151436,0.0876968577504158},
				{-0.09323669970035553,0.009597048163414001,0.04126477241516113,0.08042416721582413,0.042050719261169434},
				{-0.15842539072036743,0.05783075466752052,0.16815535724163055,-0.00945489201694727,-0.06673134118318558}
			},
			{
				{0.03358810022473335,-0.16501915454864502,-0.01381480973213911,0.20781153440475464,0.10436505824327469},
				{0.0465010330080986,-0.009193520061671734,0.19032803177833557,0.027562851086258888,0.120298832654953},
				{-0.004880235064774752,0.12814131379127502,0.16525572538375854,-0.01628449745476246,-0.0531778410077095},
				{0.07261607050895691,0.21074837446212769,-0.03702643886208534,-0.021230775862932205,0.04976741224527359},
				{0.03425034135580063,0.08895312249660492,-0.006244611460715532,0.027721399441361427,-0.021226024255156517}
			},
			{
				{0.10464298725128174,-0.00999805610626936,0.05381080135703087,0.12050516903400421,-0.010715192183852196},
				{0.03336920961737633,-0.09970802813768387,-0.006748697720468044,-0.0987759605050087,0.03226708248257637},
				{-0.13191381096839905,-0.056645460426807404,0.11985801160335541,-0.020070387050509453,-0.04330339655280113},
				{-0.022138407453894615,0.12900835275650024,-0.21944239735603333,0.049549080431461334,0.12118387967348099},
				{-0.028887759894132614,-0.11622920632362366,-0.10028292238712311,0.07913804054260254,-0.025042684748768806}
			},
			{
				{-0.15073274075984955,-0.03263713791966438,-0.09415717422962189,-0.03287848085165024,0.008390463888645172},
				{0.02762831188738346,-0.08376529067754745,0.026649760082364082,-0.04925829544663429,-0.03393145278096199},
				{-0.13310693204402924,0.07196744531393051,0.1369876265525818,-0.08968506753444672,-0.05528191477060318},
				{0.13772167265415192,-0.08187151700258255,-0.05789525434374809,0.107691690325737,0.14519871771335602},
				{-0.07476655393838882,-0.01525855716317892,-0.04101821035146713,-0.1106322705745697,0.07045382261276245}
			},
			{
				{-0.01164933666586876,0.030927082523703575,0.006232364568859339,0.016319308429956436,0.12201817333698273},
				{0.0014699777821078897,-0.2186702936887741,0.031022971495985985,0.07802131772041321,0.17149648070335388},
				{0.10636468976736069,-0.002230349462479353,-0.039808239787817,-0.031847383826971054,0.06296010315418243},
				{0.012052205391228199,0.007564913015812635,0.03416689112782478,0.007681055460125208,0.04308481886982918},
				{-0.022270234301686287,-0.1122220978140831,0.02265402302145958,-0.17758847773075104,0.01960819773375988}
			},
			{
				{-0.18784791231155396,-0.14237350225448608,-0.11987154185771942,0.016783874481916428,0.05002257972955704},
				{0.08796153962612152,0.029905257746577263,0.1277254968881607,0.17591269314289093,-0.021697109565138817},
				{-0.12245297431945801,0.06387641280889511,-0.10224999487400055,0.02329304814338684,-0.02941988967359066},
				{0.1846453845500946,-0.03316198289394379,-0.05672760680317879,-0.12492312490940094,-0.04809662699699402},
				{-0.08188269287347794,0.09527799487113953,-0.08448123186826706,0.07517332583665848,-0.04874328151345253}
			},
			{
				{0.1056828573346138,-0.023911431431770325,-0.12569314241409302,-0.06739452481269836,0.09163062274456024},
				{0.07376184314489365,0.02333039604127407,0.05393870174884796,-0.01828453689813614,0.08985055983066559},
				{0.18727198243141174,-0.08110561966896057,0.06770524382591248,-0.09815312922000885,0.0374007374048233},
				{-0.0475766621530056,-0.04848263040184975,-0.07599110156297684,-0.03676436096429825,-0.06586518883705139},
				{-0.009388929232954979,-0.1979694366455078,0.031345877796411514,-0.21237966418266296,-0.008734934963285923}
			},
			{
				{-0.017143001779913902,-0.03343377634882927,0.07083220034837723,0.0773351863026619,-0.11416708678007126},
				{0.05216004699468613,0.032790131866931915,0.03420955687761307,0.07893096655607224,-0.05409436300396919},
				{-0.12677383422851562,0.03900972753763199,-0.028425462543964386,-0.022043395787477493,-0.05472138524055481},
				{-0.12945182621479034,0.00993270892649889,0.12119609117507935,-0.049444980919361115,-0.04169994592666626},
				{0.05776461213827133,0.03502140939235687,0.005452267825603485,0.1313658356666565,0.04249222204089165}
			},
			{
				{0.0645933523774147,-0.10025086998939514,-0.08934377133846283,-0.1664065718650818,-0.05079716071486473},
				{-0.03894486278295517,-0.00885426253080368,-0.19976294040679932,-0.1701909750699997,0.10231495648622513},
				{0.07419279217720032,-0.09377366304397583,0.097408726811409,0.03967323899269104,0.032829176634550095},
				{0.06866982579231262,0.13521012663841248,0.16865402460098267,-0.1002216786146164,0.06798652559518814},
				{-0.10323935747146606,0.06826034933328629,0.017894219607114792,-0.06834165006875992,0.027376538142561913}
			},
			{
				{-0.07864998281002045,0.025562124326825142,0.062024399638175964,0.12443000078201294,0.20098690688610077},
				{0.016768181696534157,-0.18427807092666626,0.0033186289947479963,0.023997614160180092,-0.07742050290107727},
				{-0.06658764183521271,-0.01175665482878685,-0.04873594641685486,-0.08132990449666977,-0.04291495308279991},
				{-0.12363220006227493,0.060458555817604065,0.02221912518143654,0.008256071247160435,0.20517723262310028},
				{-0.2038809061050415,0.009083661250770092,-0.06556709855794907,-0.10689885169267654,-0.009768213145434856}
			},
			{
				{0.052392128854990005,-0.11804284900426865,-0.04719322919845581,-0.10433518141508102,-0.11458267271518707},
				{0.014797528274357319,0.16398438811302185,-0.09752463549375534,-0.03900890052318573,-0.14286313951015472},
				{-0.014103752560913563,-0.09906446188688278,-0.01745014637708664,-0.036972928792238235,-0.13847969472408295},
				{0.1144123449921608,0.0555943064391613,-0.03932240232825279,-0.13202744722366333,0.13581854104995728},
				{-0.16825398802757263,-0.01984325982630253,0.11614270508289337,0.08966835588216782,0.0060776821337640285}
			},
			{
				{0.08717568218708038,-0.04599616304039955,0.07578889280557632,-0.054448142647743225,-0.04763822257518768},
				{-0.042859457433223724,-0.027530977502465248,0.1313568651676178,0.10091682523488998,-0.10780676454305649},
				{-0.04150868579745293,-0.06318758428096771,0.026026951149106026,-0.0666784942150116,-0.09086614102125168},
				{0.048535022884607315,-0.013687648810446262,0.027068667113780975,0.04341111704707146,0.119460329413414},
				{-0.12500132620334625,-0.14333273470401764,-0.12880724668502808,0.13595333695411682,0.07080261409282684}
			},
			{
				{-0.032875023782253265,0.1294647753238678,0.059579044580459595,-0.11583968251943588,0.03900264948606491},
				{-0.08312173932790756,-0.20281782746315002,-0.08048000186681747,-0.12065011262893677,0.027018945664167404},
				{-0.10413628071546555,-0.057082027196884155,-0.09385158866643906,0.035785943269729614,-0.040016401559114456},
				{0.056706901639699936,-0.06513974815607071,-0.18686199188232422,0.11617054790258408,0.03348996490240097},
				{-0.05383298546075821,-0.013904780149459839,-0.05317110940814018,-0.07583167403936386,-0.07940464466810226}
			},
			{
				{0.021793091669678688,0.05889492481946945,-0.07962030917406082,-0.09154257923364639,-0.13612914085388184},
				{-0.0837269276380539,0.1000182181596756,-0.07865619659423828,0.17283345758914948,-0.04667338728904724},
				{-0.20635142922401428,0.014070427045226097,0.12265808880329132,-0.038195881992578506,0.13820144534111023},
				{-0.03051207959651947,0.042768560349941254,4.463115328690037e-05,-0.032515425235033035,0.12509094178676605},
				{-0.10951013118028641,0.0124749094247818,-0.05291610583662987,-0.0683608204126358,-0.08770715445280075}
			},
			{
				{-0.009511318989098072,0.05639617517590523,0.05022554099559784,-0.058524761348962784,0.09008240699768066},
				{-0.015155615285038948,0.04863559827208519,-0.024838993325829506,-0.21286073327064514,-0.06441530585289001},
				{-0.09929557889699936,0.06218750774860382,0.12028463184833527,0.15611134469509125,-0.08359713107347488},
				{-0.1405470371246338,0.028193999081850052,0.008421515114605427,-0.10140714049339294,0.07182515412569046},
				{0.13993939757347107,0.01168776024132967,-0.0748009979724884,0.02806953527033329,-0.13438016176223755}
			},
			{
				{-0.1282796859741211,0.06134223937988281,-0.025379784405231476,-0.09968657046556473,-0.2138592004776001},
				{-0.19477450847625732,-0.1704827845096588,0.08624499291181564,-0.06256265193223953,-0.16302114725112915},
				{0.13907139003276825,-0.045323628932237625,-0.0038217229302972555,-0.10211881995201111,0.062051672488451004},
				{-0.05311698466539383,-0.11991271376609802,-0.03423149138689041,0.013656501658260822,0.06944409757852554},
				{0.0789121687412262,0.022568978369235992,0.08276619017124176,-0.05145592615008354,-0.014728449285030365}
			},
			{
				{0.003524487605318427,-0.023979853838682175,-0.015721376985311508,-0.02013859897851944,0.014584420248866081},
				{0.07418899238109589,0.10542339086532593,0.10853464156389236,-0.012179631739854813,0.04170858860015869},
				{0.026053687557578087,0.11850175261497498,0.1886829435825348,-0.13854646682739258,-0.1559240072965622},
				{-0.0007172523182816803,-0.002695259638130665,0.016893167048692703,-0.039034754037857056,-0.08417396992444992},
				{0.008536539040505886,0.06734856963157654,-0.18628062307834625,-0.0069007882848382,-0.1074194386601448}
			},
			{
				{0.12298059463500977,0.09506818652153015,0.162538081407547,0.03476756066083908,-0.065468929708004},
				{0.1645141839981079,-0.012453687377274036,-0.023011038079857826,0.03131737560033798,0.0389232411980629},
				{0.16290143132209778,-0.07330705970525742,0.05302590876817703,0.015790186822414398,-0.031987372785806656},
				{-0.00932606402784586,-0.12516053020954132,0.1309480220079422,-0.07849549502134323,-0.08762707561254501},
				{0.028081834316253662,-0.026089970022439957,0.14781107008457184,0.0027529753278940916,-0.1527790129184723}
			},
			{
				{-0.20047210156917572,0.021978940814733505,-0.056523095816373825,-0.10924924165010452,-0.12664803862571716},
				{-0.04740431532263756,-0.017379604279994965,0.04594769701361656,-0.03192641958594322,-0.12679244577884674},
				{-0.07874362915754318,0.10427634418010712,-0.08511222153902054,0.14479519426822662,-0.1218782588839531},
				{0.1558113545179367,0.03404339775443077,-0.04987960308790207,0.00856762658804655,0.12794646620750427},
				{-0.043319229036569595,0.005465480964630842,-0.04396927356719971,-0.04581746459007263,0.01859416253864765}
			},
			{
				{-0.04668548330664635,-0.026251262053847313,-0.08091360330581665,-0.14932727813720703,-0.10587750375270844},
				{0.1331171691417694,0.11669914424419403,-0.0875028744339943,0.15003450214862823,0.09284841269254684},
				{-0.08649071305990219,0.08590264618396759,-0.14127008616924286,-0.0795288160443306,0.0394720621407032},
				{0.0033756953198462725,0.15030474960803986,-0.01998608186841011,-0.08055134862661362,-0.1498744636774063},
				{-0.11413821578025818,0.06282087415456772,0.023229161277413368,0.17412470281124115,-0.030942071229219437}
			},
			{
				{0.0005933048669248819,0.0383065789937973,-0.09050219506025314,-0.16463825106620789,0.07473725825548172},
				{-0.05318707227706909,0.03206988051533699,0.07988322526216507,-0.04959871992468834,0.054728131741285324},
				{-0.14192929863929749,0.14800933003425598,-0.006177624687552452,-0.09641292691230774,-0.13157083094120026},
				{-0.15178519487380981,-0.07189849764108658,-0.11759823560714722,-0.03148573264479637,-0.06850500404834747},
				{-0.02914493717253208,-0.09376433491706848,0.03849465027451515,-0.07042340934276581,-0.04998496174812317}
			},
			{
				{-0.1850084662437439,0.013509641401469707,0.07341666519641876,-0.0603664256632328,-0.1784709244966507},
				{-0.015862761065363884,-0.020982792600989342,-0.09913595765829086,-0.08653498440980911,0.11188114434480667},
				{0.05082091689109802,-0.09531904011964798,-0.12974701821804047,-0.13787250220775604,0.08270086348056793},
				{-0.11905363947153091,-0.14586716890335083,0.0754900798201561,-0.0028651943430304527,-0.07681223005056381},
				{-0.12856227159500122,-0.06844905018806458,-0.1764632910490036,0.14692795276641846,-0.16618239879608154}
			},
			{
				{-0.1684887558221817,0.007897278293967247,0.06777781993150711,0.08246752619743347,-0.020463496446609497},
				{0.031380850821733475,-0.16061262786388397,0.05572408065199852,0.055960513651371,0.02429681085050106},
				{-0.08331883698701859,0.07821868360042572,-0.14694584906101227,-0.016992855817079544,0.10548458248376846},
				{-0.19643475115299225,0.048840031027793884,-0.1781383752822876,0.1248256042599678,-0.045219842344522476},
				{-0.07161030918359756,-0.023463262245059013,-0.01752936653792858,0.06843646615743637,-0.026012616232037544}
			},
			{
				{0.030920011922717094,-0.16048023104667664,-0.08209463953971863,0.04577804356813431,-0.056223515421152115},
				{-0.11003661155700684,-0.006197575479745865,-0.1409866064786911,-0.09283249080181122,-0.1535910964012146},
				{-0.12973318994045258,-0.03657279163599014,-0.0033102682791650295,0.1414993554353714,-0.06379543244838715},
				{0.017960291355848312,0.06424562633037567,-0.08406294137239456,-0.2209356129169464,0.03256900981068611},
				{0.14440762996673584,-0.06209452450275421,-0.04392032325267792,0.008424379862844944,-0.06298060715198517}
			},
			{
				{0.07232161611318588,0.17244768142700195,-0.006716512143611908,-0.044049207121133804,-0.1775859296321869},
				{-0.09113182872533798,-0.010324080474674702,-0.09814310073852539,0.1303556114435196,-0.007705081254243851},
				{0.15961284935474396,-0.08074492961168289,0.04107433184981346,0.026889657601714134,-0.08241205662488937},
				{-0.11549674719572067,0.07526098936796188,-0.012561165727674961,0.031195705756545067,-0.021876277402043343},
				{0.034338824450969696,-0.005519931670278311,-0.0256094578653574,0.009517821483314037,-0.1784742772579193}
			},
			{
				{-0.03859734535217285,-0.20632390677928925,0.08971536159515381,0.03188000246882439,-0.034954171627759933},
				{0.06876347959041595,0.15978358685970306,-0.18874192237854004,0.004795490764081478,-0.021196274086833},
				{0.004188112914562225,0.05117489770054817,-0.11979489773511887,-0.009763731621205807,0.013512639328837395},
				{0.178776815533638,-0.04937133565545082,-0.12044704705476761,0.09073666483163834,-0.14018882811069489},
				{-0.004979916848242283,-0.12502089142799377,-0.017701124772429466,0.07481952756643295,0.054421715438365936}
			},
			{
				{-0.058197375386953354,-0.07628779858350754,0.17071844637393951,-0.09963338077068329,-0.06958912312984467},
				{-0.023546526208519936,0.03769511356949806,-0.12929241359233856,-0.05463563650846481,0.04920263588428497},
				{-0.15434977412223816,-0.08024130761623383,-0.022305509075522423,-0.1574947088956833,0.011681834235787392},
				{0.11217610538005829,-0.0394648052752018,0.08955640345811844,-0.08958343416452408,0.11642168462276459},
				{0.021097376942634583,-0.14699473977088928,0.05253367871046066,-0.039356015622615814,-0.032547786831855774}
			},
			{
				{0.03675355389714241,-0.0386127270758152,-0.08756854385137558,0.0018270654836669564,0.018707236275076866},
				{0.1400497406721115,-0.07234157621860504,-0.06499265134334564,-0.059593990445137024,-0.04572440683841705},
				{-0.11024150252342224,-0.006365704815834761,-0.022366274148225784,0.0736299678683281,-0.0055565913207829},
				{0.15643523633480072,0.12854842841625214,0.003904407611116767,-0.1494283825159073,0.018818775191903114},
				{-0.02985258586704731,-0.041613347828388214,0.022859573364257812,-0.0011135265231132507,0.1548839509487152}
			},
			{
				{-0.08248434960842133,0.05862141773104668,-0.02139694057404995,-0.06043340265750885,-0.08102599531412125},
				{-0.20679143071174622,-0.05175631865859032,-0.06316894292831421,0.09138107299804688,-0.18375377357006073},
				{-0.08433406800031662,-0.025415202602744102,-0.1361803114414215,0.0012899184366688132,0.06432954967021942},
				{0.19085992872714996,0.019204232841730118,0.021543696522712708,0.0312705934047699,-0.08714950084686279},
				{0.06861746311187744,-0.07814078032970428,0.05660143122076988,0.08779220283031464,-0.09189940989017487}
			},
			{
				{-0.09435474127531052,-0.0963953286409378,-0.08055669069290161,-0.05515173822641373,-0.008909285999834538},
				{-0.21972434222698212,-0.005753752309828997,-0.16233272850513458,-0.012026908807456493,0.10358566790819168},
				{-0.040271464735269547,-0.11553499847650528,0.0199560709297657,0.07463099807500839,0.161865696310997},
				{-0.05996875464916229,0.0028529248666018248,0.014501483179628849,0.058326881378889084,-0.11039707064628601},
				{-0.07797098904848099,-0.07599896192550659,-0.0009958954760804772,-0.0316571481525898,0.19016249477863312}
			},
			{
				{-0.12063468992710114,-0.02902328595519066,0.01300403755158186,0.0029502524994313717,0.034439459443092346},
				{-0.09737168997526169,-0.1665060669183731,0.06335286796092987,0.06892983615398407,0.008277351036667824},
				{-0.015217677690088749,-0.10161218792200089,0.029570244252681732,0.06337055563926697,0.07188412547111511},
				{-0.054916076362133026,-0.17696069180965424,0.04175589233636856,-0.055593498051166534,-0.08016230165958405},
				{-0.0881396234035492,-0.07898671180009842,-0.14502397179603577,0.004928207956254482,-0.049749746918678284}
			},
			{
				{-0.0947151929140091,0.022580040618777275,0.060157809406518936,-0.021545542404055595,0.14316241443157196},
				{-0.15054850280284882,-0.11284531652927399,-0.06223125010728836,-0.1339949667453766,0.02046254090964794},
				{0.0251460000872612,-0.134108304977417,-0.01224427204579115,-0.044770367443561554,0.1094684973359108},
				{0.12574787437915802,0.072533518075943,-0.03924046829342842,0.08562373369932175,-0.08186931163072586},
				{0.09192021936178207,0.040101904422044754,0.13080161809921265,-0.2222113162279129,-0.1221124455332756}
			},
			{
				{0.010247099213302135,0.0016978930216282606,0.0022054773289710283,0.013322540558874607,0.0012315193889662623},
				{-0.0020689931698143482,0.02380203641951084,-0.0010577929206192493,-0.06105455383658409,-0.12912729382514954},
				{-0.15094852447509766,0.03848932310938835,-0.04693986475467682,-0.004416508134454489,0.10143843293190002},
				{0.13630364835262299,-0.047246865928173065,-0.00274149258621037,0.10009588301181793,0.09824586659669876},
				{-0.0823400691151619,0.128424271941185,-0.006227434612810612,-0.059764228761196136,0.04243219643831253}
			},
			{
				{-0.037134163081645966,-0.09392847865819931,0.09478851407766342,0.008828055113554,-0.02277398109436035},
				{-0.13456927239894867,-0.10611289739608765,0.15058492124080658,-0.05444789677858353,-0.014255219139158726},
				{-0.1528339982032776,-0.055106792598962784,-0.06108970195055008,0.018678320571780205,-0.061086591333150864},
				{0.02491890825331211,0.036110103130340576,0.0032985287252813578,0.013097839429974556,0.03005853295326233},
				{-0.14242419600486755,0.048211194574832916,0.05248868092894554,0.048294104635715485,0.17052187025547028}
			},
			{
				{-0.07948552817106247,-0.021712297573685646,0.04733312129974365,-0.0181812085211277,-0.13752464950084686},
				{0.000764133466873318,-0.11713039875030518,-0.03681620955467224,0.03574810177087784,-0.1240229681134224},
				{-0.05015147104859352,-0.026845000684261322,-0.13084776699543,-0.05129285529255867,-0.12278369814157486},
				{0.00918938685208559,-0.07771464437246323,-0.014670911245048046,-0.0832463875412941,-0.022691838443279266},
				{-0.12910272181034088,0.026774056255817413,0.06402077525854111,0.08298007398843765,0.030964689329266548}
			},
			{
				{-0.1260634809732437,0.022413654252886772,-0.0556778609752655,-0.11845038831233978,-0.05252823978662491},
				{-0.017866002395749092,0.08131136000156403,0.09062473475933075,0.09583671391010284,-0.08960407972335815},
				{-0.0385110005736351,0.08098962903022766,0.05074724555015564,0.15480934083461761,-0.18310855329036713},
				{-0.0270257368683815,-0.019713085144758224,-0.14399787783622742,0.1394762396812439,-0.14709888398647308},
				{0.09000413864850998,0.13984143733978271,0.011520917527377605,-0.17502978444099426,0.04444807767868042}
			},
			{
				{0.0031661875545978546,-0.1443592607975006,-0.11677250266075134,0.08428429812192917,0.05523328855633736},
				{-0.07704302668571472,-0.11429376900196075,0.16278326511383057,0.05087069422006607,-0.015623855404555798},
				{-0.05107683315873146,0.06977681070566177,0.16058962047100067,-0.15384817123413086,-0.029022064059972763},
				{-0.01745407097041607,-0.12731771171092987,-0.1528252363204956,0.11496061831712723,0.1190958023071289},
				{-0.10851919651031494,0.0005948155885562301,0.02822570689022541,0.07827876508235931,0.1550477296113968}
			},
			{
				{-0.07037036865949631,-0.20231182873249054,0.17684438824653625,0.07884152978658676,-0.0363021045923233},
				{0.018678437918424606,0.09031613916158676,0.00548667972907424,0.056813180446624756,0.10216356068849564},
				{-0.19197238981723785,-0.0674218162894249,0.000187505895155482,0.05735049024224281,0.1048872172832489},
				{-0.0025886481162160635,0.12380147725343704,-0.13491742312908173,0.14246080815792084,-0.09749524295330048},
				{-0.06881170719861984,0.01834629476070404,0.16634362936019897,-0.07076451182365417,-0.05366336554288864}
			},
			{
				{0.05866646394133568,0.09976105391979218,-0.1978178173303604,-0.21101287007331848,-0.06379194557666779},
				{-0.05718638002872467,-0.061953648924827576,0.06564777344465256,-0.06271559745073318,-0.06880925595760345},
				{-0.04811786115169525,-0.05873088166117668,0.06152709200978279,-0.15033620595932007,0.056593917310237885},
				{-0.17225749790668488,0.07536742836236954,0.03478679433465004,-0.034755341708660126,0.036987628787755966},
				{0.10034123063087463,-0.006145385093986988,-0.02181849256157875,-0.1211734339594841,0.049835775047540665}
			},
			{
				{0.1582946628332138,-0.017379773780703545,-0.05233026295900345,-0.166238933801651,0.02928287722170353},
				{0.12703965604305267,0.054550766944885254,0.14717070758342743,-0.03882265463471413,0.09731213003396988},
				{0.04130704328417778,-0.04865232855081558,-0.11375917494297028,-0.0030929259955883026,-0.1552579551935196},
				{0.07709871977567673,0.16677184402942657,0.110562264919281,0.022818177938461304,0.08280589431524277},
				{-0.031688231974840164,0.07265076786279678,-0.015082428231835365,-0.1509191244840622,-0.04344421252608299}
			},
			{
				{-0.020228514447808266,0.11060330271720886,-0.1592687964439392,-0.03756790980696678,-0.058540984988212585},
				{0.11060042679309845,0.14194008708000183,-0.11807737499475479,0.04972727596759796,-0.09040532261133194},
				{0.09430290013551712,0.027039675042033195,0.10131219774484634,0.07703457772731781,0.040755949914455414},
				{-0.12263469398021698,0.037855472415685654,-0.10020005702972412,0.009595570154488087,-0.06815981864929199},
				{0.10645323246717453,-0.00574497738853097,-0.012554836459457874,-0.08385589718818665,-0.032084982842206955}
			},
			{
				{-0.16959726810455322,-0.11634954065084457,0.06437990069389343,-0.16534128785133362,-0.06109520420432091},
				{-0.013250005431473255,0.09181931614875793,-0.08026894927024841,-0.14714032411575317,0.0189475417137146},
				{0.037234336137771606,0.16207607090473175,0.019432665780186653,-0.1735002100467682,0.009670746512711048},
